{"learner":{"attributes":{"scikit_learn":"{\"_estimator_type\": \"classifier\"}"},"feature_names":[],"feature_types":[],"gradient_booster":{"model":{"cats":{"enc":[],"feature_segments":[],"sorted_idx":[]},"gbtree_model_param":{"num_parallel_tree":"1","num_trees":"1907"},"iteration_indptr":[0,1,2,3,4,5,6,7,8,9,10,11,12,13,14,15,16,17,18,19,20,21,22,23,24,25,26,27,28,29,30,31,32,33,34,35,36,37,38,39,40,41,42,43,44,45,46,47,48,49,50,51,52,53,54,55,56,57,58,59,60,61,62,63,64,65,66,67,68,69,70,71,72,73,74,75,76,77,78,79,80,81,82,83,84,85,86,87,88,89,90,91,92,93,94,95,96,97,98,99,100,101,102,103,104,105,106,107,108,109,110,111,112,113,114,115,116,117,118,119,120,121,122,123,124,125,126,127,128,129,130,131,132,133,134,135,136,137,138,139,140,141,142,143,144,145,146,147,148,149,150,151,152,153,154,155,156,157,158,159,160,161,162,163,164,165,166,167,168,169,170,171,172,173,174,175,176,177,178,179,180,181,182,183,184,185,186,187,188,189,190,191,192,193,194,195,196,197,198,199,200,201,202,203,204,205,206,207,208,209,210,211,212,213,214,215,216,217,218,219,220,221,222,223,224,225,226,227,228,229,230,231,232,233,234,235,236,237,238,239,240,241,242,243,244,245,246,247,248,249,250,251,252,253,254,255,256,257,258,259,260,261,262,263,264,265,266,267,268,269,270,271,272,273,274,275,276,277,278,279,280,281,282,283,284,285,286,287,288,289,290,291,292,293,294,295,296,297,298,299,300,301,302,303,304,305,306,307,308,309,310,311,312,313,314,315,316,317,318,319,320,321,322,323,324,325,326,327,328,329,330,331,332,333,334,335,336,337,338,339,340,341,342,343,344,345,346,347,348,349,350,351,352,353,354,355,356,357,358,359,360,361,362,363,364,365,366,367,368,369,370,371,372,373,374,375,376,377,378,379,380,381,382,383,384,385,386,387,388,389,390,391,392,393,394,395,396,397,398,399,400,401,402,403,404,405,406,407,408,409,410,411,412,413,414,415,416,417,418,419,420,421,422,423,424,425,426,427,428,429,430,431,432,433,434,435,436,437,438,439,440,441,442,443,444,445,446,447,448,449,450,451,452,453,454,455,456,457,458,459,460,461,462,463,464,465,466,467,468,469,470,471,472,473,474,475,476,477,478,479,480,481,482,483,484,485,486,487,488,489,490,491,492,493,494,495,496,497,498,499,500,501,502,503,504,505,506,507,508,509,510,511,512,513,514,515,516,517,518,519,520,521,522,523,524,525,526,527,528,529,530,531,532,533,534,535,536,537,538,539,540,541,542,543,544,545,546,547,548,549,550,551,552,553,554,555,556,557,558,559,560,561,562,563,564,565,566,567,568,569,570,571,572,573,574,575,576,577,578,579,580,581,582,583,584,585,586,587,588,589,590,591,592,593,594,595,596,597,598,599,600,601,602,603,604,605,606,607,608,609,610,611,612,613,614,615,616,617,618,619,620,621,622,623,624,625,626,627,628,629,630,631,632,633,634,635,636,637,638,639,640,641,642,643,644,645,646,647,648,649,650,651,652,653,654,655,656,657,658,659,660,661,662,663,664,665,666,667,668,669,670,671,672,673,674,675,676,677,678,679,680,681,682,683,684,685,686,687,688,689,690,691,692,693,694,695,696,697,698,699,700,701,702,703,704,705,706,707,708,709,710,711,712,713,714,715,716,717,718,719,720,721,722,723,724,725,726,727,728,729,730,731,732,733,734,735,736,737,738,739,740,741,742,743,744,745,746,747,748,749,750,751,752,753,754,755,756,757,758,759,760,761,762,763,764,765,766,767,768,769,770,771,772,773,774,775,776,777,778,779,780,781,782,783,784,785,786,787,788,789,790,791,792,793,794,795,796,797,798,799,800,801,802,803,804,805,806,807,808,809,810,811,812,813,814,815,816,817,818,819,820,821,822,823,824,825,826,827,828,829,830,831,832,833,834,835,836,837,838,839,840,841,842,843,844,845,846,847,848,849,850,851,852,853,854,855,856,857,858,859,860,861,862,863,864,865,866,867,868,869,870,871,872,873,874,875,876,877,878,879,880,881,882,883,884,885,886,887,888,889,890,891,892,893,894,895,896,897,898,899,900,901,902,903,904,905,906,907,908,909,910,911,912,913,914,915,916,917,918,919,920,921,922,923,924,925,926,927,928,929,930,931,932,933,934,935,936,937,938,939,940,941,942,943,944,945,946,947,948,949,950,951,952,953,954,955,956,957,958,959,960,961,962,963,964,965,966,967,968,969,970,971,972,973,974,975,976,977,978,979,980,981,982,983,984,985,986,987,988,989,990,991,992,993,994,995,996,997,998,999,1000,1001,1002,1003,1004,1005,1006,1007,1008,1009,1010,1011,1012,1013,1014,1015,1016,1017,1018,1019,1020,1021,1022,1023,1024,1025,1026,1027,1028,1029,1030,1031,1032,1033,1034,1035,1036,1037,1038,1039,1040,1041,1042,1043,1044,1045,1046,1047,1048,1049,1050,1051,1052,1053,1054,1055,1056,1057,1058,1059,1060,1061,1062,1063,1064,1065,1066,1067,1068,1069,1070,1071,1072,1073,1074,1075,1076,1077,1078,1079,1080,1081,1082,1083,1084,1085,1086,1087,1088,1089,1090,1091,1092,1093,1094,1095,1096,1097,1098,1099,1100,1101,1102,1103,1104,1105,1106,1107,1108,1109,1110,1111,1112,1113,1114,1115,1116,1117,1118,1119,1120,1121,1122,1123,1124,1125,1126,1127,1128,1129,1130,1131,1132,1133,1134,1135,1136,1137,1138,1139,1140,1141,1142,1143,1144,1145,1146,1147,1148,1149,1150,1151,1152,1153,1154,1155,1156,1157,1158,1159,1160,1161,1162,1163,1164,1165,1166,1167,1168,1169,1170,1171,1172,1173,1174,1175,1176,1177,1178,1179,1180,1181,1182,1183,1184,1185,1186,1187,1188,1189,1190,1191,1192,1193,1194,1195,1196,1197,1198,1199,1200,1201,1202,1203,1204,1205,1206,1207,1208,1209,1210,1211,1212,1213,1214,1215,1216,1217,1218,1219,1220,1221,1222,1223,1224,1225,1226,1227,1228,1229,1230,1231,1232,1233,1234,1235,1236,1237,1238,1239,1240,1241,1242,1243,1244,1245,1246,1247,1248,1249,1250,1251,1252,1253,1254,1255,1256,1257,1258,1259,1260,1261,1262,1263,1264,1265,1266,1267,1268,1269,1270,1271,1272,1273,1274,1275,1276,1277,1278,1279,1280,1281,1282,1283,1284,1285,1286,1287,1288,1289,1290,1291,1292,1293,1294,1295,1296,1297,1298,1299,1300,1301,1302,1303,1304,1305,1306,1307,1308,1309,1310,1311,1312,1313,1314,1315,1316,1317,1318,1319,1320,1321,1322,1323,1324,1325,1326,1327,1328,1329,1330,1331,1332,1333,1334,1335,1336,1337,1338,1339,1340,1341,1342,1343,1344,1345,1346,1347,1348,1349,1350,1351,1352,1353,1354,1355,1356,1357,1358,1359,1360,1361,1362,1363,1364,1365,1366,1367,1368,1369,1370,1371,1372,1373,1374,1375,1376,1377,1378,1379,1380,1381,1382,1383,1384,1385,1386,1387,1388,1389,1390,1391,1392,1393,1394,1395,1396,1397,1398,1399,1400,1401,1402,1403,1404,1405,1406,1407,1408,1409,1410,1411,1412,1413,1414,1415,1416,1417,1418,1419,1420,1421,1422,1423,1424,1425,1426,1427,1428,1429,1430,1431,1432,1433,1434,1435,1436,1437,1438,1439,1440,1441,1442,1443,1444,1445,1446,1447,1448,1449,1450,1451,1452,1453,1454,1455,1456,1457,1458,1459,1460,1461,1462,1463,1464,1465,1466,1467,1468,1469,1470,1471,1472,1473,1474,1475,1476,1477,1478,1479,1480,1481,1482,1483,1484,1485,1486,1487,1488,1489,1490,1491,1492,1493,1494,1495,1496,1497,1498,1499,1500,1501,1502,1503,1504,1505,1506,1507,1508,1509,1510,1511,1512,1513,1514,1515,1516,1517,1518,1519,1520,1521,1522,1523,1524,1525,1526,1527,1528,1529,1530,1531,1532,1533,1534,1535,1536,1537,1538,1539,1540,1541,1542,1543,1544,1545,1546,1547,1548,1549,1550,1551,1552,1553,1554,1555,1556,1557,1558,1559,1560,1561,1562,1563,1564,1565,1566,1567,1568,1569,1570,1571,1572,1573,1574,1575,1576,1577,1578,1579,1580,1581,1582,1583,1584,1585,1586,1587,1588,1589,1590,1591,1592,1593,1594,1595,1596,1597,1598,1599,1600,1601,1602,1603,1604,1605,1606,1607,1608,1609,1610,1611,1612,1613,1614,1615,1616,1617,1618,1619,1620,1621,1622,1623,1624,1625,1626,1627,1628,1629,1630,1631,1632,1633,1634,1635,1636,1637,1638,1639,1640,1641,1642,1643,1644,1645,1646,1647,1648,1649,1650,1651,1652,1653,1654,1655,1656,1657,1658,1659,1660,1661,1662,1663,1664,1665,1666,1667,1668,1669,1670,1671,1672,1673,1674,1675,1676,1677,1678,1679,1680,1681,1682,1683,1684,1685,1686,1687,1688,1689,1690,1691,1692,1693,1694,1695,1696,1697,1698,1699,1700,1701,1702,1703,1704,1705,1706,1707,1708,1709,1710,1711,1712,1713,1714,1715,1716,1717,1718,1719,1720,1721,1722,1723,1724,1725,1726,1727,1728,1729,1730,1731,1732,1733,1734,1735,1736,1737,1738,1739,1740,1741,1742,1743,1744,1745,1746,1747,1748,1749,1750,1751,1752,1753,1754,1755,1756,1757,1758,1759,1760,1761,1762,1763,1764,1765,1766,1767,1768,1769,1770,1771,1772,1773,1774,1775,1776,1777,1778,1779,1780,1781,1782,1783,1784,1785,1786,1787,1788,1789,1790,1791,1792,1793,1794,1795,1796,1797,1798,1799,1800,1801,1802,1803,1804,1805,1806,1807,1808,1809,1810,1811,1812,1813,1814,1815,1816,1817,1818,1819,1820,1821,1822,1823,1824,1825,1826,1827,1828,1829,1830,1831,1832,1833,1834,1835,1836,1837,1838,1839,1840,1841,1842,1843,1844,1845,1846,1847,1848,1849,1850,1851,1852,1853,1854,1855,1856,1857,1858,1859,1860,1861,1862,1863,1864,1865,1866,1867,1868,1869,1870,1871,1872,1873,1874,1875,1876,1877,1878,1879,1880,1881,1882,1883,1884,1885,1886,1887,1888,1889,1890,1891,1892,1893,1894,1895,1896,1897,1898,1899,1900,1901,1902,1903,1904,1905,1906,1907],"tree_info":[0,0,0,0,0,0,0,0,0,0,0,0,0,0,0,0,0,0,0,0,0,0,0,0,0,0,0,0,0,0,0,0,0,0,0,0,0,0,0,0,0,0,0,0,0,0,0,0,0,0,0,0,0,0,0,0,0,0,0,0,0,0,0,0,0,0,0,0,0,0,0,0,0,0,0,0,0,0,0,0,0,0,0,0,0,0,0,0,0,0,0,0,0,0,0,0,0,0,0,0,0,0,0,0,0,0,0,0,0,0,0,0,0,0,0,0,0,0,0,0,0,0,0,0,0,0,0,0,0,0,0,0,0,0,0,0,0,0,0,0,0,0,0,0,0,0,0,0,0,0,0,0,0,0,0,0,0,0,0,0,0,0,0,0,0,0,0,0,0,0,0,0,0,0,0,0,0,0,0,0,0,0,0,0,0,0,0,0,0,0,0,0,0,0,0,0,0,0,0,0,0,0,0,0,0,0,0,0,0,0,0,0,0,0,0,0,0,0,0,0,0,0,0,0,0,0,0,0,0,0,0,0,0,0,0,0,0,0,0,0,0,0,0,0,0,0,0,0,0,0,0,0,0,0,0,0,0,0,0,0,0,0,0,0,0,0,0,0,0,0,0,0,0,0,0,0,0,0,0,0,0,0,0,0,0,0,0,0,0,0,0,0,0,0,0,0,0,0,0,0,0,0,0,0,0,0,0,0,0,0,0,0,0,0,0,0,0,0,0,0,0,0,0,0,0,0,0,0,0,0,0,0,0,0,0,0,0,0,0,0,0,0,0,0,0,0,0,0,0,0,0,0,0,0,0,0,0,0,0,0,0,0,0,0,0,0,0,0,0,0,0,0,0,0,0,0,0,0,0,0,0,0,0,0,0,0,0,0,0,0,0,0,0,0,0,0,0,0,0,0,0,0,0,0,0,0,0,0,0,0,0,0,0,0,0,0,0,0,0,0,0,0,0,0,0,0,0,0,0,0,0,0,0,0,0,0,0,0,0,0,0,0,0,0,0,0,0,0,0,0,0,0,0,0,0,0,0,0,0,0,0,0,0,0,0,0,0,0,0,0,0,0,0,0,0,0,0,0,0,0,0,0,0,0,0,0,0,0,0,0,0,0,0,0,0,0,0,0,0,0,0,0,0,0,0,0,0,0,0,0,0,0,0,0,0,0,0,0,0,0,0,0,0,0,0,0,0,0,0,0,0,0,0,0,0,0,0,0,0,0,0,0,0,0,0,0,0,0,0,0,0,0,0,0,0,0,0,0,0,0,0,0,0,0,0,0,0,0,0,0,0,0,0,0,0,0,0,0,0,0,0,0,0,0,0,0,0,0,0,0,0,0,0,0,0,0,0,0,0,0,0,0,0,0,0,0,0,0,0,0,0,0,0,0,0,0,0,0,0,0,0,0,0,0,0,0,0,0,0,0,0,0,0,0,0,0,0,0,0,0,0,0,0,0,0,0,0,0,0,0,0,0,0,0,0,0,0,0,0,0,0,0,0,0,0,0,0,0,0,0,0,0,0,0,0,0,0,0,0,0,0,0,0,0,0,0,0,0,0,0,0,0,0,0,0,0,0,0,0,0,0,0,0,0,0,0,0,0,0,0,0,0,0,0,0,0,0,0,0,0,0,0,0,0,0,0,0,0,0,0,0,0,0,0,0,0,0,0,0,0,0,0,0,0,0,0,0,0,0,0,0,0,0,0,0,0,0,0,0,0,0,0,0,0,0,0,0,0,0,0,0,0,0,0,0,0,0,0,0,0,0,0,0,0,0,0,0,0,0,0,0,0,0,0,0,0,0,0,0,0,0,0,0,0,0,0,0,0,0,0,0,0,0,0,0,0,0,0,0,0,0,0,0,0,0,0,0,0,0,0,0,0,0,0,0,0,0,0,0,0,0,0,0,0,0,0,0,0,0,0,0,0,0,0,0,0,0,0,0,0,0,0,0,0,0,0,0,0,0,0,0,0,0,0,0,0,0,0,0,0,0,0,0,0,0,0,0,0,0,0,0,0,0,0,0,0,0,0,0,0,0,0,0,0,0,0,0,0,0,0,0,0,0,0,0,0,0,0,0,0,0,0,0,0,0,0,0,0,0,0,0,0,0,0,0,0,0,0,0,0,0,0,0,0,0,0,0,0,0,0,0,0,0,0,0,0,0,0,0,0,0,0,0,0,0,0,0,0,0,0,0,0,0,0,0,0,0,0,0,0,0,0,0,0,0,0,0,0,0,0,0,0,0,0,0,0,0,0,0,0,0,0,0,0,0,0,0,0,0,0,0,0,0,0,0,0,0,0,0,0,0,0,0,0,0,0,0,0,0,0,0,0,0,0,0,0,0,0,0,0,0,0,0,0,0,0,0,0,0,0,0,0,0,0,0,0,0,0,0,0,0,0,0,0,0,0,0,0,0,0,0,0,0,0,0,0,0,0,0,0,0,0,0,0,0,0,0,0,0,0,0,0,0,0,0,0,0,0,0,0,0,0,0,0,0,0,0,0,0,0,0,0,0,0,0,0,0,0,0,0,0,0,0,0,0,0,0,0,0,0,0,0,0,0,0,0,0,0,0,0,0,0,0,0,0,0,0,0,0,0,0,0,0,0,0,0,0,0,0,0,0,0,0,0,0,0,0,0,0,0,0,0,0,0,0,0,0,0,0,0,0,0,0,0,0,0,0,0,0,0,0,0,0,0,0,0,0,0,0,0,0,0,0,0,0,0,0,0,0,0,0,0,0,0,0,0,0,0,0,0,0,0,0,0,0,0,0,0,0,0,0,0,0,0,0,0,0,0,0,0,0,0,0,0,0,0,0,0,0,0,0,0,0,0,0,0,0,0,0,0,0,0,0,0,0,0,0,0,0,0,0,0,0,0,0,0,0,0,0,0,0,0,0,0,0,0,0,0,0,0,0,0,0,0,0,0,0,0,0,0,0,0,0,0,0,0,0,0,0,0,0,0,0,0,0,0,0,0,0,0,0,0,0,0,0,0,0,0,0,0,0,0,0,0,0,0,0,0,0,0,0,0,0,0,0,0,0,0,0,0,0,0,0,0,0,0,0,0,0,0,0,0,0,0,0,0,0,0,0,0,0,0,0,0,0,0,0,0,0,0,0,0,0,0,0,0,0,0,0,0,0,0,0,0,0,0,0,0,0,0,0,0,0,0,0,0,0,0,0,0,0,0,0,0,0,0,0,0,0,0,0,0,0,0,0,0,0,0,0,0,0,0,0,0,0,0,0,0,0,0,0,0,0,0,0,0,0,0,0,0,0,0,0,0,0,0,0,0,0,0,0,0,0,0,0,0,0,0,0,0,0,0,0,0,0,0,0,0,0,0,0,0,0,0,0,0,0,0,0,0,0,0,0,0,0,0,0,0,0,0,0,0,0,0,0,0,0,0,0,0,0,0,0,0,0,0,0,0,0,0,0,0,0,0,0,0,0,0,0,0,0,0,0,0,0,0,0,0,0,0,0,0,0,0,0,0,0,0,0,0,0,0,0,0,0,0,0,0,0,0,0,0,0,0,0,0,0,0,0,0,0,0,0,0,0,0,0,0,0,0,0,0,0,0,0,0,0,0,0,0,0,0,0,0,0,0,0,0,0,0,0,0,0,0,0,0,0,0,0,0,0,0,0,0,0,0,0,0,0,0,0,0,0,0,0,0,0,0,0,0,0,0,0,0,0,0,0,0,0,0,0,0,0,0,0,0,0,0,0,0,0,0,0,0,0,0,0,0,0,0,0,0,0,0,0,0,0,0,0,0,0,0,0,0,0,0,0,0,0,0,0,0,0,0,0,0,0,0,0,0,0,0,0,0,0,0,0,0,0,0,0,0,0,0,0,0,0,0,0,0,0,0,0,0,0,0,0,0,0,0,0,0,0,0,0,0,0,0,0,0,0,0,0,0,0,0,0,0,0,0,0,0,0,0,0,0,0,0,0,0,0,0,0,0,0,0,0,0,0,0,0,0,0,0,0,0,0,0,0,0,0,0,0,0,0,0,0,0,0,0,0,0,0,0,0,0,0,0,0,0,0,0,0,0,0,0,0,0,0,0,0,0,0,0,0,0,0,0,0,0,0,0,0,0,0,0,0,0,0,0,0,0,0,0,0,0,0,0,0,0,0,0,0,0,0,0,0,0,0,0,0,0,0,0,0,0,0,0,0,0,0,0,0,0,0,0,0,0,0,0,0,0,0,0,0,0,0,0,0,0,0,0,0,0,0,0,0,0,0,0,0,0,0,0,0,0,0,0,0,0,0,0,0,0,0,0,0,0,0,0,0,0,0,0,0,0,0],"trees":[{"base_weights":[1.6205129E-1,5.3298153E-2,-1.5599452E0,2.0824613E-2,-5.5763565E-2],"categories":[],"categories_nodes":[],"categories_segments":[],"categories_sizes":[],"default_left":[0,0,0,0,0],"id":0,"left_children":[1,-1,3,-1,-1],"loss_changes":[1.1835294E2,0E0,9.850311E0,0E0,0E0],"parents":[2147483647,0,0,2,2],"right_children":[2,-1,4,-1,-1],"split_conditions":[-3.608861E-2,5.3298153E-2,-2.1791427E-1,2.0824613E-2,-5.5763565E-2],"split_indices":[22,0,6,0,0],"split_type":[0,0,0,0,0],"sum_hessian":[4.104253E1,2.5738535E1,1.5303994E1,2.0869083E0,1.3217086E1],"tree_param":{"num_deleted":"0","num_feature":"30","num_nodes":"5","size_leaf_vector":"1"}},{"base_weights":[-2.9608062E-2,1.2887111E0,-5.5763565E-2,5.371684E-2,-5.5763565E-2],"categories":[],"categories_nodes":[],"categories_segments":[],"categories_sizes":[],"default_left":[0,0,0,0,0],"id":1,"left_children":[1,3,-1,-1,-1],"loss_changes":[1.2212751E2,1.946386E1,0E0,0E0,0E0],"parents":[2147483647,0,0,1,1],"right_children":[2,4,-1,-1,-1],"split_conditions":[8.0895126E-2,8.8836724E-1,-5.5763565E-2,5.371684E-2,-5.5763565E-2],"split_indices":[22,25,0,0,0],"split_type":[0,0,0,0,0],"sum_hessian":[4.3168938E1,2.745605E1,1.5712888E1,2.5843493E1,1.6125581E0],"tree_param":{"num_deleted":"0","num_feature":"30","num_nodes":"5","size_leaf_vector":"1"}},{"base_weights":[1.398091E-1,1.3040198E0,-5.5763565E-2,5.1770113E-2,-1.1772688E-2],"categories":[],"categories_nodes":[],"categories_segments":[],"categories_sizes":[],"default_left":[0,0,0,0,0],"id":2,"left_children":[1,3,-1,-1,-1],"loss_changes":[1.27697E2,7.595501E0,0E0,0E0,0E0],"parents":[2147483647,0,0,1,1],"right_children":[2,4,-1,-1,-1],"split_conditions":[1.995061E-2,2.8071392E-1,-5.5763565E-2,5.1770113E-2,-1.1772688E-2],"split_indices":[23,27,0,0,0],"split_type":[0,0,0,0,0],"sum_hessian":[4.6371346E1,3.1859213E1,1.4512134E1,2.92885E1,2.570712E0],"tree_param":{"num_deleted":"0","num_feature":"30","num_nodes":"5","size_leaf_vector":"1"}},{"base_weights":[3.234465E-2,1.3537109E0,-1.5599452E0,5.3296052E-2,-2.731402E-2,3.438789E-2,-5.5763565E-2],"categories":[],"categories_nodes":[],"categories_segments":[],"categories_sizes":[],"default_left":[0,0,0,0,0,0,0],"id":3,"left_children":[1,3,5,-1,-1,-1,-1],"loss_changes":[1.18734024E2,8.194363E0,1.2175339E1,0E0,0E0,0E0,0E0],"parents":[2147483647,0,0,1,1,2,2],"right_children":[2,4,6,-1,-1,-1,-1],"split_conditions":[9.311633E-2,9.285615E-2,-8.905781E-1,5.3296052E-2,-2.731402E-2,3.438789E-2,-5.5763565E-2],"split_indices":[7,3,1,0,0,0,0],"split_type":[0,0,0,0,0,0,0],"sum_hessian":[4.570464E1,2.7585274E1,1.8119368E1,2.5941448E1,1.6438259E0,1.8379456E0,1.6281422E1],"tree_param":{"num_deleted":"0","num_feature":"30","num_nodes":"7","size_leaf_vector":"1"}},{"base_weights":[-5.1120978E-2,4.634039E-2,-1.5599452E0,1.3440275E-2,-5.5763565E-2],"categories":[],"categories_nodes":[],"categories_segments":[],"categories_sizes":[],"default_left":[0,0,0,0,0],"id":4,"left_children":[1,-1,3,-1,-1],"loss_changes":[1.16501434E2,0E0,9.656303E0,0E0,0E0],"parents":[2147483647,0,0,2,2],"right_children":[2,-1,4,-1,-1],"split_conditions":[9.311633E-2,4.634039E-2,-5.1757425E-1,1.3440275E-2,-5.5763565E-2],"split_indices":[7,0,21,0,0],"split_type":[0,0,0,0,0],"sum_hessian":[4.5708313E1,2.6981043E1,1.872727E1,2.5316238E0,1.6195646E1],"tree_param":{"num_deleted":"0","num_feature":"30","num_nodes":"5","size_leaf_vector":"1"}},{"base_weights":[-7.798E-2,4.6325997E-2,-1.5599452E0,1.8698763E-2,-5.5763565E-2],"categories":[],"categories_nodes":[],"categories_segments":[],"categories_sizes":[],"default_left":[0,0,0,0,0],"id":5,"left_children":[1,-1,3,-1,-1],"loss_changes":[1.1017295E2,0E0,9.086494E0,0E0,0E0],"parents":[2147483647,0,0,2,2],"right_children":[2,-1,4,-1,-1],"split_conditions":[3.2356206E-2,4.6325997E-2,-1.1107818E-1,1.8698763E-2,-5.5763565E-2],"split_indices":[7,0,22,0,0],"split_type":[0,0,0,0,0],"sum_hessian":[4.4262783E1,2.537216E1,1.8890621E1,2.038783E0,1.685184E1],"tree_param":{"num_deleted":"0","num_feature":"30","num_nodes":"5","size_leaf_vector":"1"}},{"base_weights":[-5.525677E-2,1.080503E0,-5.5763565E-2,4.7327615E-2,-5.5763565E-2],"categories":[],"categories_nodes":[],"categories_segments":[],"categories_sizes":[],"default_left":[0,0,0,0,0],"id":6,"left_children":[1,3,-1,-1,-1],"loss_changes":[1.0122767E2,1.967268E1,0E0,0E0,0E0],"parents":[2147483647,0,0,1,1],"right_children":[2,4,-1,-1,-1],"split_conditions":[4.3396062E-1,1.1059538E-1,-5.5763565E-2,4.7327615E-2,-5.5763565E-2],"split_indices":[27,23,0,0,0],"split_type":[0,0,0,0,0],"sum_hessian":[4.6110214E1,2.9450802E1,1.6659412E1,2.7069334E1,2.381469E0],"tree_param":{"num_deleted":"0","num_feature":"30","num_nodes":"5","size_leaf_vector":"1"}},{"base_weights":[5.4913636E-2,1.0414507E0,-5.5763565E-2,4.7741134E-2,-4.568848E-2],"categories":[],"categories_nodes":[],"categories_segments":[],"categories_sizes":[],"default_left":[0,0,0,0,0],"id":7,"left_children":[1,3,-1,-1,-1],"loss_changes":[9.10134E1,2.07933E1,0E0,0E0,0E0],"parents":[2147483647,0,0,1,1],"right_children":[2,4,-1,-1,-1],"split_conditions":[4.2323336E-1,1.1129822E-1,-5.5763565E-2,4.7741134E-2,-4.568848E-2],"split_indices":[27,20,0,0,0],"split_type":[0,0,0,0,0],"sum_hessian":[4.3160698E1,3.0049618E1,1.3111082E1,2.67149E1,3.3347173E0],"tree_param":{"num_deleted":"0","num_feature":"30","num_nodes":"5","size_leaf_vector":"1"}},{"base_weights":[6.408461E-2,1.1444291E0,-1.5599452E0,4.8103955E-2,-3.1339522E-2,1.1869647E-2,-5.5763565E-2],"categories":[],"categories_nodes":[],"categories_segments":[],"categories_sizes":[],"default_left":[0,0,0,0,0,0,0],"id":8,"left_children":[1,3,5,-1,-1,-1,-1],"loss_changes":[8.126477E1,1.0948383E1,8.51038E0,0E0,0E0,0E0,0E0],"parents":[2147483647,0,0,1,1,2,2],"right_children":[2,4,6,-1,-1,-1,-1],"split_conditions":[9.311633E-2,1.7988136E-1,-5.5883896E-1,4.8103955E-2,-3.1339522E-2,1.1869647E-2,-5.5763565E-2],"split_indices":[7,22,21,0,0,0,0],"split_type":[0,0,0,0,0,0,0],"sum_hessian":[4.258549E1,2.6431053E1,1.6154438E1,2.4075382E1,2.3556702E0,2.3361683E0,1.3818269E1],"tree_param":{"num_deleted":"0","num_feature":"30","num_nodes":"7","size_leaf_vector":"1"}},{"base_weights":[2.30239E-3,1.0801576E0,-5.5763565E-2,4.7628906E-2,-2.9661039E-2],"categories":[],"categories_nodes":[],"categories_segments":[],"categories_sizes":[],"default_left":[0,0,0,0,0],"id":9,"left_children":[1,3,-1,-1,-1],"loss_changes":[8.8478516E1,1.3203333E1,0E0,0E0,0E0],"parents":[2147483647,0,0,1,1],"right_children":[2,4,-1,-1,-1],"split_conditions":[4.2323336E-1,1.0921748E-1,-5.5763565E-2,4.7628906E-2,-2.9661039E-2],"split_indices":[27,20,0,0,0],"split_type":[0,0,0,0,0],"sum_hessian":[4.0954388E1,2.6997229E1,1.3957158E1,2.3881184E1,3.1160455E0],"tree_param":{"num_deleted":"0","num_feature":"30","num_nodes":"5","size_leaf_vector":"1"}},{"base_weights":[-1.4524601E-2,1.0633721E0,-5.5763565E-2,4.6083596E-2,-5.5763565E-2],"categories":[],"categories_nodes":[],"categories_segments":[],"categories_sizes":[],"default_left":[0,0,0,0,0],"id":10,"left_children":[1,3,-1,-1,-1],"loss_changes":[8.200779E1,1.6174212E1,0E0,0E0,0E0],"parents":[2147483647,0,0,1,1],"right_children":[2,4,-1,-1,-1],"split_conditions":[4.2323336E-1,1.1059538E-1,-5.5763565E-2,4.6083596E-2,-5.5763565E-2],"split_indices":[27,23,0,0,0],"split_type":[0,0,0,0,0],"sum_hessian":[4.1114666E1,2.61463E1,1.4968366E1,2.4176634E1,1.9696664E0],"tree_param":{"num_deleted":"0","num_feature":"30","num_nodes":"5","size_leaf_vector":"1"}},{"base_weights":[-2.7746297E-2,1.0805073E0,-5.5763565E-2,4.6337694E-2,-7.7020223E-3],"categories":[],"categories_nodes":[],"categories_segments":[],"categories_sizes":[],"default_left":[0,0,0,0,0],"id":11,"left_children":[1,3,-1,-1,-1],"loss_changes":[8.61943E1,7.460514E0,0E0,0E0,0E0],"parents":[2147483647,0,0,1,1],"right_children":[2,4,-1,-1,-1],"split_conditions":[4.2323336E-1,-1.4965332E-1,-5.5763565E-2,4.6337694E-2,-7.7020223E-3],"split_indices":[27,13,0,0,0],"split_type":[0,0,0,0,0],"sum_hessian":[4.1877144E1,2.6423046E1,1.5454098E1,2.2653572E1,3.7694745E0],"tree_param":{"num_deleted":"0","num_feature":"30","num_nodes":"5","size_leaf_vector":"1"}},{"base_weights":[-1.0664266E-1,1.0599393E0,-5.5763565E-2,4.5604065E-2,-2.8889967E-2],"categories":[],"categories_nodes":[],"categories_segments":[],"categories_sizes":[],"default_left":[0,0,0,0,0],"id":12,"left_children":[1,3,-1,-1,-1],"loss_changes":[7.267761E1,9.53437E0,0E0,0E0,0E0],"parents":[2147483647,0,0,1,1],"right_children":[2,4,-1,-1,-1],"split_conditions":[1.6884382E-1,2.4699397E-1,-5.5763565E-2,4.5604065E-2,-2.8889967E-2],"split_indices":[27,0,0,0,0],"split_type":[0,0,0,0,0],"sum_hessian":[4.1144905E1,2.32057E1,1.7939207E1,2.0838085E1,2.3676155E0],"tree_param":{"num_deleted":"0","num_feature":"30","num_nodes":"5","size_leaf_vector":"1"}},{"base_weights":[-8.45882E-2,4.528675E-2,-1.3137544E0,3.841814E-2,-5.5763565E-2],"categories":[],"categories_nodes":[],"categories_segments":[],"categories_sizes":[],"default_left":[0,0,0,0,0],"id":13,"left_children":[1,-1,3,-1,-1],"loss_changes":[6.529805E1,0E0,1.3348896E1,0E0,0E0],"parents":[2147483647,0,0,2,2],"right_children":[2,-1,4,-1,-1],"split_conditions":[-1.7106983E-1,4.528675E-2,-6.53562E-1,3.841814E-2,-5.5763565E-2],"split_indices":[22,0,1,0,0],"split_type":[0,0,0,0,0],"sum_hessian":[3.9059837E1,1.8601713E1,2.0458124E1,2.0224075E0,1.8435717E1],"tree_param":{"num_deleted":"0","num_feature":"30","num_nodes":"5","size_leaf_vector":"1"}},{"base_weights":[-1.3213825E-1,1.0819116E0,-5.5763565E-2,4.622539E-2,-1.897211E-2],"categories":[],"categories_nodes":[],"categories_segments":[],"categories_sizes":[],"default_left":[0,0,0,0,0],"id":14,"left_children":[1,3,-1,-1,-1],"loss_changes":[7.445566E1,7.899214E0,0E0,0E0,0E0],"parents":[2147483647,0,0,1,1],"right_children":[2,4,-1,-1,-1],"split_conditions":[2.3320743E-1,2.4699397E-1,-5.5763565E-2,4.622539E-2,-1.897211E-2],"split_indices":[27,0,0,0,0],"split_type":[0,0,0,0,0],"sum_hessian":[4.1733074E1,2.2811562E1,1.892151E1,2.0192389E1,2.619173E0],"tree_param":{"num_deleted":"0","num_feature":"30","num_nodes":"5","size_leaf_vector":"1"}},{"base_weights":[-2.666366E-1,9.5664173E-1,-5.4627996E-2,4.0855035E-2,-3.622901E-2],"categories":[],"categories_nodes":[],"categories_segments":[],"categories_sizes":[],"default_left":[0,0,0,0,0],"id":15,"left_children":[1,3,-1,-1,-1],"loss_changes":[6.280618E1,7.731697E0,0E0,0E0,0E0],"parents":[2147483647,0,0,1,1],"right_children":[2,4,-1,-1,-1],"split_conditions":[9.311633E-2,2.4030425E-1,-5.4627996E-2,4.0855035E-2,-3.622901E-2],"split_indices":[7,20,0,0,0],"split_type":[0,0,0,0,0],"sum_hessian":[4.045537E1,2.0552914E1,1.9902458E1,1.8825125E1,1.7277888E0],"tree_param":{"num_deleted":"0","num_feature":"30","num_nodes":"5","size_leaf_vector":"1"}},{"base_weights":[-1.6041906E-1,8.2627237E-1,-5.5763565E-2,4.140915E-2,-2.9304953E-2],"categories":[],"categories_nodes":[],"categories_segments":[],"categories_sizes":[],"default_left":[0,0,0,0,0],"id":16,"left_children":[1,3,-1,-1,-1],"loss_changes":[6.3950443E1,1.4491417E1,0E0,0E0,0E0],"parents":[2147483647,0,0,1,1],"right_children":[2,4,-1,-1,-1],"split_conditions":[4.3396062E-1,1.1129822E-1,-5.5763565E-2,4.140915E-2,-2.9304953E-2],"split_indices":[27,20,0,0,0],"split_type":[0,0,0,0,0],"sum_hessian":[4.35061E1,2.6165707E1,1.7340393E1,2.18037E1,4.3620076E0],"tree_param":{"num_deleted":"0","num_feature":"30","num_nodes":"5","size_leaf_vector":"1"}},{"base_weights":[-5.303154E-2,3.5521507E-2,-5.5763565E-2],"categories":[],"categories_nodes":[],"categories_segments":[],"categories_sizes":[],"default_left":[0,0,0],"id":17,"left_children":[1,-1,-1],"loss_changes":[6.588385E1,0E0,0E0],"parents":[2147483647,0,0],"right_children":[2,-1,-1],"split_conditions":[4.860645E-1,3.5521507E-2,-5.5763565E-2],"split_indices":[27,0,0],"split_type":[0,0,0],"sum_hessian":[3.9238365E1,2.373028E1,1.5508084E1],"tree_param":{"num_deleted":"0","num_feature":"30","num_nodes":"3","size_leaf_vector":"1"}},{"base_weights":[-1.6314225E-1,3.6251828E-2,-5.1343657E-2],"categories":[],"categories_nodes":[],"categories_segments":[],"categories_sizes":[],"default_left":[0,0,0],"id":18,"left_children":[1,-1,-1],"loss_changes":[5.6261734E1,0E0,0E0],"parents":[2147483647,0,0],"right_children":[2,-1,-1],"split_conditions":[9.311633E-2,3.6251828E-2,-5.1343657E-2],"split_indices":[7,0,0],"split_type":[0,0,0],"sum_hessian":[3.7290806E1,1.9386784E1,1.7904022E1],"tree_param":{"num_deleted":"0","num_feature":"30","num_nodes":"3","size_leaf_vector":"1"}},{"base_weights":[5.4687182E-3,1.0042062E0,-5.4296296E-2,4.2428814E-2,-3.5079222E-2],"categories":[],"categories_nodes":[],"categories_segments":[],"categories_sizes":[],"default_left":[0,0,0,0,0],"id":19,"left_children":[1,3,-1,-1,-1],"loss_changes":[5.2617046E1,7.7201977E0,0E0,0E0,0E0],"parents":[2147483647,0,0,1,1],"right_children":[2,4,-1,-1,-1],"split_conditions":[4.2323336E-1,4.0227807E-1,-5.4296296E-2,4.2428814E-2,-3.5079222E-2],"split_indices":[27,10,0,0,0],"split_type":[0,0,0,0,0],"sum_hessian":[3.4312202E1,2.0756025E1,1.3556179E1,1.905253E1,1.7034948E0],"tree_param":{"num_deleted":"0","num_feature":"30","num_nodes":"5","size_leaf_vector":"1"}},{"base_weights":[-1.3504525E-1,8.699967E-1,-5.5763565E-2,4.0302686E-2,-2.8281676E-2],"categories":[],"categories_nodes":[],"categories_segments":[],"categories_sizes":[],"default_left":[0,0,0,0,0],"id":20,"left_children":[1,3,-1,-1,-1],"loss_changes":[5.5014774E1,9.578207E0,0E0,0E0,0E0],"parents":[2147483647,0,0,1,1],"right_children":[2,4,-1,-1,-1],"split_conditions":[4.860645E-1,-1.3556213E-2,-5.5763565E-2,4.0302686E-2,-2.8281676E-2],"split_indices":[27,23,0,0,0],"split_type":[0,0,0,0,0],"sum_hessian":[3.7011154E1,2.201102E1,1.50001335E1,1.9092373E1,2.9186473E0],"tree_param":{"num_deleted":"0","num_feature":"30","num_nodes":"5","size_leaf_vector":"1"}},{"base_weights":[-2.3613578E-1,8.8595647E-1,-5.237173E-2,4.180691E-2,-2.5202516E-2],"categories":[],"categories_nodes":[],"categories_segments":[],"categories_sizes":[],"default_left":[0,0,0,0,0],"id":21,"left_children":[1,3,-1,-1,-1],"loss_changes":[4.7279285E1,8.195433E0,0E0,0E0,0E0],"parents":[2147483647,0,0,1,1],"right_children":[2,4,-1,-1,-1],"split_conditions":[4.2323336E-1,1.2586342E-1,-5.237173E-2,4.180691E-2,-2.5202516E-2],"split_indices":[27,20,0,0,0],"split_type":[0,0,0,0,0],"sum_hessian":[3.4043255E1,1.7811586E1,1.623167E1,1.5145676E1,2.6659098E0],"tree_param":{"num_deleted":"0","num_feature":"30","num_nodes":"5","size_leaf_vector":"1"}},{"base_weights":[1.8027486E-2,8.591887E-1,-5.2465443E-2,4.071964E-2,-6.266921E-1,3.7489925E-2,-5.5763565E-2],"categories":[],"categories_nodes":[],"categories_segments":[],"categories_sizes":[],"default_left":[0,0,0,0,0,0,0],"id":22,"left_children":[1,3,-1,-1,5,-1,-1],"loss_changes":[4.457104E1,9.560833E0,0E0,0E0,8.824911E0,0E0,0E0],"parents":[2147483647,0,0,1,1,4,4],"right_children":[2,4,-1,-1,6,-1,-1],"split_conditions":[4.3396062E-1,9.285615E-2,-5.2465443E-2,4.071964E-2,-2.0299676E-1,3.7489925E-2,-5.5763565E-2],"split_indices":[27,3,0,0,1,0,0],"split_type":[0,0,0,0,0,0,0],"sum_hessian":[3.541458E1,2.2645784E1,1.2768798E1,1.9081081E1,3.5647025E0,1.6883601E0,1.8763424E0],"tree_param":{"num_deleted":"0","num_feature":"30","num_nodes":"7","size_leaf_vector":"1"}},{"base_weights":[-9.480795E-2,3.7335984E-2,-4.085142E-2],"categories":[],"categories_nodes":[],"categories_segments":[],"categories_sizes":[],"default_left":[0,0,0],"id":23,"left_children":[1,-1,-1],"loss_changes":[4.2345947E1,0E0,0E0],"parents":[2147483647,0,0],"right_children":[2,-1,-1],"split_conditions":[-4.5701567E-2,3.7335984E-2,-4.085142E-2],"split_indices":[27,0,0],"split_type":[0,0,0],"sum_hessian":[3.5218033E1,1.6873205E1,1.8344828E1],"tree_param":{"num_deleted":"0","num_feature":"30","num_nodes":"3","size_leaf_vector":"1"}},{"base_weights":[-3.846523E-2,3.801616E-2,-1.0479912E0,4.928394E-2,-4.649646E-2],"categories":[],"categories_nodes":[],"categories_segments":[],"categories_sizes":[],"default_left":[0,0,0,0,0],"id":24,"left_children":[1,-1,3,-1,-1],"loss_changes":[3.863879E1,0E0,1.1336754E1,0E0,0E0],"parents":[2147483647,0,0,2,2],"right_children":[2,-1,4,-1,-1],"split_conditions":[-1.620711E-1,3.801616E-2,-8.506843E-1,4.928394E-2,-4.649646E-2],"split_indices":[22,0,1,0,0],"split_type":[0,0,0,0,0],"sum_hessian":[3.448285E1,1.6482515E1,1.8000334E1,1.6461821E0,1.6354153E1],"tree_param":{"num_deleted":"0","num_feature":"30","num_nodes":"5","size_leaf_vector":"1"}},{"base_weights":[6.313412E-2,3.9024293E-2,-4.3755494E-2],"categories":[],"categories_nodes":[],"categories_segments":[],"categories_sizes":[],"default_left":[0,0,0],"id":25,"left_children":[1,-1,-1],"loss_changes":[4.2034645E1,0E0,0E0],"parents":[2147483647,0,0],"right_children":[2,-1,-1],"split_conditions":[1.6884382E-1,3.9024293E-2,-4.3755494E-2],"split_indices":[27,0,0],"split_type":[0,0,0],"sum_hessian":[3.1500137E1,1.7520329E1,1.3979809E1],"tree_param":{"num_deleted":"0","num_feature":"30","num_nodes":"3","size_leaf_vector":"1"}},{"base_weights":[-1.1785116E-1,3.6913626E-2,-1.054955E0,3.249656E-2,-4.575087E-2],"categories":[],"categories_nodes":[],"categories_segments":[],"categories_sizes":[],"default_left":[0,0,0,0,0],"id":26,"left_children":[1,-1,3,-1,-1],"loss_changes":[3.642105E1,0E0,8.365044E0,0E0,0E0],"parents":[2147483647,0,0,2,2],"right_children":[2,-1,4,-1,-1],"split_conditions":[-4.5701567E-2,3.6913626E-2,-2.1791427E-1,3.249656E-2,-4.575087E-2],"split_indices":[27,0,6,0,0],"split_type":[0,0,0,0,0],"sum_hessian":[3.353038E1,1.5044823E1,1.8485558E1,1.860418E0,1.662514E1],"tree_param":{"num_deleted":"0","num_feature":"30","num_nodes":"5","size_leaf_vector":"1"}},{"base_weights":[-1.7628336E-1,7.0891464E-1,-4.7268566E-2,3.9202962E-2,-4.2115897E-2],"categories":[],"categories_nodes":[],"categories_segments":[],"categories_sizes":[],"default_left":[0,0,0,0,0],"id":27,"left_children":[1,3,-1,-1,-1],"loss_changes":[3.569963E1,1.4697852E1,0E0,0E0,0E0],"parents":[2147483647,0,0,1,1],"right_children":[2,4,-1,-1,-1],"split_conditions":[-8.5889094E-4,5.1211643E-1,-4.7268566E-2,3.9202962E-2,-4.2115897E-2],"split_indices":[23,27,0,0,0],"split_type":[0,0,0,0,0],"sum_hessian":[3.494828E1,1.974259E1,1.520569E1,1.6420317E1,3.3222725E0],"tree_param":{"num_deleted":"0","num_feature":"30","num_nodes":"5","size_leaf_vector":"1"}},{"base_weights":[-1.7524403E-1,7.6427764E-1,-4.752872E-2,4.0609073E-2,-3.2248106E-2],"categories":[],"categories_nodes":[],"categories_segments":[],"categories_sizes":[],"default_left":[0,0,0,0,0],"id":28,"left_children":[1,3,-1,-1,-1],"loss_changes":[3.7532085E1,1.1953405E1,0E0,0E0,0E0],"parents":[2147483647,0,0,1,1],"right_children":[2,4,-1,-1,-1],"split_conditions":[1.995061E-2,6.3948935E-1,-4.752872E-2,4.0609073E-2,-3.2248106E-2],"split_indices":[23,21,0,0,0],"split_type":[0,0,0,0,0],"sum_hessian":[3.4363228E1,1.8965538E1,1.5397691E1,1.5539035E1,3.4265034E0],"tree_param":{"num_deleted":"0","num_feature":"30","num_nodes":"5","size_leaf_vector":"1"}},{"base_weights":[-1.1777922E-1,7.6741624E-1,-4.9688954E-2,4.0800977E-2,-1.463956E-2],"categories":[],"categories_nodes":[],"categories_segments":[],"categories_sizes":[],"default_left":[0,0,0,0,0],"id":29,"left_children":[1,3,-1,-1,-1],"loss_changes":[3.509527E1,8.151726E0,0E0,0E0,0E0],"parents":[2147483647,0,0,1,1],"right_children":[2,4,-1,-1,-1],"split_conditions":[-1.3556213E-2,3.8602343E-1,-4.9688954E-2,4.0800977E-2,-1.463956E-2],"split_indices":[23,1,0,0,0],"split_type":[0,0,0,0,0],"sum_hessian":[3.0918013E1,1.8259304E1,1.265871E1,1.3860966E1,4.3983383E0],"tree_param":{"num_deleted":"0","num_feature":"30","num_nodes":"5","size_leaf_vector":"1"}},{"base_weights":[-8.380775E-3,8.2072335E-1,-4.9777403E-2,3.786709E-2,-5.014744E-2],"categories":[],"categories_nodes":[],"categories_segments":[],"categories_sizes":[],"default_left":[0,0,0,0,0],"id":30,"left_children":[1,3,-1,-1,-1],"loss_changes":[3.4089153E1,1.0037895E1,0E0,0E0,0E0],"parents":[2147483647,0,0,1,1],"right_children":[2,4,-1,-1,-1],"split_conditions":[3.9885092E-1,4.3396062E-1,-4.9777403E-2,3.786709E-2,-5.014744E-2],"split_indices":[22,27,0,0,0],"split_type":[0,0,0,0,0],"sum_hessian":[2.9454048E1,1.8449581E1,1.1004467E1,1.671981E1,1.7297698E0],"tree_param":{"num_deleted":"0","num_feature":"30","num_nodes":"5","size_leaf_vector":"1"}},{"base_weights":[-1.2573941E-1,7.621595E-1,-4.7888372E-2,3.601583E-2,-5.1460236E-2],"categories":[],"categories_nodes":[],"categories_segments":[],"categories_sizes":[],"default_left":[0,0,0,0,0],"id":31,"left_children":[1,3,-1,-1,-1],"loss_changes":[3.419535E1,1.0082649E1,0E0,0E0,0E0],"parents":[2147483647,0,0,1,1],"right_children":[2,4,-1,-1,-1],"split_conditions":[-8.5889094E-4,1.0104257E0,-4.7888372E-2,3.601583E-2,-5.1460236E-2],"split_indices":[23,25,0,0,0],"split_type":[0,0,0,0,0],"sum_hessian":[3.1481E1,1.8206623E1,1.327438E1,1.644095E1,1.7656723E0],"tree_param":{"num_deleted":"0","num_feature":"30","num_nodes":"5","size_leaf_vector":"1"}},{"base_weights":[-1.4824374E-1,7.469237E-1,-4.606364E-2,3.9126E-2,-4.902966E-2],"categories":[],"categories_nodes":[],"categories_segments":[],"categories_sizes":[],"default_left":[0,0,0,0,0],"id":32,"left_children":[1,3,-1,-1,-1],"loss_changes":[3.0716322E1,1.2606283E1,0E0,0E0,0E0],"parents":[2147483647,0,0,1,1],"right_children":[2,4,-1,-1,-1],"split_conditions":[1.2586342E-1,4.2323336E-1,-4.606364E-2,3.9126E-2,-4.902966E-2],"split_indices":[20,27,0,0,0],"split_type":[0,0,0,0,0],"sum_hessian":[2.9845394E1,1.6742203E1,1.3103192E1,1.4433419E1,2.3087835E0],"tree_param":{"num_deleted":"0","num_feature":"30","num_nodes":"5","size_leaf_vector":"1"}},{"base_weights":[-1.7093505E-1,4.070537E-2,-3.767032E-2],"categories":[],"categories_nodes":[],"categories_segments":[],"categories_sizes":[],"default_left":[0,0,0],"id":33,"left_children":[1,-1,-1],"loss_changes":[2.9652603E1,0E0,0E0],"parents":[2147483647,0,0],"right_children":[2,-1,-1],"split_conditions":[-3.3134198E-1,4.070537E-2,-3.767032E-2],"split_indices":[23,0,0],"split_type":[0,0,0],"sum_hessian":[2.539165E1,1.0209342E1,1.5182306E1],"tree_param":{"num_deleted":"0","num_feature":"30","num_nodes":"3","size_leaf_vector":"1"}},{"base_weights":[-2.3418213E-1,3.6528192E-2,-3.906198E-2],"categories":[],"categories_nodes":[],"categories_segments":[],"categories_sizes":[],"default_left":[0,0,0],"id":34,"left_children":[1,-1,-1],"loss_changes":[3.0123476E1,0E0,0E0],"parents":[2147483647,0,0],"right_children":[2,-1,-1],"split_conditions":[-4.5701567E-2,3.6528192E-2,-3.906198E-2],"split_indices":[27,0,0],"split_type":[0,0,0],"sum_hessian":[2.7680162E1,1.1228007E1,1.6452154E1],"tree_param":{"num_deleted":"0","num_feature":"30","num_nodes":"3","size_leaf_vector":"1"}},{"base_weights":[-6.803608E-3,8.3468574E-1,-4.6500325E-2,3.9723735E-2,-3.940916E-2],"categories":[],"categories_nodes":[],"categories_segments":[],"categories_sizes":[],"default_left":[0,0,0,0,0],"id":35,"left_children":[1,3,-1,-1,-1],"loss_changes":[2.9066925E1,8.81621E0,0E0,0E0,0E0],"parents":[2147483647,0,0,1,1],"right_children":[2,4,-1,-1,-1],"split_conditions":[5.1211643E-1,1.6747826E-1,-4.6500325E-2,3.9723735E-2,-3.940916E-2],"split_indices":[27,20,0,0,0],"split_type":[0,0,0,0,0],"sum_hessian":[2.6442305E1,1.6047462E1,1.0394843E1,1.4088734E1,1.9587282E0],"tree_param":{"num_deleted":"0","num_feature":"30","num_nodes":"5","size_leaf_vector":"1"}},{"base_weights":[-8.221474E-2,2.8330633E-2,-3.9519537E-2],"categories":[],"categories_nodes":[],"categories_segments":[],"categories_sizes":[],"default_left":[0,0,0],"id":36,"left_children":[1,-1,-1],"loss_changes":[2.5541267E1,0E0,0E0],"parents":[2147483647,0,0],"right_children":[2,-1,-1],"split_conditions":[4.2323336E-1,2.8330633E-2,-3.9519537E-2],"split_indices":[27,0,0],"split_type":[0,0,0],"sum_hessian":[2.828367E1,1.5262086E1,1.30215845E1],"tree_param":{"num_deleted":"0","num_feature":"30","num_nodes":"3","size_leaf_vector":"1"}},{"base_weights":[-1.5741023E-1,6.4852154E-1,-4.411024E-2,3.5484057E-2,-3.861827E-2],"categories":[],"categories_nodes":[],"categories_segments":[],"categories_sizes":[],"default_left":[0,0,0,0,0],"id":37,"left_children":[1,3,-1,-1,-1],"loss_changes":[2.3598213E1,9.394237E0,0E0,0E0,0E0],"parents":[2147483647,0,0,1,1],"right_children":[2,4,-1,-1,-1],"split_conditions":[-8.5889094E-4,4.2323336E-1,-4.411024E-2,3.5484057E-2,-3.861827E-2],"split_indices":[23,27,0,0,0],"split_type":[0,0,0,0,0],"sum_hessian":[2.6955357E1,1.5441142E1,1.15142145E1,1.2921862E1,2.5192802E0],"tree_param":{"num_deleted":"0","num_feature":"30","num_nodes":"5","size_leaf_vector":"1"}},{"base_weights":[-1.1875571E-1,3.288629E-2,-9.3461823E-1,3.741768E-2,-4.359614E-2],"categories":[],"categories_nodes":[],"categories_segments":[],"categories_sizes":[],"default_left":[0,0,0,0,0],"id":38,"left_children":[1,-1,3,-1,-1],"loss_changes":[2.0448454E1,0E0,7.783636E0,0E0,0E0],"parents":[2147483647,0,0,2,2],"right_children":[2,-1,4,-1,-1],"split_conditions":[-7.0221044E-2,3.288629E-2,-6.545732E-1,3.741768E-2,-4.359614E-2],"split_indices":[27,0,21,0,0],"split_type":[0,0,0,0,0],"sum_hessian":[2.3875994E1,1.0495278E1,1.3380715E1,1.6408021E0,1.1739913E1],"tree_param":{"num_deleted":"0","num_feature":"30","num_nodes":"5","size_leaf_vector":"1"}},{"base_weights":[-6.454542E-2,7.158396E-1,-4.0820703E-2,4.210827E-2,-2.870524E-2],"categories":[],"categories_nodes":[],"categories_segments":[],"categories_sizes":[],"default_left":[0,0,0,0,0],"id":39,"left_children":[1,3,-1,-1,-1],"loss_changes":[2.0703608E1,1.0142855E1,0E0,0E0,0E0],"parents":[2147483647,0,0,1,1],"right_children":[2,4,-1,-1,-1],"split_conditions":[3.1786218E-1,5.901858E-1,-4.0820703E-2,4.210827E-2,-2.870524E-2],"split_indices":[22,1,0,0,0],"split_type":[0,0,0,0,0],"sum_hessian":[2.437467E1,1.4157761E1,1.0216909E1,1.0877123E1,3.2806375E0],"tree_param":{"num_deleted":"0","num_feature":"30","num_nodes":"5","size_leaf_vector":"1"}},{"base_weights":[-4.0340703E-3,3.5834692E-2,-8.390787E-1,4.042317E-2,-4.106311E-2],"categories":[],"categories_nodes":[],"categories_segments":[],"categories_sizes":[],"default_left":[0,0,0,0,0],"id":40,"left_children":[1,-1,3,-1,-1],"loss_changes":[2.1491838E1,0E0,8.685538E0,0E0,0E0],"parents":[2147483647,0,0,2,2],"right_children":[2,-1,4,-1,-1],"split_conditions":[-1.3807443E-1,3.5834692E-2,-3.776611E-1,4.042317E-2,-4.106311E-2],"split_indices":[22,0,26,0,0],"split_type":[0,0,0,0,0],"sum_hessian":[2.5319864E1,1.1468999E1,1.3850865E1,1.836882E0,1.2013983E1],"tree_param":{"num_deleted":"0","num_feature":"30","num_nodes":"5","size_leaf_vector":"1"}},{"base_weights":[-2.1296035E-2,6.35381E-1,-4.413744E-2,3.912063E-2,-2.7365886E-2],"categories":[],"categories_nodes":[],"categories_segments":[],"categories_sizes":[],"default_left":[0,0,0,0,0],"id":41,"left_children":[1,3,-1,-1,-1],"loss_changes":[1.9385555E1,1.0253359E1,0E0,0E0,0E0],"parents":[2147483647,0,0,1,1],"right_children":[2,4,-1,-1,-1],"split_conditions":[5.1211643E-1,7.6163304E-1,-4.413744E-2,3.912063E-2,-2.7365886E-2],"split_indices":[27,21,0,0,0],"split_type":[0,0,0,0,0],"sum_hessian":[2.40757E1,1.5657451E1,8.418251E0,1.1814726E1,3.8427243E0],"tree_param":{"num_deleted":"0","num_feature":"30","num_nodes":"5","size_leaf_vector":"1"}},{"base_weights":[-1.718195E-1,3.3166815E-2,-3.312301E-2],"categories":[],"categories_nodes":[],"categories_segments":[],"categories_sizes":[],"default_left":[0,0,0],"id":42,"left_children":[1,-1,-1],"loss_changes":[2.180335E1,0E0,0E0],"parents":[2147483647,0,0],"right_children":[2,-1,-1],"split_conditions":[-4.5701567E-2,3.3166815E-2,-3.312301E-2],"split_indices":[27,0,0],"split_type":[0,0,0],"sum_hessian":[2.601427E1,1.0575576E1,1.5438695E1],"tree_param":{"num_deleted":"0","num_feature":"30","num_nodes":"3","size_leaf_vector":"1"}},{"base_weights":[-1.5489498E-1,3.6120832E-2,-3.2900263E-2],"categories":[],"categories_nodes":[],"categories_segments":[],"categories_sizes":[],"default_left":[0,0,0],"id":43,"left_children":[1,-1,-1],"loss_changes":[2.1953394E1,0E0,0E0],"parents":[2147483647,0,0],"right_children":[2,-1,-1],"split_conditions":[-2.4140692E-1,3.6120832E-2,-3.2900263E-2],"split_indices":[26,0,0],"split_type":[0,0,0],"sum_hessian":[2.435451E1,9.638662E0,1.4715848E1],"tree_param":{"num_deleted":"0","num_feature":"30","num_nodes":"3","size_leaf_vector":"1"}},{"base_weights":[-4.803923E-2,2.9747207E-2,-3.7227195E-2],"categories":[],"categories_nodes":[],"categories_segments":[],"categories_sizes":[],"default_left":[0,0,0],"id":44,"left_children":[1,-1,-1],"loss_changes":[2.0338524E1,0E0,0E0],"parents":[2147483647,0,0],"right_children":[2,-1,-1],"split_conditions":[2.8071392E-1,2.9747207E-2,-3.7227195E-2],"split_indices":[27,0,0],"split_type":[0,0,0],"sum_hessian":[2.3010029E1,1.2208942E1,1.0801086E1],"tree_param":{"num_deleted":"0","num_feature":"30","num_nodes":"3","size_leaf_vector":"1"}},{"base_weights":[-4.82134E-2,2.4002146E-2,-4.511974E-2],"categories":[],"categories_nodes":[],"categories_segments":[],"categories_sizes":[],"default_left":[0,0,0],"id":45,"left_children":[1,-1,-1],"loss_changes":[2.1621723E1,0E0,0E0],"parents":[2147483647,0,0],"right_children":[2,-1,-1],"split_conditions":[2.248751E-1,2.4002146E-2,-4.511974E-2],"split_indices":[22,0,0],"split_type":[0,0,0],"sum_hessian":[2.4498726E1,1.5413302E1,9.085424E0],"tree_param":{"num_deleted":"0","num_feature":"30","num_nodes":"3","size_leaf_vector":"1"}},{"base_weights":[-1.1422198E-1,3.6131836E-2,-7.3706925E-1,2.6084464E-2,-3.768891E-2],"categories":[],"categories_nodes":[],"categories_segments":[],"categories_sizes":[],"default_left":[0,0,0,0,0],"id":46,"left_children":[1,-1,3,-1,-1],"loss_changes":[1.7541784E1,0E0,7.5884905E0,0E0,0E0],"parents":[2147483647,0,0,2,2],"right_children":[2,-1,4,-1,-1],"split_conditions":[-3.6045006E-1,3.6131836E-2,-6.113215E-1,2.6084464E-2,-3.768891E-2],"split_indices":[26,0,1,0,0],"split_type":[0,0,0,0,0],"sum_hessian":[2.4775452E1,8.800642E0,1.5974811E1,2.8115137E0,1.3163297E1],"tree_param":{"num_deleted":"0","num_feature":"30","num_nodes":"5","size_leaf_vector":"1"}},{"base_weights":[2.3189688E-2,6.580833E-1,-4.2572062E-2,3.607635E-2,-2.9006442E-2],"categories":[],"categories_nodes":[],"categories_segments":[],"categories_sizes":[],"default_left":[0,0,0,0,0],"id":47,"left_children":[1,3,-1,-1,-1],"loss_changes":[1.7533318E1,7.807439E0,0E0,0E0,0E0],"parents":[2147483647,0,0,1,1],"right_children":[2,4,-1,-1,-1],"split_conditions":[5.1211643E-1,8.524155E-1,-4.2572062E-2,3.607635E-2,-2.9006442E-2],"split_indices":[27,21,0,0,0],"split_type":[0,0,0,0,0],"sum_hessian":[2.2492691E1,1.4806974E1,7.6857166E0,1.1983186E1,2.8237891E0],"tree_param":{"num_deleted":"0","num_feature":"30","num_nodes":"5","size_leaf_vector":"1"}},{"base_weights":[-6.1519463E-2,3.7652217E-2,-2.7327288E-2],"categories":[],"categories_nodes":[],"categories_segments":[],"categories_sizes":[],"default_left":[0,0,0],"id":48,"left_children":[1,-1,-1],"loss_changes":[1.7611195E1,0E0,0E0],"parents":[2147483647,0,0],"right_children":[2,-1,-1],"split_conditions":[-2.4140692E-1,3.7652217E-2,-2.7327288E-2],"split_indices":[26,0,0],"split_type":[0,0,0],"sum_hessian":[2.2218597E1,8.5675E0,1.3651096E1],"tree_param":{"num_deleted":"0","num_feature":"30","num_nodes":"3","size_leaf_vector":"1"}},{"base_weights":[1.1406825E-3,7.1437997E-1,-3.878021E-2,3.6132123E-2,-4.251172E-2],"categories":[],"categories_nodes":[],"categories_segments":[],"categories_sizes":[],"default_left":[0,0,0,0,0],"id":49,"left_children":[1,3,-1,-1,-1],"loss_changes":[1.7488829E1,7.838246E0,0E0,0E0,0E0],"parents":[2147483647,0,0,1,1],"right_children":[2,4,-1,-1,-1],"split_conditions":[-8.5889094E-4,6.9448E-1,-3.878021E-2,3.6132123E-2,-4.251172E-2],"split_indices":[23,27,0,0,0],"split_type":[0,0,0,0,0],"sum_hessian":[2.2327133E1,1.35026455E1,8.824488E0,1.1733579E1,1.7690673E0],"tree_param":{"num_deleted":"0","num_feature":"30","num_nodes":"5","size_leaf_vector":"1"}},{"base_weights":[-6.4513125E-2,3.6577415E-2,-2.8191352E-2],"categories":[],"categories_nodes":[],"categories_segments":[],"categories_sizes":[],"default_left":[0,0,0],"id":50,"left_children":[1,-1,-1],"loss_changes":[1.6769302E1,0E0,0E0],"parents":[2147483647,0,0],"right_children":[2,-1,-1],"split_conditions":[-3.1598815E-1,3.6577415E-2,-2.8191352E-2],"split_indices":[26,0,0],"split_type":[0,0,0],"sum_hessian":[2.1035757E1,8.3857565E0,1.2650001E1],"tree_param":{"num_deleted":"0","num_feature":"30","num_nodes":"3","size_leaf_vector":"1"}},{"base_weights":[-1.3369988E-1,3.642744E-2,-7.996612E-1,3.2638937E-2,-4.1091505E-2],"categories":[],"categories_nodes":[],"categories_segments":[],"categories_sizes":[],"default_left":[0,0,0,0,0],"id":51,"left_children":[1,-1,3,-1,-1],"loss_changes":[1.6922632E1,0E0,8.494006E0,0E0,0E0],"parents":[2147483647,0,0,2,2],"right_children":[2,-1,4,-1,-1],"split_conditions":[-3.3134198E-1,3.642744E-2,-9.731371E-1,3.2638937E-2,-4.1091505E-2],"split_indices":[23,0,21,0,0],"split_type":[0,0,0,0,0],"sum_hessian":[2.1785213E1,7.952428E0,1.3832786E1,2.3121407E0,1.1520645E1],"tree_param":{"num_deleted":"0","num_feature":"30","num_nodes":"5","size_leaf_vector":"1"}},{"base_weights":[3.3712995E-3,3.3154722E-2,-3.2898232E-2],"categories":[],"categories_nodes":[],"categories_segments":[],"categories_sizes":[],"default_left":[0,0,0],"id":52,"left_children":[1,-1,-1],"loss_changes":[1.7965248E1,0E0,0E0],"parents":[2147483647,0,0],"right_children":[2,-1,-1],"split_conditions":[-6.690592E-2,3.3154722E-2,-3.2898232E-2],"split_indices":[26,0,0],"split_type":[0,0,0],"sum_hessian":[2.0795057E1,1.0396238E1,1.039882E1],"tree_param":{"num_deleted":"0","num_feature":"30","num_nodes":"3","size_leaf_vector":"1"}},{"base_weights":[1.1978641E-1,3.845312E-2,-2.5883876E-2],"categories":[],"categories_nodes":[],"categories_segments":[],"categories_sizes":[],"default_left":[0,0,0],"id":53,"left_children":[1,-1,-1],"loss_changes":[1.6612423E1,0E0,0E0],"parents":[2147483647,0,0],"right_children":[2,-1,-1],"split_conditions":[-1.7684625E-1,3.845312E-2,-2.5883876E-2],"split_indices":[6,0,0],"split_type":[0,0,0],"sum_hessian":[2.0345434E1,9.525346E0,1.0820087E1],"tree_param":{"num_deleted":"0","num_feature":"30","num_nodes":"3","size_leaf_vector":"1"}},{"base_weights":[-1.08272254E-1,2.6553234E-2,-3.8732115E-2],"categories":[],"categories_nodes":[],"categories_segments":[],"categories_sizes":[],"default_left":[0,0,0],"id":54,"left_children":[1,-1,-1],"loss_changes":[1.7212126E1,0E0,0E0],"parents":[2147483647,0,0],"right_children":[2,-1,-1],"split_conditions":[1.7988136E-1,2.6553234E-2,-3.8732115E-2],"split_indices":[22,0,0],"split_type":[0,0,0],"sum_hessian":[2.0488625E1,1.0954629E1,9.533995E0],"tree_param":{"num_deleted":"0","num_feature":"30","num_nodes":"3","size_leaf_vector":"1"}},{"base_weights":[1.1618956E-2,2.1689115E-2,-4.2838335E-2],"categories":[],"categories_nodes":[],"categories_segments":[],"categories_sizes":[],"default_left":[0,0,0],"id":55,"left_children":[1,-1,-1],"loss_changes":[1.4239371E1,0E0,0E0],"parents":[2147483647,0,0],"right_children":[2,-1,-1],"split_conditions":[1.587394E-1,2.1689115E-2,-4.2838335E-2],"split_indices":[23,0,0],"split_type":[0,0,0],"sum_hessian":[1.952179E1,1.3127406E1,6.394383E0],"tree_param":{"num_deleted":"0","num_feature":"30","num_nodes":"3","size_leaf_vector":"1"}},{"base_weights":[-9.442268E-2,5.6216073E-1,-3.5601534E-2,-3.236318E-2,3.654596E-2],"categories":[],"categories_nodes":[],"categories_segments":[],"categories_sizes":[],"default_left":[0,0,0,0,0],"id":56,"left_children":[1,3,-1,-1,-1],"loss_changes":[1.2139781E1,8.133261E0,0E0,0E0,0E0],"parents":[2147483647,0,0,1,1],"right_children":[2,4,-1,-1,-1],"split_conditions":[4.2323336E-1,-9.4792736E-1,-3.5601534E-2,-3.236318E-2,3.654596E-2],"split_indices":[27,9,0,0,0],"split_type":[0,0,0,0,0],"sum_hessian":[2.0260473E1,1.174722E1,8.513252E0,2.77521E0,8.972011E0],"tree_param":{"num_deleted":"0","num_feature":"30","num_nodes":"5","size_leaf_vector":"1"}},{"base_weights":[-9.752539E-2,2.0675348E-2,-3.839078E-2],"categories":[],"categories_nodes":[],"categories_segments":[],"categories_sizes":[],"default_left":[0,0,0],"id":57,"left_children":[1,-1,-1],"loss_changes":[1.2436064E1,0E0,0E0],"parents":[2147483647,0,0],"right_children":[2,-1,-1],"split_conditions":[-8.5889094E-4,2.0675348E-2,-3.839078E-2],"split_indices":[23,0,0],"split_type":[0,0,0],"sum_hessian":[1.8595526E1,1.1016292E1,7.579233E0],"tree_param":{"num_deleted":"0","num_feature":"30","num_nodes":"3","size_leaf_vector":"1"}},{"base_weights":[-8.06157E-2,3.7144627E-2,-2.4570396E-2],"categories":[],"categories_nodes":[],"categories_segments":[],"categories_sizes":[],"default_left":[0,0,0],"id":58,"left_children":[1,-1,-1],"loss_changes":[1.3246984E1,0E0,0E0],"parents":[2147483647,0,0],"right_children":[2,-1,-1],"split_conditions":[-2.590739E-1,3.7144627E-2,-2.4570396E-2],"split_indices":[20,0,0],"split_type":[0,0,0],"sum_hessian":[1.9241224E1,6.7303276E0,1.2510897E1],"tree_param":{"num_deleted":"0","num_feature":"30","num_nodes":"3","size_leaf_vector":"1"}},{"base_weights":[-5.8469053E-2,3.6014512E-2,-2.801417E-2],"categories":[],"categories_nodes":[],"categories_segments":[],"categories_sizes":[],"default_left":[0,0,0],"id":59,"left_children":[1,-1,-1],"loss_changes":[1.4981917E1,0E0,0E0],"parents":[2147483647,0,0],"right_children":[2,-1,-1],"split_conditions":[-1.9360998E-1,3.6014512E-2,-2.801417E-2],"split_indices":[1,0,0],"split_type":[0,0,0],"sum_hessian":[1.9126476E1,7.7235556E0,1.1402921E1],"tree_param":{"num_deleted":"0","num_feature":"30","num_nodes":"3","size_leaf_vector":"1"}},{"base_weights":[4.7007613E-2,5.805565E-1,-4.062833E-2,3.466433E-2,-2.961204E-2],"categories":[],"categories_nodes":[],"categories_segments":[],"categories_sizes":[],"default_left":[0,0,0,0,0],"id":60,"left_children":[1,3,-1,-1,-1],"loss_changes":[1.253943E1,7.6004663E0,0E0,0E0,0E0],"parents":[2147483647,0,0,1,1],"right_children":[2,4,-1,-1,-1],"split_conditions":[5.1211643E-1,7.6163304E-1,-4.062833E-2,3.466433E-2,-2.961204E-2],"split_indices":[27,21,0,0,0],"split_type":[0,0,0,0,0],"sum_hessian":[1.959946E1,1.3553187E1,6.0462728E0,1.0650767E1,2.90242E0],"tree_param":{"num_deleted":"0","num_feature":"30","num_nodes":"5","size_leaf_vector":"1"}},{"base_weights":[8.736206E-2,2.874935E-2,-3.303817E-2],"categories":[],"categories_nodes":[],"categories_segments":[],"categories_sizes":[],"default_left":[0,0,0],"id":61,"left_children":[1,-1,-1],"loss_changes":[1.3074457E1,0E0,0E0],"parents":[2147483647,0,0],"right_children":[2,-1,-1],"split_conditions":[1.2586342E-1,2.874935E-2,-3.303817E-2],"split_indices":[20,0,0],"split_type":[0,0,0],"sum_hessian":[1.7774132E1,1.0418235E1,7.3558974E0],"tree_param":{"num_deleted":"0","num_feature":"30","num_nodes":"3","size_leaf_vector":"1"}},{"base_weights":[2.4777466E-2,3.6331672E-2,-5.8605033E-1,1.8880012E-2,-4.4801757E-2],"categories":[],"categories_nodes":[],"categories_segments":[],"categories_sizes":[],"default_left":[0,0,0,0,0],"id":62,"left_children":[1,-1,3,-1,-1],"loss_changes":[1.0982499E1,0E0,8.423677E0,0E0,0E0],"parents":[2147483647,0,0,2,2],"right_children":[2,-1,4,-1,-1],"split_conditions":[-2.9474458E-1,3.6331672E-2,-1.9231065E-1,1.8880012E-2,-4.4801757E-2],"split_indices":[21,0,2,0,0],"split_type":[0,0,0,0,0],"sum_hessian":[1.7878395E1,6.7862816E0,1.1092113E1,4.1625338E0,6.929579E0],"tree_param":{"num_deleted":"0","num_feature":"30","num_nodes":"5","size_leaf_vector":"1"}},{"base_weights":[4.9736515E-2,5.844526E-1,-3.5373867E-2,3.9857797E-2,-2.9255215E-2],"categories":[],"categories_nodes":[],"categories_segments":[],"categories_sizes":[],"default_left":[0,0,0,0,0],"id":63,"left_children":[1,3,-1,-1,-1],"loss_changes":[9.772787E0,8.749584E0,0E0,0E0,0E0],"parents":[2147483647,0,0,1,1],"right_children":[2,4,-1,-1,-1],"split_conditions":[5.1211643E-1,4.8223788E-1,-3.5373867E-2,3.9857797E-2,-2.9255215E-2],"split_indices":[27,1,0,0,0],"split_type":[0,0,0,0,0],"sum_hessian":[1.7327583E1,1.1477565E1,5.8500175E0,8.347267E0,3.1302981E0],"tree_param":{"num_deleted":"0","num_feature":"30","num_nodes":"5","size_leaf_vector":"1"}},{"base_weights":[-2.0794729E-3,5.297824E-1,-3.7849754E-2,4.5081098E-2,-1.633138E-2],"categories":[],"categories_nodes":[],"categories_segments":[],"categories_sizes":[],"default_left":[0,0,0,0,0],"id":64,"left_children":[1,3,-1,-1,-1],"loss_changes":[9.778782E0,8.419568E0,0E0,0E0,0E0],"parents":[2147483647,0,0,1,1],"right_children":[2,4,-1,-1,-1],"split_conditions":[3.0286425E-1,1.5916766E-1,-3.7849754E-2,4.5081098E-2,-1.633138E-2],"split_indices":[22,21,0,0,0],"split_type":[0,0,0,0,0],"sum_hessian":[1.7141184E1,1.1440667E1,5.7005177E0,6.5527043E0,4.8879623E0],"tree_param":{"num_deleted":"0","num_feature":"30","num_nodes":"5","size_leaf_vector":"1"}},{"base_weights":[4.6171095E-2,2.2505147E-2,-3.9651643E-2],"categories":[],"categories_nodes":[],"categories_segments":[],"categories_sizes":[],"default_left":[0,0,0],"id":65,"left_children":[1,-1,-1],"loss_changes":[1.080741E1,0E0,0E0],"parents":[2147483647,0,0],"right_children":[2,-1,-1],"split_conditions":[5.3357095E-1,2.2505147E-2,-3.9651643E-2],"split_indices":[27,0,0],"split_type":[0,0,0],"sum_hessian":[1.5777227E1,1.0521596E1,5.255632E0],"tree_param":{"num_deleted":"0","num_feature":"30","num_nodes":"3","size_leaf_vector":"1"}},{"base_weights":[-1.2778126E-1,3.3485476E-2,-2.5519686E-2],"categories":[],"categories_nodes":[],"categories_segments":[],"categories_sizes":[],"default_left":[0,0,0],"id":66,"left_children":[1,-1,-1],"loss_changes":[1.0413378E1,0E0,0E0],"parents":[2147483647,0,0],"right_children":[2,-1,-1],"split_conditions":[-2.7571985E-1,3.3485476E-2,-2.5519686E-2],"split_indices":[20,0,0],"split_type":[0,0,0],"sum_hessian":[1.6428965E1,5.8065476E0,1.06224165E1],"tree_param":{"num_deleted":"0","num_feature":"30","num_nodes":"3","size_leaf_vector":"1"}},{"base_weights":[5.6471545E-2,2.1467082E-2,-3.9539024E-2],"categories":[],"categories_nodes":[],"categories_segments":[],"categories_sizes":[],"default_left":[0,0,0],"id":67,"left_children":[1,-1,-1],"loss_changes":[1.0059773E1,0E0,0E0],"parents":[2147483647,0,0],"right_children":[2,-1,-1],"split_conditions":[5.1211643E-1,2.1467082E-2,-3.9539024E-2],"split_indices":[27,0,0],"split_type":[0,0,0],"sum_hessian":[1.56468E1,1.0699858E1,4.946942E0],"tree_param":{"num_deleted":"0","num_feature":"30","num_nodes":"3","size_leaf_vector":"1"}},{"base_weights":[-1.4552875E-1,2.3006078E-2,-3.0538933E-2],"categories":[],"categories_nodes":[],"categories_segments":[],"categories_sizes":[],"default_left":[0,0,0],"id":68,"left_children":[1,-1,-1],"loss_changes":[9.154527E0,0E0,0E0],"parents":[2147483647,0,0],"right_children":[2,-1,-1],"split_conditions":[4.737966E-3,2.3006078E-2,-3.0538933E-2],"split_indices":[7,0,0],"split_type":[0,0,0],"sum_hessian":[1.611562E1,7.629195E0,8.4864235E0],"tree_param":{"num_deleted":"0","num_feature":"30","num_nodes":"3","size_leaf_vector":"1"}},{"base_weights":[-3.2446608E-2,3.1126207E-2,-2.367913E-2],"categories":[],"categories_nodes":[],"categories_segments":[],"categories_sizes":[],"default_left":[0,0,0],"id":69,"left_children":[1,-1,-1],"loss_changes":[9.740745E0,0E0,0E0],"parents":[2147483647,0,0],"right_children":[2,-1,-1],"split_conditions":[-4.5701567E-2,3.1126207E-2,-2.367913E-2],"split_indices":[27,0,0],"split_type":[0,0,0],"sum_hessian":[1.6864927E1,6.9091306E0,9.955797E0],"tree_param":{"num_deleted":"0","num_feature":"30","num_nodes":"3","size_leaf_vector":"1"}},{"base_weights":[1.2705316E-1,2.7313104E-2,-3.017146E-2],"categories":[],"categories_nodes":[],"categories_segments":[],"categories_sizes":[],"default_left":[0,0,0],"id":70,"left_children":[1,-1,-1],"loss_changes":[8.891953E0,0E0,0E0],"parents":[2147483647,0,0],"right_children":[2,-1,-1],"split_conditions":[1.6747826E-1,2.7313104E-2,-3.017146E-2],"split_indices":[20,0,0],"split_type":[0,0,0],"sum_hessian":[1.4116659E1,8.5417385E0,5.5749207E0],"tree_param":{"num_deleted":"0","num_feature":"30","num_nodes":"3","size_leaf_vector":"1"}},{"base_weights":[-5.580154E-2,3.8461413E-2,-2.3386402E-2],"categories":[],"categories_nodes":[],"categories_segments":[],"categories_sizes":[],"default_left":[0,0,0],"id":71,"left_children":[1,-1,-1],"loss_changes":[1.1242728E1,0E0,0E0],"parents":[2147483647,0,0],"right_children":[2,-1,-1],"split_conditions":[-3.6045006E-1,3.8461413E-2,-2.3386402E-2],"split_indices":[26,0,0],"split_type":[0,0,0],"sum_hessian":[1.6343943E1,5.6182494E0,1.0725694E1],"tree_param":{"num_deleted":"0","num_feature":"30","num_nodes":"3","size_leaf_vector":"1"}},{"base_weights":[-6.881271E-2,1.7532943E-2,-3.8478103E-2],"categories":[],"categories_nodes":[],"categories_segments":[],"categories_sizes":[],"default_left":[0,0,0],"id":72,"left_children":[1,-1,-1],"loss_changes":[8.722113E0,0E0,0E0],"parents":[2147483647,0,0],"right_children":[2,-1,-1],"split_conditions":[2.6386967E-1,1.7532943E-2,-3.8478103E-2],"split_indices":[22,0,0],"split_type":[0,0,0],"sum_hessian":[1.522816E1,9.830665E0,5.397495E0],"tree_param":{"num_deleted":"0","num_feature":"30","num_nodes":"3","size_leaf_vector":"1"}},{"base_weights":[-1.0381545E-1,2.0326322E-2,-3.6440406E-2],"categories":[],"categories_nodes":[],"categories_segments":[],"categories_sizes":[],"default_left":[0,0,0],"id":73,"left_children":[1,-1,-1],"loss_changes":[1.0252074E1,0E0,0E0],"parents":[2147483647,0,0],"right_children":[2,-1,-1],"split_conditions":[2.3348832E-1,2.0326322E-2,-3.6440406E-2],"split_indices":[1,0,0],"split_type":[0,0,0],"sum_hessian":[1.6404028E1,9.482564E0,6.9214635E0],"tree_param":{"num_deleted":"0","num_feature":"30","num_nodes":"3","size_leaf_vector":"1"}},{"base_weights":[7.134343E-2,4.1543543E-2,-2.0610392E-2],"categories":[],"categories_nodes":[],"categories_segments":[],"categories_sizes":[],"default_left":[0,0,0],"id":74,"left_children":[1,-1,-1],"loss_changes":[1.0384112E1,0E0,0E0],"parents":[2147483647,0,0],"right_children":[2,-1,-1],"split_conditions":[-3.2280463E-1,4.1543543E-2,-2.0610392E-2],"split_indices":[21,0,0],"split_type":[0,0,0],"sum_hessian":[1.4444144E1,5.34825E0,9.095895E0],"tree_param":{"num_deleted":"0","num_feature":"30","num_nodes":"3","size_leaf_vector":"1"}},{"base_weights":[8.640744E-2,2.3227142E-2,-3.427032E-2],"categories":[],"categories_nodes":[],"categories_segments":[],"categories_sizes":[],"default_left":[0,0,0],"id":75,"left_children":[1,-1,-1],"loss_changes":[8.240587E0,0E0,0E0],"parents":[2147483647,0,0],"right_children":[2,-1,-1],"split_conditions":[2.4991517E-1,2.3227142E-2,-3.427032E-2],"split_indices":[1,0,0],"split_type":[0,0,0],"sum_hessian":[1.3736744E1,8.956685E0,4.7800584E0],"tree_param":{"num_deleted":"0","num_feature":"30","num_nodes":"3","size_leaf_vector":"1"}},{"base_weights":[-1.5441051E-1,3.5651546E-2,-2.4791075E-2],"categories":[],"categories_nodes":[],"categories_segments":[],"categories_sizes":[],"default_left":[0,0,0],"id":76,"left_children":[1,-1,-1],"loss_changes":[9.139052E0,0E0,0E0],"parents":[2147483647,0,0],"right_children":[2,-1,-1],"split_conditions":[-3.3134198E-1,3.5651546E-2,-2.4791075E-2],"split_indices":[23,0,0],"split_type":[0,0,0],"sum_hessian":[1.4452917E1,4.573968E0,9.878949E0],"tree_param":{"num_deleted":"0","num_feature":"30","num_nodes":"3","size_leaf_vector":"1"}},{"base_weights":[-2.9060679E-2,2.1197442E-2,-3.8280003E-2],"categories":[],"categories_nodes":[],"categories_segments":[],"categories_sizes":[],"default_left":[0,0,0],"id":77,"left_children":[1,-1,-1],"loss_changes":[9.342427E0,0E0,0E0],"parents":[2147483647,0,0],"right_children":[2,-1,-1],"split_conditions":[2.7815104E-1,2.1197442E-2,-3.8280003E-2],"split_indices":[2,0,0],"split_type":[0,0,0],"sum_hessian":[1.4163097E1,8.899012E0,5.264086E0],"tree_param":{"num_deleted":"0","num_feature":"30","num_nodes":"3","size_leaf_vector":"1"}},{"base_weights":[-1.3481902E-1,3.3516914E-2,-2.5387518E-2],"categories":[],"categories_nodes":[],"categories_segments":[],"categories_sizes":[],"default_left":[0,0,0],"id":78,"left_children":[1,-1,-1],"loss_changes":[8.847902E0,0E0,0E0],"parents":[2147483647,0,0],"right_children":[2,-1,-1],"split_conditions":[-3.1598815E-1,3.3516914E-2,-2.5387518E-2],"split_indices":[26,0,0],"split_type":[0,0,0],"sum_hessian":[1.4076916E1,4.887315E0,9.189601E0],"tree_param":{"num_deleted":"0","num_feature":"30","num_nodes":"3","size_leaf_vector":"1"}},{"base_weights":[1.0226198E-1,3.0301683E-2,-2.9180031E-2],"categories":[],"categories_nodes":[],"categories_segments":[],"categories_sizes":[],"default_left":[0,0,0],"id":79,"left_children":[1,-1,-1],"loss_changes":[1.00803585E1,0E0,0E0],"parents":[2147483647,0,0],"right_children":[2,-1,-1],"split_conditions":[9.311633E-2,3.0301683E-2,-2.9180031E-2],"split_indices":[7,0,0],"split_type":[0,0,0],"sum_hessian":[1.4468455E1,7.993675E0,6.4747796E0],"tree_param":{"num_deleted":"0","num_feature":"30","num_nodes":"3","size_leaf_vector":"1"}},{"base_weights":[-6.5073986E-3,3.7258998E-2,-1.9230923E-2],"categories":[],"categories_nodes":[],"categories_segments":[],"categories_sizes":[],"default_left":[0,0,0],"id":80,"left_children":[1,-1,-1],"loss_changes":[8.116871E0,0E0,0E0],"parents":[2147483647,0,0],"right_children":[2,-1,-1],"split_conditions":[-3.2280463E-1,3.7258998E-2,-1.9230923E-2],"split_indices":[21,0,0],"split_type":[0,0,0],"sum_hessian":[1.4308271E1,4.7715034E0,9.536768E0],"tree_param":{"num_deleted":"0","num_feature":"30","num_nodes":"3","size_leaf_vector":"1"}},{"base_weights":[4.990347E-2,3.635105E-2,-2.0271692E-2],"categories":[],"categories_nodes":[],"categories_segments":[],"categories_sizes":[],"default_left":[0,0,0],"id":81,"left_children":[1,-1,-1],"loss_changes":[7.7527294E0,0E0,0E0],"parents":[2147483647,0,0],"right_children":[2,-1,-1],"split_conditions":[-3.1598815E-1,3.635105E-2,-2.0271692E-2],"split_indices":[26,0,0],"split_type":[0,0,0],"sum_hessian":[1.274237E1,4.934606E0,7.8077636E0],"tree_param":{"num_deleted":"0","num_feature":"30","num_nodes":"3","size_leaf_vector":"1"}},{"base_weights":[-7.623827E-2],"categories":[],"categories_nodes":[],"categories_segments":[],"categories_sizes":[],"default_left":[0],"id":82,"left_children":[-1],"loss_changes":[0E0],"parents":[2147483647],"right_children":[-1],"split_conditions":[-2.7252992E-3],"split_indices":[0],"split_type":[0],"sum_hessian":[1.2113997E1],"tree_param":{"num_deleted":"0","num_feature":"30","num_nodes":"1","size_leaf_vector":"1"}},{"base_weights":[-6.2418845E-2,2.4473814E-2,-2.8850287E-2],"categories":[],"categories_nodes":[],"categories_segments":[],"categories_sizes":[],"default_left":[0,0,0],"id":83,"left_children":[1,-1,-1],"loss_changes":[7.909608E0,0E0,0E0],"parents":[2147483647,0,0],"right_children":[2,-1,-1],"split_conditions":[-6.690592E-2,2.4473814E-2,-2.8850287E-2],"split_indices":[26,0,0],"split_type":[0,0,0],"sum_hessian":[1.39646015E1,6.974146E0,6.990455E0],"tree_param":{"num_deleted":"0","num_feature":"30","num_nodes":"3","size_leaf_vector":"1"}},{"base_weights":[1.03275836E-1],"categories":[],"categories_nodes":[],"categories_segments":[],"categories_sizes":[],"default_left":[0],"id":84,"left_children":[-1],"loss_changes":[0E0],"parents":[2147483647],"right_children":[-1],"split_conditions":[3.6918146E-3],"split_indices":[0],"split_type":[0],"sum_hessian":[1.3054398E1],"tree_param":{"num_deleted":"0","num_feature":"30","num_nodes":"1","size_leaf_vector":"1"}},{"base_weights":[1.03206486E-1,2.1637073E-2,-3.7326165E-2],"categories":[],"categories_nodes":[],"categories_segments":[],"categories_sizes":[],"default_left":[0,0,0],"id":85,"left_children":[1,-1,-1],"loss_changes":[8.47813E0,0E0,0E0],"parents":[2147483647,0,0],"right_children":[2,-1,-1],"split_conditions":[1.587394E-1,2.1637073E-2,-3.7326165E-2],"split_indices":[23,0,0],"split_type":[0,0,0],"sum_hessian":[1.4452789E1,1.0094663E1,4.358127E0],"tree_param":{"num_deleted":"0","num_feature":"30","num_nodes":"3","size_leaf_vector":"1"}},{"base_weights":[7.596616E-2],"categories":[],"categories_nodes":[],"categories_segments":[],"categories_sizes":[],"default_left":[0],"id":86,"left_children":[-1],"loss_changes":[0E0],"parents":[2147483647],"right_children":[-1],"split_conditions":[2.715572E-3],"split_indices":[0],"split_type":[0],"sum_hessian":[1.18226385E1],"tree_param":{"num_deleted":"0","num_feature":"30","num_nodes":"1","size_leaf_vector":"1"}},{"base_weights":[1.056588E-1,4.0169183E-2,-1.4278785E-2],"categories":[],"categories_nodes":[],"categories_segments":[],"categories_sizes":[],"default_left":[0,0,0],"id":87,"left_children":[1,-1,-1],"loss_changes":[7.611974E0,0E0,0E0],"parents":[2147483647,0,0],"right_children":[2,-1,-1],"split_conditions":[-4.284424E-1,4.0169183E-2,-1.4278785E-2],"split_indices":[21,0,0],"split_type":[0,0,0],"sum_hessian":[1.4559846E1,4.7810464E0,9.7788E0],"tree_param":{"num_deleted":"0","num_feature":"30","num_nodes":"3","size_leaf_vector":"1"}},{"base_weights":[-7.4978285E-2,2.0924918E-2,-3.283277E-2],"categories":[],"categories_nodes":[],"categories_segments":[],"categories_sizes":[],"default_left":[0,0,0],"id":88,"left_children":[1,-1,-1],"loss_changes":[7.593679E0,0E0,0E0],"parents":[2147483647,0,0],"right_children":[2,-1,-1],"split_conditions":[3.02769E-1,2.0924918E-2,-3.283277E-2],"split_indices":[21,0,0],"split_type":[0,0,0],"sum_hessian":[1.3381991E1,7.5248775E0,5.857114E0],"tree_param":{"num_deleted":"0","num_feature":"30","num_nodes":"3","size_leaf_vector":"1"}},{"base_weights":[-1.3111803E-1],"categories":[],"categories_nodes":[],"categories_segments":[],"categories_sizes":[],"default_left":[0],"id":89,"left_children":[-1],"loss_changes":[0E0],"parents":[2147483647],"right_children":[-1],"split_conditions":[-4.687093E-3],"split_indices":[0],"split_type":[0],"sum_hessian":[1.2193772E1],"tree_param":{"num_deleted":"0","num_feature":"30","num_nodes":"1","size_leaf_vector":"1"}},{"base_weights":[-7.9687096E-2,3.1504843E-2,-2.2005562E-2],"categories":[],"categories_nodes":[],"categories_segments":[],"categories_sizes":[],"default_left":[0,0,0],"id":90,"left_children":[1,-1,-1],"loss_changes":[7.3916326E0,0E0,0E0],"parents":[2147483647,0,0],"right_children":[2,-1,-1],"split_conditions":[-3.2280463E-1,3.1504843E-2,-2.2005562E-2],"split_indices":[21,0,0],"split_type":[0,0,0],"sum_hessian":[1.4092325E1,5.015612E0,9.076714E0],"tree_param":{"num_deleted":"0","num_feature":"30","num_nodes":"3","size_leaf_vector":"1"}},{"base_weights":[5.5242762E-2,3.471869E-2,-2.203034E-2],"categories":[],"categories_nodes":[],"categories_segments":[],"categories_sizes":[],"default_left":[0,0,0],"id":91,"left_children":[1,-1,-1],"loss_changes":[7.396859E0,0E0,0E0],"parents":[2147483647,0,0],"right_children":[2,-1,-1],"split_conditions":[-1.8006858E-1,3.471869E-2,-2.203034E-2],"split_indices":[22,0,0],"split_type":[0,0,0],"sum_hessian":[1.177338E1,4.95908E0,6.8143005E0],"tree_param":{"num_deleted":"0","num_feature":"30","num_nodes":"3","size_leaf_vector":"1"}},{"base_weights":[-2.5167119E-2,1.8921351E-2,-4.1169856E-2],"categories":[],"categories_nodes":[],"categories_segments":[],"categories_sizes":[],"default_left":[0,0,0],"id":92,"left_children":[1,-1,-1],"loss_changes":[7.982026E0,0E0,0E0],"parents":[2147483647,0,0],"right_children":[2,-1,-1],"split_conditions":[1.1059538E-1,1.8921351E-2,-4.1169856E-2],"split_indices":[23,0,0],"split_type":[0,0,0],"sum_hessian":[1.2524534E1,8.434588E0,4.089945E0],"tree_param":{"num_deleted":"0","num_feature":"30","num_nodes":"3","size_leaf_vector":"1"}},{"base_weights":[5.293717E-2],"categories":[],"categories_nodes":[],"categories_segments":[],"categories_sizes":[],"default_left":[0],"id":93,"left_children":[-1],"loss_changes":[0E0],"parents":[2147483647],"right_children":[-1],"split_conditions":[1.8923518E-3],"split_indices":[0],"split_type":[0],"sum_hessian":[1.4309735E1],"tree_param":{"num_deleted":"0","num_feature":"30","num_nodes":"1","size_leaf_vector":"1"}},{"base_weights":[-3.1033818E-2],"categories":[],"categories_nodes":[],"categories_segments":[],"categories_sizes":[],"default_left":[0],"id":94,"left_children":[-1],"loss_changes":[0E0],"parents":[2147483647],"right_children":[-1],"split_conditions":[-1.1093699E-3],"split_indices":[0],"split_type":[0],"sum_hessian":[1.2879855E1],"tree_param":{"num_deleted":"0","num_feature":"30","num_nodes":"1","size_leaf_vector":"1"}},{"base_weights":[1.3801606E-1],"categories":[],"categories_nodes":[],"categories_segments":[],"categories_sizes":[],"default_left":[0],"id":95,"left_children":[-1],"loss_changes":[0E0],"parents":[2147483647],"right_children":[-1],"split_conditions":[4.933678E-3],"split_indices":[0],"split_type":[0],"sum_hessian":[1.2838665E1],"tree_param":{"num_deleted":"0","num_feature":"30","num_nodes":"1","size_leaf_vector":"1"}},{"base_weights":[5.8043115E-2],"categories":[],"categories_nodes":[],"categories_segments":[],"categories_sizes":[],"default_left":[0],"id":96,"left_children":[-1],"loss_changes":[0E0],"parents":[2147483647],"right_children":[-1],"split_conditions":[2.0748747E-3],"split_indices":[0],"split_type":[0],"sum_hessian":[1.2474615E1],"tree_param":{"num_deleted":"0","num_feature":"30","num_nodes":"1","size_leaf_vector":"1"}},{"base_weights":[-2.2246043E-1,3.4419578E-2,-2.8142383E-2],"categories":[],"categories_nodes":[],"categories_segments":[],"categories_sizes":[],"default_left":[0,0,0],"id":97,"left_children":[1,-1,-1],"loss_changes":[7.4805717E0,0E0,0E0],"parents":[2147483647,0,0],"right_children":[2,-1,-1],"split_conditions":[-2.7571985E-1,3.4419578E-2,-2.8142383E-2],"split_indices":[20,0,0],"split_type":[0,0,0],"sum_hessian":[1.0905977E1,3.4907284E0,7.4152484E0],"tree_param":{"num_deleted":"0","num_feature":"30","num_nodes":"3","size_leaf_vector":"1"}},{"base_weights":[8.965938E-2],"categories":[],"categories_nodes":[],"categories_segments":[],"categories_sizes":[],"default_left":[0],"id":98,"left_children":[-1],"loss_changes":[0E0],"parents":[2147483647],"right_children":[-1],"split_conditions":[3.2050654E-3],"split_indices":[0],"split_type":[0],"sum_hessian":[1.1332087E1],"tree_param":{"num_deleted":"0","num_feature":"30","num_nodes":"1","size_leaf_vector":"1"}},{"base_weights":[4.400355E-2],"categories":[],"categories_nodes":[],"categories_segments":[],"categories_sizes":[],"default_left":[0],"id":99,"left_children":[-1],"loss_changes":[0E0],"parents":[2147483647],"right_children":[-1],"split_conditions":[1.5730006E-3],"split_indices":[0],"split_type":[0],"sum_hessian":[1.3503281E1],"tree_param":{"num_deleted":"0","num_feature":"30","num_nodes":"1","size_leaf_vector":"1"}},{"base_weights":[1.293164E-1,2.0750819E-2,-3.908992E-2],"categories":[],"categories_nodes":[],"categories_segments":[],"categories_sizes":[],"default_left":[0,0,0],"id":100,"left_children":[1,-1,-1],"loss_changes":[7.446616E0,0E0,0E0],"parents":[2147483647,0,0],"right_children":[2,-1,-1],"split_conditions":[3.9885092E-1,2.0750819E-2,-3.908992E-2],"split_indices":[22,0,0],"split_type":[0,0,0],"sum_hessian":[1.3226423E1,9.709415E0,3.5170078E0],"tree_param":{"num_deleted":"0","num_feature":"30","num_nodes":"3","size_leaf_vector":"1"}},{"base_weights":[1.3536091E-1,3.3196744E-2,-2.3460248E-2],"categories":[],"categories_nodes":[],"categories_segments":[],"categories_sizes":[],"default_left":[0,0,0],"id":101,"left_children":[1,-1,-1],"loss_changes":[7.757386E0,0E0,0E0],"parents":[2147483647,0,0],"right_children":[2,-1,-1],"split_conditions":[2.1045879E-2,3.3196744E-2,-2.3460248E-2],"split_indices":[7,0,0],"split_type":[0,0,0],"sum_hessian":[1.2102115E1,6.0359707E0,6.066144E0],"tree_param":{"num_deleted":"0","num_feature":"30","num_nodes":"3","size_leaf_vector":"1"}},{"base_weights":[4.0997412E-2],"categories":[],"categories_nodes":[],"categories_segments":[],"categories_sizes":[],"default_left":[0],"id":102,"left_children":[-1],"loss_changes":[0E0],"parents":[2147483647],"right_children":[-1],"split_conditions":[1.4655398E-3],"split_indices":[0],"split_type":[0],"sum_hessian":[1.1443044E1],"tree_param":{"num_deleted":"0","num_feature":"30","num_nodes":"1","size_leaf_vector":"1"}},{"base_weights":[-2.4109727E-2,2.4178294E-2,-3.06838E-2],"categories":[],"categories_nodes":[],"categories_segments":[],"categories_sizes":[],"default_left":[0,0,0],"id":103,"left_children":[1,-1,-1],"loss_changes":[7.523763E0,0E0,0E0],"parents":[2147483647,0,0],"right_children":[2,-1,-1],"split_conditions":[1.1129822E-1,2.4178294E-2,-3.06838E-2],"split_indices":[20,0,0],"split_type":[0,0,0],"sum_hessian":[1.2620758E1,6.871107E0,5.7496505E0],"tree_param":{"num_deleted":"0","num_feature":"30","num_nodes":"3","size_leaf_vector":"1"}},{"base_weights":[1.0975645E-1,2.5418209E-2,-3.8557984E-2],"categories":[],"categories_nodes":[],"categories_segments":[],"categories_sizes":[],"default_left":[0,0,0],"id":104,"left_children":[1,-1,-1],"loss_changes":[8.302834E0,0E0,0E0],"parents":[2147483647,0,0],"right_children":[2,-1,-1],"split_conditions":[5.3357095E-1,2.5418209E-2,-3.8557984E-2],"split_indices":[27,0,0],"split_type":[0,0,0],"sum_hessian":[1.1358778E1,7.57601E0,3.782768E0],"tree_param":{"num_deleted":"0","num_feature":"30","num_nodes":"3","size_leaf_vector":"1"}},{"base_weights":[9.213984E-2],"categories":[],"categories_nodes":[],"categories_segments":[],"categories_sizes":[],"default_left":[0],"id":105,"left_children":[-1],"loss_changes":[0E0],"parents":[2147483647],"right_children":[-1],"split_conditions":[3.2937347E-3],"split_indices":[0],"split_type":[0],"sum_hessian":[1.2018089E1],"tree_param":{"num_deleted":"0","num_feature":"30","num_nodes":"1","size_leaf_vector":"1"}},{"base_weights":[-1.1861127E-1,2.5557222E-2,-3.7951846E-2],"categories":[],"categories_nodes":[],"categories_segments":[],"categories_sizes":[],"default_left":[0,0,0],"id":106,"left_children":[1,-1,-1],"loss_changes":[8.850851E0,0E0,0E0],"parents":[2147483647,0,0],"right_children":[2,-1,-1],"split_conditions":[1.16252325E-1,2.5557222E-2,-3.7951846E-2],"split_indices":[21,0,0],"split_type":[0,0,0],"sum_hessian":[1.1010552E1,5.8586287E0,5.1519237E0],"tree_param":{"num_deleted":"0","num_feature":"30","num_nodes":"3","size_leaf_vector":"1"}},{"base_weights":[-3.4508325E-2],"categories":[],"categories_nodes":[],"categories_segments":[],"categories_sizes":[],"default_left":[0],"id":107,"left_children":[-1],"loss_changes":[0E0],"parents":[2147483647],"right_children":[-1],"split_conditions":[-1.2335735E-3],"split_indices":[0],"split_type":[0],"sum_hessian":[1.2898154E1],"tree_param":{"num_deleted":"0","num_feature":"30","num_nodes":"1","size_leaf_vector":"1"}},{"base_weights":[-3.8404327E-2,3.7009798E-2,-2.2547651E-2],"categories":[],"categories_nodes":[],"categories_segments":[],"categories_sizes":[],"default_left":[0,0,0],"id":108,"left_children":[1,-1,-1],"loss_changes":[7.9307475E0,0E0,0E0],"parents":[2147483647,0,0],"right_children":[2,-1,-1],"split_conditions":[-1.0657733E-1,3.7009798E-2,-2.2547651E-2],"split_indices":[21,0,0],"split_type":[0,0,0],"sum_hessian":[1.2213704E1,4.3088474E0,7.9048567E0],"tree_param":{"num_deleted":"0","num_feature":"30","num_nodes":"3","size_leaf_vector":"1"}},{"base_weights":[2.2389178E-1],"categories":[],"categories_nodes":[],"categories_segments":[],"categories_sizes":[],"default_left":[0],"id":109,"left_children":[-1],"loss_changes":[0E0],"parents":[2147483647],"right_children":[-1],"split_conditions":[8.003488E-3],"split_indices":[0],"split_type":[0],"sum_hessian":[1.0816739E1],"tree_param":{"num_deleted":"0","num_feature":"30","num_nodes":"1","size_leaf_vector":"1"}},{"base_weights":[-1.5841259E-1,1.8075857E-2,-4.115476E-2],"categories":[],"categories_nodes":[],"categories_segments":[],"categories_sizes":[],"default_left":[0,0,0],"id":110,"left_children":[1,-1,-1],"loss_changes":[7.585313E0,0E0,0E0],"parents":[2147483647,0,0],"right_children":[2,-1,-1],"split_conditions":[1.2586342E-1,1.8075857E-2,-4.115476E-2],"split_indices":[20,0,0],"split_type":[0,0,0],"sum_hessian":[1.1263593E1,6.7831903E0,4.4804025E0],"tree_param":{"num_deleted":"0","num_feature":"30","num_nodes":"3","size_leaf_vector":"1"}},{"base_weights":[-1.773251E-2],"categories":[],"categories_nodes":[],"categories_segments":[],"categories_sizes":[],"default_left":[0],"id":111,"left_children":[-1],"loss_changes":[0E0],"parents":[2147483647],"right_children":[-1],"split_conditions":[-6.338863E-4],"split_indices":[0],"split_type":[0],"sum_hessian":[9.747101E0],"tree_param":{"num_deleted":"0","num_feature":"30","num_nodes":"1","size_leaf_vector":"1"}},{"base_weights":[9.194073E-2],"categories":[],"categories_nodes":[],"categories_segments":[],"categories_sizes":[],"default_left":[0],"id":112,"left_children":[-1],"loss_changes":[0E0],"parents":[2147483647],"right_children":[-1],"split_conditions":[3.286617E-3],"split_indices":[0],"split_type":[0],"sum_hessian":[1.1653616E1],"tree_param":{"num_deleted":"0","num_feature":"30","num_nodes":"1","size_leaf_vector":"1"}},{"base_weights":[2.015761E-2],"categories":[],"categories_nodes":[],"categories_segments":[],"categories_sizes":[],"default_left":[0],"id":113,"left_children":[-1],"loss_changes":[0E0],"parents":[2147483647],"right_children":[-1],"split_conditions":[7.205767E-4],"split_indices":[0],"split_type":[0],"sum_hessian":[1.0764431E1],"tree_param":{"num_deleted":"0","num_feature":"30","num_nodes":"1","size_leaf_vector":"1"}},{"base_weights":[-8.399978E-2],"categories":[],"categories_nodes":[],"categories_segments":[],"categories_sizes":[],"default_left":[0],"id":114,"left_children":[-1],"loss_changes":[0E0],"parents":[2147483647],"right_children":[-1],"split_conditions":[-3.0027512E-3],"split_indices":[0],"split_type":[0],"sum_hessian":[1.1709714E1],"tree_param":{"num_deleted":"0","num_feature":"30","num_nodes":"1","size_leaf_vector":"1"}},{"base_weights":[5.348258E-2],"categories":[],"categories_nodes":[],"categories_segments":[],"categories_sizes":[],"default_left":[0],"id":115,"left_children":[-1],"loss_changes":[0E0],"parents":[2147483647],"right_children":[-1],"split_conditions":[1.9118488E-3],"split_indices":[0],"split_type":[0],"sum_hessian":[1.0881185E1],"tree_param":{"num_deleted":"0","num_feature":"30","num_nodes":"1","size_leaf_vector":"1"}},{"base_weights":[-6.6567836E-3],"categories":[],"categories_nodes":[],"categories_segments":[],"categories_sizes":[],"default_left":[0],"id":116,"left_children":[-1],"loss_changes":[0E0],"parents":[2147483647],"right_children":[-1],"split_conditions":[-2.379609E-4],"split_indices":[0],"split_type":[0],"sum_hessian":[1.1822553E1],"tree_param":{"num_deleted":"0","num_feature":"30","num_nodes":"1","size_leaf_vector":"1"}},{"base_weights":[1.12808615E-1],"categories":[],"categories_nodes":[],"categories_segments":[],"categories_sizes":[],"default_left":[0],"id":117,"left_children":[-1],"loss_changes":[0E0],"parents":[2147483647],"right_children":[-1],"split_conditions":[4.0325844E-3],"split_indices":[0],"split_type":[0],"sum_hessian":[1.0534545E1],"tree_param":{"num_deleted":"0","num_feature":"30","num_nodes":"1","size_leaf_vector":"1"}},{"base_weights":[-2.0134138E-1],"categories":[],"categories_nodes":[],"categories_segments":[],"categories_sizes":[],"default_left":[0],"id":118,"left_children":[-1],"loss_changes":[0E0],"parents":[2147483647],"right_children":[-1],"split_conditions":[-7.1973763E-3],"split_indices":[0],"split_type":[0],"sum_hessian":[1.1573587E1],"tree_param":{"num_deleted":"0","num_feature":"30","num_nodes":"1","size_leaf_vector":"1"}},{"base_weights":[1.5125048E-2,-5.2256145E-2,1.6574165E-2],"categories":[],"categories_nodes":[],"categories_segments":[],"categories_sizes":[],"default_left":[0,0,0],"id":119,"left_children":[1,-1,-1],"loss_changes":[7.3582582E0,0E0,0E0],"parents":[2147483647,0,0],"right_children":[2,-1,-1],"split_conditions":[-9.4792736E-1,-5.2256145E-2,1.6574165E-2],"split_indices":[9,0,0],"split_type":[0,0,0],"sum_hessian":[1.085304E1,2.4634206E0,8.38962E0],"tree_param":{"num_deleted":"0","num_feature":"30","num_nodes":"3","size_leaf_vector":"1"}},{"base_weights":[-1.80489E-1],"categories":[],"categories_nodes":[],"categories_segments":[],"categories_sizes":[],"default_left":[0],"id":120,"left_children":[-1],"loss_changes":[0E0],"parents":[2147483647],"right_children":[-1],"split_conditions":[-6.451964E-3],"split_indices":[0],"split_type":[0],"sum_hessian":[1.0628022E1],"tree_param":{"num_deleted":"0","num_feature":"30","num_nodes":"1","size_leaf_vector":"1"}},{"base_weights":[-2.6647428E-1],"categories":[],"categories_nodes":[],"categories_segments":[],"categories_sizes":[],"default_left":[0],"id":121,"left_children":[-1],"loss_changes":[0E0],"parents":[2147483647],"right_children":[-1],"split_conditions":[-9.52569E-3],"split_indices":[0],"split_type":[0],"sum_hessian":[1.1872568E1],"tree_param":{"num_deleted":"0","num_feature":"30","num_nodes":"1","size_leaf_vector":"1"}},{"base_weights":[-1.0567122E-1],"categories":[],"categories_nodes":[],"categories_segments":[],"categories_sizes":[],"default_left":[0],"id":122,"left_children":[-1],"loss_changes":[0E0],"parents":[2147483647],"right_children":[-1],"split_conditions":[-3.7774427E-3],"split_indices":[0],"split_type":[0],"sum_hessian":[1.1623546E1],"tree_param":{"num_deleted":"0","num_feature":"30","num_nodes":"1","size_leaf_vector":"1"}},{"base_weights":[-8.235843E-2],"categories":[],"categories_nodes":[],"categories_segments":[],"categories_sizes":[],"default_left":[0],"id":123,"left_children":[-1],"loss_changes":[0E0],"parents":[2147483647],"right_children":[-1],"split_conditions":[-2.9440774E-3],"split_indices":[0],"split_type":[0],"sum_hessian":[1.1648814E1],"tree_param":{"num_deleted":"0","num_feature":"30","num_nodes":"1","size_leaf_vector":"1"}},{"base_weights":[1.9114245E-2],"categories":[],"categories_nodes":[],"categories_segments":[],"categories_sizes":[],"default_left":[0],"id":124,"left_children":[-1],"loss_changes":[0E0],"parents":[2147483647],"right_children":[-1],"split_conditions":[6.8327936E-4],"split_indices":[0],"split_type":[0],"sum_hessian":[1.2052618E1],"tree_param":{"num_deleted":"0","num_feature":"30","num_nodes":"1","size_leaf_vector":"1"}},{"base_weights":[1.5933453E-1,3.7996754E-2,-2.4725545E-2],"categories":[],"categories_nodes":[],"categories_segments":[],"categories_sizes":[],"default_left":[0,0,0],"id":125,"left_children":[1,-1,-1],"loss_changes":[8.700863E0,0E0,0E0],"parents":[2147483647,0,0],"right_children":[2,-1,-1],"split_conditions":[-2.1791427E-1,3.7996754E-2,-2.4725545E-2],"split_indices":[6,0,0],"split_type":[0,0,0],"sum_hessian":[1.1067432E1,5.354798E0,5.7126346E0],"tree_param":{"num_deleted":"0","num_feature":"30","num_nodes":"3","size_leaf_vector":"1"}},{"base_weights":[-5.2574273E-2],"categories":[],"categories_nodes":[],"categories_segments":[],"categories_sizes":[],"default_left":[0],"id":126,"left_children":[-1],"loss_changes":[0E0],"parents":[2147483647],"right_children":[-1],"split_conditions":[-1.8793794E-3],"split_indices":[0],"split_type":[0],"sum_hessian":[1.096044E1],"tree_param":{"num_deleted":"0","num_feature":"30","num_nodes":"1","size_leaf_vector":"1"}},{"base_weights":[1.4808188E-1],"categories":[],"categories_nodes":[],"categories_segments":[],"categories_sizes":[],"default_left":[0],"id":127,"left_children":[-1],"loss_changes":[0E0],"parents":[2147483647],"right_children":[-1],"split_conditions":[5.2935025E-3],"split_indices":[0],"split_type":[0],"sum_hessian":[1.2638007E1],"tree_param":{"num_deleted":"0","num_feature":"30","num_nodes":"1","size_leaf_vector":"1"}},{"base_weights":[1.5584877E-1],"categories":[],"categories_nodes":[],"categories_segments":[],"categories_sizes":[],"default_left":[0],"id":128,"left_children":[-1],"loss_changes":[0E0],"parents":[2147483647],"right_children":[-1],"split_conditions":[5.571146E-3],"split_indices":[0],"split_type":[0],"sum_hessian":[1.053019E1],"tree_param":{"num_deleted":"0","num_feature":"30","num_nodes":"1","size_leaf_vector":"1"}},{"base_weights":[5.5650298E-2],"categories":[],"categories_nodes":[],"categories_segments":[],"categories_sizes":[],"default_left":[0],"id":129,"left_children":[-1],"loss_changes":[0E0],"parents":[2147483647],"right_children":[-1],"split_conditions":[1.9893383E-3],"split_indices":[0],"split_type":[0],"sum_hessian":[1.2507616E1],"tree_param":{"num_deleted":"0","num_feature":"30","num_nodes":"1","size_leaf_vector":"1"}},{"base_weights":[8.739579E-2],"categories":[],"categories_nodes":[],"categories_segments":[],"categories_sizes":[],"default_left":[0],"id":130,"left_children":[-1],"loss_changes":[0E0],"parents":[2147483647],"right_children":[-1],"split_conditions":[3.1241486E-3],"split_indices":[0],"split_type":[0],"sum_hessian":[1.1570156E1],"tree_param":{"num_deleted":"0","num_feature":"30","num_nodes":"1","size_leaf_vector":"1"}},{"base_weights":[-2.1681963E-3],"categories":[],"categories_nodes":[],"categories_segments":[],"categories_sizes":[],"default_left":[0],"id":131,"left_children":[-1],"loss_changes":[0E0],"parents":[2147483647],"right_children":[-1],"split_conditions":[-7.750679E-5],"split_indices":[0],"split_type":[0],"sum_hessian":[1.0908377E1],"tree_param":{"num_deleted":"0","num_feature":"30","num_nodes":"1","size_leaf_vector":"1"}},{"base_weights":[2.6269678E-2],"categories":[],"categories_nodes":[],"categories_segments":[],"categories_sizes":[],"default_left":[0],"id":132,"left_children":[-1],"loss_changes":[0E0],"parents":[2147483647],"right_children":[-1],"split_conditions":[9.390656E-4],"split_indices":[0],"split_type":[0],"sum_hessian":[1.11612625E1],"tree_param":{"num_deleted":"0","num_feature":"30","num_nodes":"1","size_leaf_vector":"1"}},{"base_weights":[1.6955991E-1],"categories":[],"categories_nodes":[],"categories_segments":[],"categories_sizes":[],"default_left":[0],"id":133,"left_children":[-1],"loss_changes":[0E0],"parents":[2147483647],"right_children":[-1],"split_conditions":[6.06128E-3],"split_indices":[0],"split_type":[0],"sum_hessian":[1.0757748E1],"tree_param":{"num_deleted":"0","num_feature":"30","num_nodes":"1","size_leaf_vector":"1"}},{"base_weights":[2.7156347E-2,-5.5763565E-2,1.5820378E-2],"categories":[],"categories_nodes":[],"categories_segments":[],"categories_sizes":[],"default_left":[0,0,0],"id":134,"left_children":[1,-1,-1],"loss_changes":[7.5869956E0,0E0,0E0],"parents":[2147483647,0,0],"right_children":[2,-1,-1],"split_conditions":[-9.4792736E-1,-5.5763565E-2,1.5820378E-2],"split_indices":[9,0,0],"split_type":[0,0,0],"sum_hessian":[1.0990685E1,2.167166E0,8.82352E0],"tree_param":{"num_deleted":"0","num_feature":"30","num_nodes":"3","size_leaf_vector":"1"}},{"base_weights":[-1.3410882E-2],"categories":[],"categories_nodes":[],"categories_segments":[],"categories_sizes":[],"default_left":[0],"id":135,"left_children":[-1],"loss_changes":[0E0],"parents":[2147483647],"right_children":[-1],"split_conditions":[-4.7940054E-4],"split_indices":[0],"split_type":[0],"sum_hessian":[1.21026325E1],"tree_param":{"num_deleted":"0","num_feature":"30","num_nodes":"1","size_leaf_vector":"1"}},{"base_weights":[-2.2428077E-1],"categories":[],"categories_nodes":[],"categories_segments":[],"categories_sizes":[],"default_left":[0],"id":136,"left_children":[-1],"loss_changes":[0E0],"parents":[2147483647],"right_children":[-1],"split_conditions":[-8.017394E-3],"split_indices":[0],"split_type":[0],"sum_hessian":[1.2029145E1],"tree_param":{"num_deleted":"0","num_feature":"30","num_nodes":"1","size_leaf_vector":"1"}},{"base_weights":[-2.3379353E-1],"categories":[],"categories_nodes":[],"categories_segments":[],"categories_sizes":[],"default_left":[0],"id":137,"left_children":[-1],"loss_changes":[0E0],"parents":[2147483647],"right_children":[-1],"split_conditions":[-8.357448E-3],"split_indices":[0],"split_type":[0],"sum_hessian":[1.11131E1],"tree_param":{"num_deleted":"0","num_feature":"30","num_nodes":"1","size_leaf_vector":"1"}},{"base_weights":[4.1537914E-2],"categories":[],"categories_nodes":[],"categories_segments":[],"categories_sizes":[],"default_left":[0],"id":138,"left_children":[-1],"loss_changes":[0E0],"parents":[2147483647],"right_children":[-1],"split_conditions":[1.4848612E-3],"split_indices":[0],"split_type":[0],"sum_hessian":[1.1833793E1],"tree_param":{"num_deleted":"0","num_feature":"30","num_nodes":"1","size_leaf_vector":"1"}},{"base_weights":[-1.5491103E-2],"categories":[],"categories_nodes":[],"categories_segments":[],"categories_sizes":[],"default_left":[0],"id":139,"left_children":[-1],"loss_changes":[0E0],"parents":[2147483647],"right_children":[-1],"split_conditions":[-5.537625E-4],"split_indices":[0],"split_type":[0],"sum_hessian":[1.111341E1],"tree_param":{"num_deleted":"0","num_feature":"30","num_nodes":"1","size_leaf_vector":"1"}},{"base_weights":[-7.041143E-2],"categories":[],"categories_nodes":[],"categories_segments":[],"categories_sizes":[],"default_left":[0],"id":140,"left_children":[-1],"loss_changes":[0E0],"parents":[2147483647],"right_children":[-1],"split_conditions":[-2.5170064E-3],"split_indices":[0],"split_type":[0],"sum_hessian":[9.941092E0],"tree_param":{"num_deleted":"0","num_feature":"30","num_nodes":"1","size_leaf_vector":"1"}},{"base_weights":[4.4401623E-2],"categories":[],"categories_nodes":[],"categories_segments":[],"categories_sizes":[],"default_left":[0],"id":141,"left_children":[-1],"loss_changes":[0E0],"parents":[2147483647],"right_children":[-1],"split_conditions":[1.5872306E-3],"split_indices":[0],"split_type":[0],"sum_hessian":[1.1441551E1],"tree_param":{"num_deleted":"0","num_feature":"30","num_nodes":"1","size_leaf_vector":"1"}},{"base_weights":[2.8685607E-2],"categories":[],"categories_nodes":[],"categories_segments":[],"categories_sizes":[],"default_left":[0],"id":142,"left_children":[-1],"loss_changes":[0E0],"parents":[2147483647],"right_children":[-1],"split_conditions":[1.0254281E-3],"split_indices":[0],"split_type":[0],"sum_hessian":[1.2135393E1],"tree_param":{"num_deleted":"0","num_feature":"30","num_nodes":"1","size_leaf_vector":"1"}},{"base_weights":[-8.410599E-2],"categories":[],"categories_nodes":[],"categories_segments":[],"categories_sizes":[],"default_left":[0],"id":143,"left_children":[-1],"loss_changes":[0E0],"parents":[2147483647],"right_children":[-1],"split_conditions":[-3.0065477E-3],"split_indices":[0],"split_type":[0],"sum_hessian":[1.0565288E1],"tree_param":{"num_deleted":"0","num_feature":"30","num_nodes":"1","size_leaf_vector":"1"}},{"base_weights":[1.7513779E-1,3.77076E-2,-2.6277933E-2],"categories":[],"categories_nodes":[],"categories_segments":[],"categories_sizes":[],"default_left":[0,0,0],"id":144,"left_children":[1,-1,-1],"loss_changes":[8.441935E0,0E0,0E0],"parents":[2147483647,0,0],"right_children":[2,-1,-1],"split_conditions":[1.16526075E-1,3.77076E-2,-2.6277933E-2],"split_indices":[7,0,0],"split_type":[0,0,0],"sum_hessian":[1.02941475E1,5.2265973E0,5.06755E0],"tree_param":{"num_deleted":"0","num_feature":"30","num_nodes":"3","size_leaf_vector":"1"}},{"base_weights":[4.5055926E-2],"categories":[],"categories_nodes":[],"categories_segments":[],"categories_sizes":[],"default_left":[0],"id":145,"left_children":[-1],"loss_changes":[0E0],"parents":[2147483647],"right_children":[-1],"split_conditions":[1.6106201E-3],"split_indices":[0],"split_type":[0],"sum_hessian":[1.2427912E1],"tree_param":{"num_deleted":"0","num_feature":"30","num_nodes":"1","size_leaf_vector":"1"}},{"base_weights":[-1.3816892E-1],"categories":[],"categories_nodes":[],"categories_segments":[],"categories_sizes":[],"default_left":[0],"id":146,"left_children":[-1],"loss_changes":[0E0],"parents":[2147483647],"right_children":[-1],"split_conditions":[-4.939142E-3],"split_indices":[0],"split_type":[0],"sum_hessian":[1.0622075E1],"tree_param":{"num_deleted":"0","num_feature":"30","num_nodes":"1","size_leaf_vector":"1"}},{"base_weights":[-6.669292E-2],"categories":[],"categories_nodes":[],"categories_segments":[],"categories_sizes":[],"default_left":[0],"id":147,"left_children":[-1],"loss_changes":[0E0],"parents":[2147483647],"right_children":[-1],"split_conditions":[-2.3840803E-3],"split_indices":[0],"split_type":[0],"sum_hessian":[1.0491177E1],"tree_param":{"num_deleted":"0","num_feature":"30","num_nodes":"1","size_leaf_vector":"1"}},{"base_weights":[-3.0362222E-2],"categories":[],"categories_nodes":[],"categories_segments":[],"categories_sizes":[],"default_left":[0],"id":148,"left_children":[-1],"loss_changes":[0E0],"parents":[2147483647],"right_children":[-1],"split_conditions":[-1.0853623E-3],"split_indices":[0],"split_type":[0],"sum_hessian":[1.1320323E1],"tree_param":{"num_deleted":"0","num_feature":"30","num_nodes":"1","size_leaf_vector":"1"}},{"base_weights":[-2.7518671E-2],"categories":[],"categories_nodes":[],"categories_segments":[],"categories_sizes":[],"default_left":[0],"id":149,"left_children":[-1],"loss_changes":[0E0],"parents":[2147483647],"right_children":[-1],"split_conditions":[-9.837135E-4],"split_indices":[0],"split_type":[0],"sum_hessian":[1.1351127E1],"tree_param":{"num_deleted":"0","num_feature":"30","num_nodes":"1","size_leaf_vector":"1"}},{"base_weights":[7.814707E-2],"categories":[],"categories_nodes":[],"categories_segments":[],"categories_sizes":[],"default_left":[0],"id":150,"left_children":[-1],"loss_changes":[0E0],"parents":[2147483647],"right_children":[-1],"split_conditions":[2.7935335E-3],"split_indices":[0],"split_type":[0],"sum_hessian":[1.1407047E1],"tree_param":{"num_deleted":"0","num_feature":"30","num_nodes":"1","size_leaf_vector":"1"}},{"base_weights":[1.2753733E-1],"categories":[],"categories_nodes":[],"categories_segments":[],"categories_sizes":[],"default_left":[0],"id":151,"left_children":[-1],"loss_changes":[0E0],"parents":[2147483647],"right_children":[-1],"split_conditions":[4.559093E-3],"split_indices":[0],"split_type":[0],"sum_hessian":[1.0953369E1],"tree_param":{"num_deleted":"0","num_feature":"30","num_nodes":"1","size_leaf_vector":"1"}},{"base_weights":[-3.7354816E-2],"categories":[],"categories_nodes":[],"categories_segments":[],"categories_sizes":[],"default_left":[0],"id":152,"left_children":[-1],"loss_changes":[0E0],"parents":[2147483647],"right_children":[-1],"split_conditions":[-1.3353274E-3],"split_indices":[0],"split_type":[0],"sum_hessian":[1.2218951E1],"tree_param":{"num_deleted":"0","num_feature":"30","num_nodes":"1","size_leaf_vector":"1"}},{"base_weights":[5.5753488E-2],"categories":[],"categories_nodes":[],"categories_segments":[],"categories_sizes":[],"default_left":[0],"id":153,"left_children":[-1],"loss_changes":[0E0],"parents":[2147483647],"right_children":[-1],"split_conditions":[1.993027E-3],"split_indices":[0],"split_type":[0],"sum_hessian":[1.0105301E1],"tree_param":{"num_deleted":"0","num_feature":"30","num_nodes":"1","size_leaf_vector":"1"}},{"base_weights":[1.472875E-2],"categories":[],"categories_nodes":[],"categories_segments":[],"categories_sizes":[],"default_left":[0],"id":154,"left_children":[-1],"loss_changes":[0E0],"parents":[2147483647],"right_children":[-1],"split_conditions":[5.265105E-4],"split_indices":[0],"split_type":[0],"sum_hessian":[1.0270895E1],"tree_param":{"num_deleted":"0","num_feature":"30","num_nodes":"1","size_leaf_vector":"1"}},{"base_weights":[5.1603294E-3],"categories":[],"categories_nodes":[],"categories_segments":[],"categories_sizes":[],"default_left":[0],"id":155,"left_children":[-1],"loss_changes":[0E0],"parents":[2147483647],"right_children":[-1],"split_conditions":[1.8446696E-4],"split_indices":[0],"split_type":[0],"sum_hessian":[1.2890347E1],"tree_param":{"num_deleted":"0","num_feature":"30","num_nodes":"1","size_leaf_vector":"1"}},{"base_weights":[5.855348E-2],"categories":[],"categories_nodes":[],"categories_segments":[],"categories_sizes":[],"default_left":[0],"id":156,"left_children":[-1],"loss_changes":[0E0],"parents":[2147483647],"right_children":[-1],"split_conditions":[2.0931188E-3],"split_indices":[0],"split_type":[0],"sum_hessian":[1.1303046E1],"tree_param":{"num_deleted":"0","num_feature":"30","num_nodes":"1","size_leaf_vector":"1"}},{"base_weights":[6.1916288E-2],"categories":[],"categories_nodes":[],"categories_segments":[],"categories_sizes":[],"default_left":[0],"id":157,"left_children":[-1],"loss_changes":[0E0],"parents":[2147483647],"right_children":[-1],"split_conditions":[2.2133295E-3],"split_indices":[0],"split_type":[0],"sum_hessian":[1.1811567E1],"tree_param":{"num_deleted":"0","num_feature":"30","num_nodes":"1","size_leaf_vector":"1"}},{"base_weights":[-1.0921833E-1],"categories":[],"categories_nodes":[],"categories_segments":[],"categories_sizes":[],"default_left":[0],"id":158,"left_children":[-1],"loss_changes":[0E0],"parents":[2147483647],"right_children":[-1],"split_conditions":[-3.9042418E-3],"split_indices":[0],"split_type":[0],"sum_hessian":[1.0736549E1],"tree_param":{"num_deleted":"0","num_feature":"30","num_nodes":"1","size_leaf_vector":"1"}},{"base_weights":[-1.2516768E-1],"categories":[],"categories_nodes":[],"categories_segments":[],"categories_sizes":[],"default_left":[0],"id":159,"left_children":[-1],"loss_changes":[0E0],"parents":[2147483647],"right_children":[-1],"split_conditions":[-4.474385E-3],"split_indices":[0],"split_type":[0],"sum_hessian":[1.0603507E1],"tree_param":{"num_deleted":"0","num_feature":"30","num_nodes":"1","size_leaf_vector":"1"}},{"base_weights":[1.4986138E-1],"categories":[],"categories_nodes":[],"categories_segments":[],"categories_sizes":[],"default_left":[0],"id":160,"left_children":[-1],"loss_changes":[0E0],"parents":[2147483647],"right_children":[-1],"split_conditions":[5.357114E-3],"split_indices":[0],"split_type":[0],"sum_hessian":[1.0453098E1],"tree_param":{"num_deleted":"0","num_feature":"30","num_nodes":"1","size_leaf_vector":"1"}},{"base_weights":[1.1780893E-2],"categories":[],"categories_nodes":[],"categories_segments":[],"categories_sizes":[],"default_left":[0],"id":161,"left_children":[-1],"loss_changes":[0E0],"parents":[2147483647],"right_children":[-1],"split_conditions":[4.2113313E-4],"split_indices":[0],"split_type":[0],"sum_hessian":[1.1775118E1],"tree_param":{"num_deleted":"0","num_feature":"30","num_nodes":"1","size_leaf_vector":"1"}},{"base_weights":[-1.6496891E-1],"categories":[],"categories_nodes":[],"categories_segments":[],"categories_sizes":[],"default_left":[0],"id":162,"left_children":[-1],"loss_changes":[0E0],"parents":[2147483647],"right_children":[-1],"split_conditions":[-5.897165E-3],"split_indices":[0],"split_type":[0],"sum_hessian":[1.0508862E1],"tree_param":{"num_deleted":"0","num_feature":"30","num_nodes":"1","size_leaf_vector":"1"}},{"base_weights":[1.4545841E-3],"categories":[],"categories_nodes":[],"categories_segments":[],"categories_sizes":[],"default_left":[0],"id":163,"left_children":[-1],"loss_changes":[0E0],"parents":[2147483647],"right_children":[-1],"split_conditions":[5.1997205E-5],"split_indices":[0],"split_type":[0],"sum_hessian":[1.149061E1],"tree_param":{"num_deleted":"0","num_feature":"30","num_nodes":"1","size_leaf_vector":"1"}},{"base_weights":[5.794016E-2],"categories":[],"categories_nodes":[],"categories_segments":[],"categories_sizes":[],"default_left":[0],"id":164,"left_children":[-1],"loss_changes":[0E0],"parents":[2147483647],"right_children":[-1],"split_conditions":[2.0711944E-3],"split_indices":[0],"split_type":[0],"sum_hessian":[1.1677674E1],"tree_param":{"num_deleted":"0","num_feature":"30","num_nodes":"1","size_leaf_vector":"1"}},{"base_weights":[-9.273094E-2],"categories":[],"categories_nodes":[],"categories_segments":[],"categories_sizes":[],"default_left":[0],"id":165,"left_children":[-1],"loss_changes":[0E0],"parents":[2147483647],"right_children":[-1],"split_conditions":[-3.3148648E-3],"split_indices":[0],"split_type":[0],"sum_hessian":[1.1871616E1],"tree_param":{"num_deleted":"0","num_feature":"30",