{"learner":{"attributes":{"scikit_learn":"{\"_estimator_type\": \"classifier\"}"},"feature_names":[],"feature_types":[],"gradient_booster":{"model":{"cats":{"enc":[],"feature_segments":[],"sorted_idx":[]},"gbtree_model_param":{"num_parallel_tree":"1","num_trees":"1907"},"iteration_indptr":[0,1,2,3,4,5,6,7,8,9,10,11,12,13,14,15,16,17,18,19,20,21,22,23,24,25,26,27,28,29,30,31,32,33,34,35,36,37,38,39,40,41,42,43,44,45,46,47,48,49,50,51,52,53,54,55,56,57,58,59,60,61,62,63,64,65,66,67,68,69,70,71,72,73,74,75,76,77,78,79,80,81,82,83,84,85,86,87,88,89,90,91,92,93,94,95,96,97,98,99,100,101,102,103,104,105,106,107,108,109,110,111,112,113,114,115,116,117,118,119,120,121,122,123,124,125,126,127,128,129,130,131,132,133,134,135,136,137,138,139,140,141,142,143,144,145,146,147,148,149,150,151,152,153,154,155,156,157,158,159,160,161,162,163,164,165,166,167,168,169,170,171,172,173,174,175,176,177,178,179,180,181,182,183,184,185,186,187,188,189,190,191,192,193,194,195,196,197,198,199,200,201,202,203,204,205,206,207,208,209,210,211,212,213,214,215,216,217,218,219,220,221,222,223,224,225,226,227,228,229,230,231,232,233,234,235,236,237,238,239,240,241,242,243,244,245,246,247,248,249,250,251,252,253,254,255,256,257,258,259,260,261,262,263,264,265,266,267,268,269,270,271,272,273,274,275,276,277,278,279,280,281,282,283,284,285,286,287,288,289,290,291,292,293,294,295,296,297,298,299,300,301,302,303,304,305,306,307,308,309,310,311,312,313,314,315,316,317,318,319,320,321,322,323,324,325,326,327,328,329,330,331,332,333,334,335,336,337,338,339,340,341,342,343,344,345,346,347,348,349,350,351,352,353,354,355,356,357,358,359,360,361,362,363,364,365,366,367,368,369,370,371,372,373,374,375,376,377,378,379,380,381,382,383,384,385,386,387,388,389,390,391,392,393,394,395,396,397,398,399,400,401,402,403,404,405,406,407,408,409,410,411,412,413,414,415,416,417,418,419,420,421,422,423,424,425,426,427,428,429,430,431,432,433,434,435,436,437,438,439,440,441,442,443,444,445,446,447,448,449,450,451,452,453,454,455,456,457,458,459,460,461,462,463,464,465,466,467,468,469,470,471,472,473,474,475,476,477,478,479,480,481,482,483,484,485,486,487,488,489,490,491,492,493,494,495,496,497,498,499,500,501,502,503,504,505,506,507,508,509,510,511,512,513,514,515,516,517,518,519,520,521,522,523,524,525,526,527,528,529,530,531,532,533,534,535,536,537,538,539,540,541,542,543,544,545,546,547,548,549,550,551,552,553,554,555,556,557,558,559,560,561,562,563,564,565,566,567,568,569,570,571,572,573,574,575,576,577,578,579,580,581,582,583,584,585,586,587,588,589,590,591,592,593,594,595,596,597,598,599,600,601,602,603,604,605,606,607,608,609,610,611,612,613,614,615,616,617,618,619,620,621,622,623,624,625,626,627,628,629,630,631,632,633,634,635,636,637,638,639,640,641,642,643,644,645,646,647,648,649,650,651,652,653,654,655,656,657,658,659,660,661,662,663,664,665,666,667,668,669,670,671,672,673,674,675,676,677,678,679,680,681,682,683,684,685,686,687,688,689,690,691,692,693,694,695,696,697,698,699,700,701,702,703,704,705,706,707,708,709,710,711,712,713,714,715,716,717,718,719,720,721,722,723,724,725,726,727,728,729,730,731,732,733,734,735,736,737,738,739,740,741,742,743,744,745,746,747,748,749,750,751,752,753,754,755,756,757,758,759,760,761,762,763,764,765,766,767,768,769,770,771,772,773,774,775,776,777,778,779,780,781,782,783,784,785,786,787,788,789,790,791,792,793,794,795,796,797,798,799,800,801,802,803,804,805,806,807,808,809,810,811,812,813,814,815,816,817,818,819,820,821,822,823,824,825,826,827,828,829,830,831,832,833,834,835,836,837,838,839,840,841,842,843,844,845,846,847,848,849,850,851,852,853,854,855,856,857,858,859,860,861,862,863,864,865,866,867,868,869,870,871,872,873,874,875,876,877,878,879,880,881,882,883,884,885,886,887,888,889,890,891,892,893,894,895,896,897,898,899,900,901,902,903,904,905,906,907,908,909,910,911,912,913,914,915,916,917,918,919,920,921,922,923,924,925,926,927,928,929,930,931,932,933,934,935,936,937,938,939,940,941,942,943,944,945,946,947,948,949,950,951,952,953,954,955,956,957,958,959,960,961,962,963,964,965,966,967,968,969,970,971,972,973,974,975,976,977,978,979,980,981,982,983,984,985,986,987,988,989,990,991,992,993,994,995,996,997,998,999,1000,1001,1002,1003,1004,1005,1006,1007,1008,1009,1010,1011,1012,1013,1014,1015,1016,1017,1018,1019,1020,1021,1022,1023,1024,1025,1026,1027,1028,1029,1030,1031,1032,1033,1034,1035,1036,1037,1038,1039,1040,1041,1042,1043,1044,1045,1046,1047,1048,1049,1050,1051,1052,1053,1054,1055,1056,1057,1058,1059,1060,1061,1062,1063,1064,1065,1066,1067,1068,1069,1070,1071,1072,1073,1074,1075,1076,1077,1078,1079,1080,1081,1082,1083,1084,1085,1086,1087,1088,1089,1090,1091,1092,1093,1094,1095,1096,1097,1098,1099,1100,1101,1102,1103,1104,1105,1106,1107,1108,1109,1110,1111,1112,1113,1114,1115,1116,1117,1118,1119,1120,1121,1122,1123,1124,1125,1126,1127,1128,1129,1130,1131,1132,1133,1134,1135,1136,1137,1138,1139,1140,1141,1142,1143,1144,1145,1146,1147,1148,1149,1150,1151,1152,1153,1154,1155,1156,1157,1158,1159,1160,1161,1162,1163,1164,1165,1166,1167,1168,1169,1170,1171,1172,1173,1174,1175,1176,1177,1178,1179,1180,1181,1182,1183,1184,1185,1186,1187,1188,1189,1190,1191,1192,1193,1194,1195,1196,1197,1198,1199,1200,1201,1202,1203,1204,1205,1206,1207,1208,1209,1210,1211,1212,1213,1214,1215,1216,1217,1218,1219,1220,1221,1222,1223,1224,1225,1226,1227,1228,1229,1230,1231,1232,1233,1234,1235,1236,1237,1238,1239,1240,1241,1242,1243,1244,1245,1246,1247,1248,1249,1250,1251,1252,1253,1254,1255,1256,1257,1258,1259,1260,1261,1262,1263,1264,1265,1266,1267,1268,1269,1270,1271,1272,1273,1274,1275,1276,1277,1278,1279,1280,1281,1282,1283,1284,1285,1286,1287,1288,1289,1290,1291,1292,1293,1294,1295,1296,1297,1298,1299,1300,1301,1302,1303,1304,1305,1306,1307,1308,1309,1310,1311,1312,1313,1314,1315,1316,1317,1318,1319,1320,1321,1322,1323,1324,1325,1326,1327,1328,1329,1330,1331,1332,1333,1334,1335,1336,1337,1338,1339,1340,1341,1342,1343,1344,1345,1346,1347,1348,1349,1350,1351,1352,1353,1354,1355,1356,1357,1358,1359,1360,1361,1362,1363,1364,1365,1366,1367,1368,1369,1370,1371,1372,1373,1374,1375,1376,1377,1378,1379,1380,1381,1382,1383,1384,1385,1386,1387,1388,1389,1390,1391,1392,1393,1394,1395,1396,1397,1398,1399,1400,1401,1402,1403,1404,1405,1406,1407,1408,1409,1410,1411,1412,1413,1414,1415,1416,1417,1418,1419,1420,1421,1422,1423,1424,1425,1426,1427,1428,1429,1430,1431,1432,1433,1434,1435,1436,1437,1438,1439,1440,1441,1442,1443,1444,1445,1446,1447,1448,1449,1450,1451,1452,1453,1454,1455,1456,1457,1458,1459,1460,1461,1462,1463,1464,1465,1466,1467,1468,1469,1470,1471,1472,1473,1474,1475,1476,1477,1478,1479,1480,1481,1482,1483,1484,1485,1486,1487,1488,1489,1490,1491,1492,1493,1494,1495,1496,1497,1498,1499,1500,1501,1502,1503,1504,1505,1506,1507,1508,1509,1510,1511,1512,1513,1514,1515,1516,1517,1518,1519,1520,1521,1522,1523,1524,1525,1526,1527,1528,1529,1530,1531,1532,1533,1534,1535,1536,1537,1538,1539,1540,1541,1542,1543,1544,1545,1546,1547,1548,1549,1550,1551,1552,1553,1554,1555,1556,1557,1558,1559,1560,1561,1562,1563,1564,1565,1566,1567,1568,1569,1570,1571,1572,1573,1574,1575,1576,1577,1578,1579,1580,1581,1582,1583,1584,1585,1586,1587,1588,1589,1590,1591,1592,1593,1594,1595,1596,1597,1598,1599,1600,1601,1602,1603,1604,1605,1606,1607,1608,1609,1610,1611,1612,1613,1614,1615,1616,1617,1618,1619,1620,1621,1622,1623,1624,1625,1626,1627,1628,1629,1630,1631,1632,1633,1634,1635,1636,1637,1638,1639,1640,1641,1642,1643,1644,1645,1646,1647,1648,1649,1650,1651,1652,1653,1654,1655,1656,1657,1658,1659,1660,1661,1662,1663,1664,1665,1666,1667,1668,1669,1670,1671,1672,1673,1674,1675,1676,1677,1678,1679,1680,1681,1682,1683,1684,1685,1686,1687,1688,1689,1690,1691,1692,1693,1694,1695,1696,1697,1698,1699,1700,1701,1702,1703,1704,1705,1706,1707,1708,1709,1710,1711,1712,1713,1714,1715,1716,1717,1718,1719,1720,1721,1722,1723,1724,1725,1726,1727,1728,1729,1730,1731,1732,1733,1734,1735,1736,1737,1738,1739,1740,1741,1742,1743,1744,1745,1746,1747,1748,1749,1750,1751,1752,1753,1754,1755,1756,1757,1758,1759,1760,1761,1762,1763,1764,1765,1766,1767,1768,1769,1770,1771,1772,1773,1774,1775,1776,1777,1778,1779,1780,1781,1782,1783,1784,1785,1786,1787,1788,1789,1790,1791,1792,1793,1794,1795,1796,1797,1798,1799,1800,1801,1802,1803,1804,1805,1806,1807,1808,1809,1810,1811,1812,1813,1814,1815,1816,1817,1818,1819,1820,1821,1822,1823,1824,1825,1826,1827,1828,1829,1830,1831,1832,1833,1834,1835,1836,1837,1838,1839,1840,1841,1842,1843,1844,1845,1846,1847,1848,1849,1850,1851,1852,1853,1854,1855,1856,1857,1858,1859,1860,1861,1862,1863,1864,1865,1866,1867,1868,1869,1870,1871,1872,1873,1874,1875,1876,1877,1878,1879,1880,1881,1882,1883,1884,1885,1886,1887,1888,1889,1890,1891,1892,1893,1894,1895,1896,1897,1898,1899,1900,1901,1902,1903,1904,1905,1906,1907],"tree_info":[0,0,0,0,0,0,0,0,0,0,0,0,0,0,0,0,0,0,0,0,0,0,0,0,0,0,0,0,0,0,0,0,0,0,0,0,0,0,0,0,0,0,0,0,0,0,0,0,0,0,0,0,0,0,0,0,0,0,0,0,0,0,0,0,0,0,0,0,0,0,0,0,0,0,0,0,0,0,0,0,0,0,0,0,0,0,0,0,0,0,0,0,0,0,0,0,0,0,0,0,0,0,0,0,0,0,0,0,0,0,0,0,0,0,0,0,0,0,0,0,0,0,0,0,0,0,0,0,0,0,0,0,0,0,0,0,0,0,0,0,0,0,0,0,0,0,0,0,0,0,0,0,0,0,0,0,0,0,0,0,0,0,0,0,0,0,0,0,0,0,0,0,0,0,0,0,0,0,0,0,0,0,0,0,0,0,0,0,0,0,0,0,0,0,0,0,0,0,0,0,0,0,0,0,0,0,0,0,0,0,0,0,0,0,0,0,0,0,0,0,0,0,0,0,0,0,0,0,0,0,0,0,0,0,0,0,0,0,0,0,0,0,0,0,0,0,0,0,0,0,0,0,0,0,0,0,0,0,0,0,0,0,0,0,0,0,0,0,0,0,0,0,0,0,0,0,0,0,0,0,0,0,0,0,0,0,0,0,0,0,0,0,0,0,0,0,0,0,0,0,0,0,0,0,0,0,0,0,0,0,0,0,0,0,0,0,0,0,0,0,0,0,0,0,0,0,0,0,0,0,0,0,0,0,0,0,0,0,0,0,0,0,0,0,0,0,0,0,0,0,0,0,0,0,0,0,0,0,0,0,0,0,0,0,0,0,0,0,0,0,0,0,0,0,0,0,0,0,0,0,0,0,0,0,0,0,0,0,0,0,0,0,0,0,0,0,0,0,0,0,0,0,0,0,0,0,0,0,0,0,0,0,0,0,0,0,0,0,0,0,0,0,0,0,0,0,0,0,0,0,0,0,0,0,0,0,0,0,0,0,0,0,0,0,0,0,0,0,0,0,0,0,0,0,0,0,0,0,0,0,0,0,0,0,0,0,0,0,0,0,0,0,0,0,0,0,0,0,0,0,0,0,0,0,0,0,0,0,0,0,0,0,0,0,0,0,0,0,0,0,0,0,0,0,0,0,0,0,0,0,0,0,0,0,0,0,0,0,0,0,0,0,0,0,0,0,0,0,0,0,0,0,0,0,0,0,0,0,0,0,0,0,0,0,0,0,0,0,0,0,0,0,0,0,0,0,0,0,0,0,0,0,0,0,0,0,0,0,0,0,0,0,0,0,0,0,0,0,0,0,0,0,0,0,0,0,0,0,0,0,0,0,0,0,0,0,0,0,0,0,0,0,0,0,0,0,0,0,0,0,0,0,0,0,0,0,0,0,0,0,0,0,0,0,0,0,0,0,0,0,0,0,0,0,0,0,0,0,0,0,0,0,0,0,0,0,0,0,0,0,0,0,0,0,0,0,0,0,0,0,0,0,0,0,0,0,0,0,0,0,0,0,0,0,0,0,0,0,0,0,0,0,0,0,0,0,0,0,0,0,0,0,0,0,0,0,0,0,0,0,0,0,0,0,0,0,0,0,0,0,0,0,0,0,0,0,0,0,0,0,0,0,0,0,0,0,0,0,0,0,0,0,0,0,0,0,0,0,0,0,0,0,0,0,0,0,0,0,0,0,0,0,0,0,0,0,0,0,0,0,0,0,0,0,0,0,0,0,0,0,0,0,0,0,0,0,0,0,0,0,0,0,0,0,0,0,0,0,0,0,0,0,0,0,0,0,0,0,0,0,0,0,0,0,0,0,0,0,0,0,0,0,0,0,0,0,0,0,0,0,0,0,0,0,0,0,0,0,0,0,0,0,0,0,0,0,0,0,0,0,0,0,0,0,0,0,0,0,0,0,0,0,0,0,0,0,0,0,0,0,0,0,0,0,0,0,0,0,0,0,0,0,0,0,0,0,0,0,0,0,0,0,0,0,0,0,0,0,0,0,0,0,0,0,0,0,0,0,0,0,0,0,0,0,0,0,0,0,0,0,0,0,0,0,0,0,0,0,0,0,0,0,0,0,0,0,0,0,0,0,0,0,0,0,0,0,0,0,0,0,0,0,0,0,0,0,0,0,0,0,0,0,0,0,0,0,0,0,0,0,0,0,0,0,0,0,0,0,0,0,0,0,0,0,0,0,0,0,0,0,0,0,0,0,0,0,0,0,0,0,0,0,0,0,0,0,0,0,0,0,0,0,0,0,0,0,0,0,0,0,0,0,0,0,0,0,0,0,0,0,0,0,0,0,0,0,0,0,0,0,0,0,0,0,0,0,0,0,0,0,0,0,0,0,0,0,0,0,0,0,0,0,0,0,0,0,0,0,0,0,0,0,0,0,0,0,0,0,0,0,0,0,0,0,0,0,0,0,0,0,0,0,0,0,0,0,0,0,0,0,0,0,0,0,0,0,0,0,0,0,0,0,0,0,0,0,0,0,0,0,0,0,0,0,0,0,0,0,0,0,0,0,0,0,0,0,0,0,0,0,0,0,0,0,0,0,0,0,0,0,0,0,0,0,0,0,0,0,0,0,0,0,0,0,0,0,0,0,0,0,0,0,0,0,0,0,0,0,0,0,0,0,0,0,0,0,0,0,0,0,0,0,0,0,0,0,0,0,0,0,0,0,0,0,0,0,0,0,0,0,0,0,0,0,0,0,0,0,0,0,0,0,0,0,0,0,0,0,0,0,0,0,0,0,0,0,0,0,0,0,0,0,0,0,0,0,0,0,0,0,0,0,0,0,0,0,0,0,0,0,0,0,0,0,0,0,0,0,0,0,0,0,0,0,0,0,0,0,0,0,0,0,0,0,0,0,0,0,0,0,0,0,0,0,0,0,0,0,0,0,0,0,0,0,0,0,0,0,0,0,0,0,0,0,0,0,0,0,0,0,0,0,0,0,0,0,0,0,0,0,0,0,0,0,0,0,0,0,0,0,0,0,0,0,0,0,0,0,0,0,0,0,0,0,0,0,0,0,0,0,0,0,0,0,0,0,0,0,0,0,0,0,0,0,0,0,0,0,0,0,0,0,0,0,0,0,0,0,0,0,0,0,0,0,0,0,0,0,0,0,0,0,0,0,0,0,0,0,0,0,0,0,0,0,0,0,0,0,0,0,0,0,0,0,0,0,0,0,0,0,0,0,0,0,0,0,0,0,0,0,0,0,0,0,0,0,0,0,0,0,0,0,0,0,0,0,0,0,0,0,0,0,0,0,0,0,0,0,0,0,0,0,0,0,0,0,0,0,0,0,0,0,0,0,0,0,0,0,0,0,0,0,0,0,0,0,0,0,0,0,0,0,0,0,0,0,0,0,0,0,0,0,0,0,0,0,0,0,0,0,0,0,0,0,0,0,0,0,0,0,0,0,0,0,0,0,0,0,0,0,0,0,0,0,0,0,0,0,0,0,0,0,0,0,0,0,0,0,0,0,0,0,0,0,0,0,0,0,0,0,0,0,0,0,0,0,0,0,0,0,0,0,0,0,0,0,0,0,0,0,0,0,0,0,0,0,0,0,0,0,0,0,0,0,0,0,0,0,0,0,0,0,0,0,0,0,0,0,0,0,0,0,0,0,0,0,0,0,0,0,0,0,0,0,0,0,0,0,0,0,0,0,0,0,0,0,0,0,0,0,0,0,0,0,0,0,0,0,0,0,0,0,0,0,0,0,0,0,0,0,0,0,0,0,0,0,0,0,0,0,0,0,0,0,0,0,0,0,0,0,0,0,0,0,0,0,0,0,0,0,0,0,0,0,0,0,0,0,0,0,0,0,0,0,0,0,0,0,0,0,0,0,0,0,0,0,0,0,0,0,0,0,0,0,0,0,0,0,0,0,0,0,0,0,0,0,0,0,0,0,0,0,0,0,0,0,0,0,0,0,0,0,0,0,0,0,0,0,0,0,0,0,0,0,0,0,0,0,0,0,0,0,0,0,0,0,0,0,0,0,0,0,0,0,0,0,0,0,0,0,0,0,0,0,0,0,0,0,0,0,0,0,0,0,0,0,0,0,0,0,0,0,0,0,0,0,0,0,0,0,0,0,0,0,0,0,0,0,0,0,0,0,0,0,0,0,0,0,0,0,0,0,0,0,0,0,0,0,0,0,0,0,0,0,0,0,0,0,0,0,0,0,0,0,0,0,0,0,0,0,0,0,0,0,0,0,0,0,0,0,0,0,0,0,0,0,0,0,0,0,0,0,0,0,0,0,0,0,0,0,0,0,0,0,0,0,0],"trees":[{"base_weights":[8.475397E-2,7.0745087E-1,-7.3571765E-1,1.0792946E0,-1.1768743E-2,-3.4084186E-2,2.7062899E-2,1.3598247E0,-4.0560807E-3,-6.153357E-3,5.5763565E-2],"categories":[],"categories_nodes":[],"categories_segments":[],"categories_sizes":[],"default_left":[0,0,0,0,0,0,0,0,0,0,0],"id":0,"left_children":[1,3,5,7,-1,-1,-1,9,-1,-1,-1],"loss_changes":[3.400923E1,1.4631151E1,9.428718E0,9.350315E0,0E0,0E0,0E0,8.707737E0,0E0,0E0,0E0],"parents":[2147483647,0,0,1,1,2,2,3,3,7,7],"right_children":[2,4,6,8,-1,-1,-1,10,-1,-1,-1],"split_conditions":[1E0,1E0,1E0,1E0,-1.1768743E-2,-3.4084186E-2,2.7062899E-2,-7.661239E-1,-4.0560807E-3,-6.153357E-3,5.5763565E-2],"split_indices":[3,39,40,5,0,0,0,57,0,0,0],"split_type":[0,0,0,0,0,0,0,0,0,0,0],"sum_hessian":[6.631E1,3.770984E1,2.8600159E1,2.7752747E1,9.957092E0,2.4998657E1,3.6015015E0,2.245642E1,5.2963257E0,3.1777954E0,1.9278625E1],"tree_param":{"num_deleted":"0","num_feature":"61","num_nodes":"11","size_leaf_vector":"1"}},{"base_weights":[-9.132109E-4,5.947989E-1,-3.577439E-2,2.4620005E-1,5.5763565E-2,1.1649227E-4,5.5763565E-2],"categories":[],"categories_nodes":[],"categories_segments":[],"categories_sizes":[],"default_left":[0,0,0,0,0,0,0],"id":1,"left_children":[1,3,-1,5,-1,-1,-1],"loss_changes":[4.1957497E1,1.4813382E1,0E0,1.5638709E1,0E0,0E0,0E0],"parents":[2147483647,0,0,1,1,3,3],"right_children":[2,4,-1,6,-1,-1,-1],"split_conditions":[1E0,1E0,-3.577439E-2,1.6242375E0,5.5763565E-2,1.1649227E-4,5.5763565E-2],"split_indices":[3,13,0,55,0,0,0],"split_type":[0,0,0,0,0,0,0],"sum_hessian":[7.018681E1,4.401112E1,2.6175695E1,3.2451694E1,1.1559425E1,2.9653399E1,2.7982984E0],"tree_param":{"num_deleted":"0","num_feature":"61","num_nodes":"7","size_leaf_vector":"1"}},{"base_weights":[-1.482215E-1,-3.3887935E-1,4.7044676E-2,-4.3521193E-1,5.5763565E-2,-2.5513504E-2,1.2127315E-2],"categories":[],"categories_nodes":[],"categories_segments":[],"categories_sizes":[],"default_left":[0,0,0,0,0,0,0],"id":2,"left_children":[1,3,-1,5,-1,-1,-1],"loss_changes":[2.0194658E1,1.2579093E1,0E0,1.3217667E1,0E0,0E0,0E0],"parents":[2147483647,0,0,1,1,3,3],"right_children":[2,4,-1,6,-1,-1,-1],"split_conditions":[1.5054679E0,1E0,4.7044676E-2,1E0,5.5763565E-2,-2.5513504E-2,1.2127315E-2],"split_indices":[55,8,0,1,0,0,0],"split_type":[0,0,0,0,0,0,0],"sum_hessian":[7.2005844E1,6.379374E1,8.212109E0,6.100433E1,2.7894068E0,4.4878185E1,1.6126144E1],"tree_param":{"num_deleted":"0","num_feature":"61","num_nodes":"7","size_leaf_vector":"1"}},{"base_weights":[-2.8695837E-3,4.9966538E-1,-2.7077397E-2,5.0767966E-2,1.1124485E-1,-4.064564E-2,5.5763565E-2,-4.3018326E-1,2.7441744E-2,-2.6797988E-2,8.68711E-1,5.5763565E-2,-2.8380137E-2],"categories":[],"categories_nodes":[],"categories_segments":[],"categories_sizes":[],"default_left":[0,0,0,0,0,0,0,0,0,0,0,0,0],"id":3,"left_children":[1,3,-1,-1,5,7,-1,9,-1,-1,11,-1,-1],"loss_changes":[2.811594E1,1.5890478E1,0E0,0E0,8.602035E0,9.241171E0,0E0,8.295553E0,0E0,0E0,7.904491E0,0E0,0E0],"parents":[2147483647,0,0,1,1,4,4,5,5,7,7,10,10],"right_children":[2,4,-1,-1,6,8,-1,10,-1,-1,12,-1,-1],"split_conditions":[1E0,1E0,-2.7077397E-2,5.0767966E-2,1.631488E0,1E0,5.5763565E-2,1E0,2.7441744E-2,-2.6797988E-2,-4.8741925E-1,5.5763565E-2,-2.8380137E-2],"split_indices":[3,44,0,0,55,29,0,25,0,0,58,0,0],"split_type":[0,0,0,0,0,0,0,0,0,0,0,0,0],"sum_hessian":[7.388342E1,4.43712E1,2.9512218E1,1.306989E1,3.1301311E1,2.9086607E1,2.2147043E0,1.9667852E1,9.418756E0,1.5827808E1,3.840044E0,2.1422346E0,1.6978096E0],"tree_param":{"num_deleted":"0","num_feature":"61","num_nodes":"13","size_leaf_vector":"1"}},{"base_weights":[3.818492E-2,5.4383814E-1,-7.7212733E-1,-1.0057514E-2,9.4858485E-1,1.1858682E-2,-3.669103E-2,7.0830737E-3,1.408347E0,5.5763565E-2,-2.8492684E-2],"categories":[],"categories_nodes":[],"categories_segments":[],"categories_sizes":[],"default_left":[0,0,0,0,0,0,0,0,0,0,0],"id":4,"left_children":[1,3,5,-1,7,-1,-1,-1,9,-1,-1],"loss_changes":[2.9493555E1,1.483684E1,7.807781E0,0E0,1.0233088E1,0E0,0E0,0E0,9.414761E0,0E0,0E0],"parents":[2147483647,0,0,1,1,2,2,4,4,8,8],"right_children":[2,4,6,-1,8,-1,-1,-1,10,-1,-1],"split_conditions":[1E0,-6.0127985E-1,1E0,-1.0057514E-2,1E0,1.1858682E-2,-3.669103E-2,7.0830737E-3,1E0,5.5763565E-2,-2.8492684E-2],"split_indices":[3,54,41,0,21,0,0,0,34,0,0],"split_type":[0,0,0,0,0,0,0,0,0,0,0],"sum_hessian":[7.172323E1,4.419027E1,2.7532955E1,1.4552098E1,2.9638172E1,5.1460814E0,2.2386873E1,1.1327279E1,1.8310892E1,1.6609966E1,1.700927E0],"tree_param":{"num_deleted":"0","num_feature":"61","num_nodes":"11","size_leaf_vector":"1"}},{"base_weights":[-3.9386805E-3,5.4013556E-1,-2.8916705E-2,3.2064036E-2,1.2256843E0,-1.7521165E-1,5.5763565E-2,5.5479866E-2,-3.942539E-3,4.5603654E-1,-7.2873914E-1,-1.4357636E-2,5.5763565E-2,-3.7927013E-2,3.5917584E-2],"categories":[],"categories_nodes":[],"categories_segments":[],"categories_sizes":[],"default_left":[0,0,0,0,0,0,0,0,0,0,0,0,0,0,0],"id":5,"left_children":[1,3,-1,5,7,9,-1,-1,-1,11,13,-1,-1,-1,-1],"loss_changes":[3.2495583E1,1.54121275E1,0E0,1.0931799E1,8.237679E0,8.267793E0,0E0,0E0,0E0,1.27965555E1,7.3839808E0,0E0,0E0,0E0,0E0],"parents":[2147483647,0,0,1,1,3,3,4,4,5,5,9,9,10,10],"right_children":[2,4,-1,6,8,10,-1,-1,-1,12,14,-1,-1,-1,-1],"split_conditions":[1E0,7.669602E-2,-2.8916705E-2,1E0,1E0,-6.617329E-1,5.5763565E-2,5.5479866E-2,-3.942539E-3,1E0,1.1785966E0,-1.4357636E-2,5.5763565E-2,-3.7927013E-2,3.5917584E-2],"split_indices":[3,54,0,8,23,55,0,0,0,13,58,0,0,0,0],"split_type":[0,0,0,0,0,0,0,0,0,0,0,0,0,0,0],"sum_hessian":[7.393768E1,4.4140427E1,2.9797253E1,2.542635E1,1.8714079E1,2.3410105E1,2.0162446E0,1.5026227E1,3.6878529E0,1.0944946E1,1.24651575E1,6.781708E0,4.1632385E0,1.0500794E1,1.9643635E0],"tree_param":{"num_deleted":"0","num_feature":"61","num_nodes":"15","size_leaf_vector":"1"}},{"base_weights":[-5.675558E-2,2.921435E-1,-5.9424543E-1,1.4882367E-2,5.5763565E-2,1.885384E-2,-3.0687701E-2,2.7205218E-2,-4.205732E-1,-3.5197567E-2,1.6260605E-1,5.5763565E-2,-1.6571902E-2],"categories":[],"categories_nodes":[],"categories_segments":[],"categories_sizes":[],"default_left":[0,0,0,0,0,0,0,0,0,0,0,0,0],"id":6,"left_children":[1,3,5,7,-1,-1,-1,-1,9,-1,11,-1,-1],"loss_changes":[1.2958951E1,1.6288895E1,8.117253E0,1.146838E1,0E0,0E0,0E0,0E0,7.352559E0,0E0,1.0934365E1,0E0,0E0],"parents":[2147483647,0,0,1,1,2,2,3,3,8,8,10,10],"right_children":[2,4,6,8,-1,-1,-1,-1,10,-1,12,-1,-1],"split_conditions":[1E0,1E0,1E0,-7.504744E-1,5.5763565E-2,1.885384E-2,-3.0687701E-2,2.7205218E-2,-2.6229194E-1,-3.5197567E-2,-3.8656023E-1,5.5763565E-2,-1.6571902E-2],"split_indices":[3,38,41,58,0,0,0,0,54,0,55,0,0],"split_type":[0,0,0,0,0,0,0,0,0,0,0,0,0],"sum_hessian":[6.884466E1,4.177656E1,2.7068098E1,3.5035664E1,6.740901E0,5.135827E0,2.193227E1,1.2880487E1,2.2155174E1,1.1222367E1,1.0932807E1,3.0448234E0,7.8879833E0],"tree_param":{"num_deleted":"0","num_feature":"61","num_nodes":"13","size_leaf_vector":"1"}},{"base_weights":[2.870763E-2,4.798963E-1,-2.5217714E-2,-3.1506598E-3,4.2470444E-2],"categories":[],"categories_nodes":[],"categories_segments":[],"categories_sizes":[],"default_left":[0,0,0,0,0],"id":7,"left_children":[1,3,-1,-1,-1],"loss_changes":[2.5290112E1,1.9037062E1,0E0,0E0,0E0],"parents":[2147483647,0,0,1,1],"right_children":[2,4,-1,-1,-1],"split_conditions":[1E0,7.669602E-2,-2.5217714E-2,-3.1506598E-3,4.2470444E-2],"split_indices":[3,54,0,0,0],"split_type":[0,0,0,0,0],"sum_hessian":[7.6089554E1,4.7154858E1,2.8934696E1,2.6223116E1,2.0931742E1],"tree_param":{"num_deleted":"0","num_feature":"61","num_nodes":"5","size_leaf_vector":"1"}},{"base_weights":[-9.3452336E-4,3.1528372E-1,-6.020723E-1,1.9386415E-1,5.5763565E-2,-1.5855136E-3,-4.1935485E-2,3.4871332E-2,5.3496554E-2,-4.346055E-3,5.5763565E-2],"categories":[],"categories_nodes":[],"categories_segments":[],"categories_sizes":[],"default_left":[0,0,0,0,0,0,0,0,0,0,0],"id":8,"left_children":[1,3,5,7,-1,-1,-1,9,-1,-1,-1],"loss_changes":[1.3285228E1,7.3688035E0,7.6640606E0,8.717534E0,0E0,0E0,0E0,1.0339281E1,0E0,0E0,0E0],"parents":[2147483647,0,0,1,1,2,2,3,3,7,7],"right_children":[2,4,6,8,-1,-1,-1,10,-1,-1,-1],"split_conditions":[1E0,1E0,-1.3667907E-1,1.6242375E0,5.5763565E-2,-1.5855136E-3,-4.1935485E-2,1E0,5.3496554E-2,-4.346055E-3,5.5763565E-2],"split_indices":[3,8,58,55,0,0,0,4,0,0,0],"split_type":[0,0,0,0,0,0,0,0,0,0,0],"sum_hessian":[6.961954E1,4.565598E1,2.3963556E1,4.1986217E1,3.6697595E0,1.2191144E1,1.1772412E1,3.7531094E1,4.4551253E0,3.4605293E1,2.9258E0],"tree_param":{"num_deleted":"0","num_feature":"61","num_nodes":"11","size_leaf_vector":"1"}},{"base_weights":[6.788714E-2,3.6412454E-1,-6.068261E-1,5.4680416E-3,4.317232E-2,1.2380677E-2,-4.1269742E-2,-5.2855867E-3,5.0046153E-2],"categories":[],"categories_nodes":[],"categories_segments":[],"categories_sizes":[],"default_left":[0,0,0,0,0,0,0,0,0],"id":9,"left_children":[1,3,5,7,-1,-1,-1,-1,-1],"loss_changes":[1.4180014E1,1.4907716E1,1.1351715E1,7.454684E0,0E0,0E0,0E0,0E0,0E0],"parents":[2147483647,0,0,1,1,2,2,3,3],"right_children":[2,4,6,8,-1,-1,-1,-1,-1],"split_conditions":[1E0,1E0,-1.3667907E-1,1.8048087E0,4.317232E-2,1.2380677E-2,-4.1269742E-2,-5.2855867E-3,5.0046153E-2],"split_indices":[5,1,58,55,0,0,0,0,0],"split_type":[0,0,0,0,0,0,0,0,0],"sum_hessian":[7.067062E1,4.915016E1,2.1520464E1,3.4574776E1,1.4575387E1,7.8674235E0,1.365304E1,3.1245201E1,3.3295758E0],"tree_param":{"num_deleted":"0","num_feature":"61","num_nodes":"9","size_leaf_vector":"1"}},{"base_weights":[1.23778604E-1,4.941945E-1,-2.0901706E-2,-3.1481635E-2,6.788967E-1,-1.5752507E-2,8.786764E-1,7.7191656E-3,4.3360423E-2],"categories":[],"categories_nodes":[],"categories_segments":[],"categories_sizes":[],"default_left":[0,0,0,0,0,0,0,0,0],"id":10,"left_children":[1,3,-1,-1,5,-1,7,-1,-1],"loss_changes":[1.8328722E1,1.17155E1,0E0,0E0,9.10354E0,0E0,7.5861416E0,0E0,0E0],"parents":[2147483647,0,0,1,1,4,4,6,6],"right_children":[2,4,-1,-1,6,-1,8,-1,-1],"split_conditions":[1E0,-7.661239E-1,-2.0901706E-2,-3.1481635E-2,-7.707738E-1,-1.5752507E-2,1E0,7.7191656E-3,4.3360423E-2],"split_indices":[3,57,0,0,54,0,21,0,0],"split_type":[0,0,0,0,0,0,0,0,0],"sum_hessian":[6.957002E1,4.5711132E1,2.3858889E1,5.358238E0,4.0352894E1,6.0864534E0,3.426644E1,1.1558336E1,2.2708103E1],"tree_param":{"num_deleted":"0","num_feature":"61","num_nodes":"9","size_leaf_vector":"1"}},{"base_weights":[9.88901E-2,-1.657716E-1,7.9760534E-1,-9.210715E-3,5.5763565E-2,5.5763565E-2,1.9222072E-1,-1.4283628E-2,5.5763565E-2],"categories":[],"categories_nodes":[],"categories_segments":[],"categories_sizes":[],"default_left":[0,0,0,0,0,0,0,0,0],"id":11,"left_children":[1,3,5,-1,-1,-1,7,-1,-1],"loss_changes":[1.3644241E1,9.514136E0,1.0218254E1,0E0,0E0,0E0,1.0644999E1,0E0,0E0],"parents":[2147483647,0,0,1,1,2,2,6,6],"right_children":[2,4,6,-1,-1,-1,8,-1,-1],"split_conditions":[2.1730055E-1,1E0,-4.8741925E-1,-9.210715E-3,5.5763565E-2,5.5763565E-2,1E0,-1.4283628E-2,5.5763565E-2],"split_indices":[55,8,58,0,0,0,1,0,0],"split_type":[0,0,0,0,0,0,0,0,0],"sum_hessian":[7.3543945E1,5.340369E1,2.0140253E1,5.1096943E1,2.3067498E0,8.345617E0,1.1794637E1,8.528675E0,3.265961E0],"tree_param":{"num_deleted":"0","num_feature":"61","num_nodes":"9","size_leaf_vector":"1"}},{"base_weights":[-8.1547044E-2,1.7727867E-1,-2.8914282E-2,1.613583E-2,-5.1095396E-1,5.2396443E-2,-2.7295215E-2],"categories":[],"categories_nodes":[],"categories_segments":[],"categories_sizes":[],"default_left":[0,0,0,0,0,0,0],"id":12,"left_children":[1,3,-1,-1,5,-1,-1],"loss_changes":[1.3700373E1,1.0158638E1,0E0,0E0,7.8036585E0,0E0,0E0],"parents":[2147483647,0,0,1,1,4,4],"right_children":[2,4,-1,-1,6,-1,-1],"split_conditions":[1E0,1E0,-2.8914282E-2,1.613583E-2,-1.1012145E0,5.2396443E-2,-2.7295215E-2],"split_indices":[5,15,0,0,58,0,0],"split_type":[0,0,0,0,0,0,0],"sum_hessian":[7.25335E1,5.3560566E1,1.897293E1,3.833691E1,1.5223657E1,1.6583468E0,1.35653105E1],"tree_param":{"num_deleted":"0","num_feature":"61","num_nodes":"7","size_leaf_vector":"1"}},{"base_weights":[-8.559972E-2,2.7612165E-1,-2.8775344E-2,-3.424038E-2,4.757802E-1,2.1407439E-1,4.6383943E-2,7.5314575E-1,-2.6678497E-1,-1.3341666E-3,5.5763565E-2,-2.9129328E-2,2.7648168E-2],"categories":[],"categories_nodes":[],"categories_segments":[],"categories_sizes":[],"default_left":[0,0,0,0,0,0,0,0,0,0,0,0,0],"id":13,"left_children":[1,3,-1,-1,5,7,-1,9,11,-1,-1,-1,-1],"loss_changes":[1.8019346E1,1.1412762E1,0E0,0E0,8.515882E0,7.881853E0,0E0,1.2366094E1,9.260192E0,0E0,0E0,0E0,0E0],"parents":[2147483647,0,0,1,1,4,4,5,5,7,7,8,8],"right_children":[2,4,-1,-1,6,8,-1,10,12,-1,-1,-1,-1],"split_conditions":[1E0,-7.661239E-1,-2.8775344E-2,-3.424038E-2,1.0089129E0,-4.9048367E-1,4.6383943E-2,-4.317859E-1,1.879534E-1,-1.3341666E-3,5.5763565E-2,-2.9129328E-2,2.7648168E-2],"split_indices":[3,57,0,0,54,55,0,54,55,0,0,0,0],"split_type":[0,0,0,0,0,0,0,0,0,0,0,0,0],"sum_hessian":[6.900069E1,4.59608E1,2.3039886E1,6.3353786E0,3.9625423E1,3.0171753E1,9.45367E0,1.4195228E1,1.5976524E1,8.489113E0,5.7061143E0,1.048212E1,5.4944043E0],"tree_param":{"num_deleted":"0","num_feature":"61","num_nodes":"13","size_leaf_vector":"1"}},{"base_weights":[4.1683536E-2,4.6100256E-1,-2.8888403E-2,9.5840935E-3,4.658703E-2],"categories":[],"categories_nodes":[],"categories_segments":[],"categories_sizes":[],"default_left":[0,0,0,0,0],"id":14,"left_children":[1,3,-1,-1,-1],"loss_changes":[2.5365513E1,7.7006617E0,0E0,0E0,0E0],"parents":[2147483647,0,0,1,1],"right_children":[2,4,-1,-1,-1],"split_conditions":[1E0,1E0,-2.8888403E-2,9.5840935E-3,4.658703E-2],"split_indices":[3,38,0,0,0],"split_type":[0,0,0,0,0],"sum_hessian":[7.092114E1,4.752789E1,2.3393255E1,3.8802822E1,8.725066E0],"tree_param":{"num_deleted":"0","num_feature":"61","num_nodes":"5","size_leaf_vector":"1"}},{"base_weights":[5.0242856E-2,-3.5163692E-1,1.0375205E0,-2.3565257E-2,1.2614998E-1,5.033785E-2,-1.6613504E-2,4.041923E-2,-9.037534E-3],"categories":[],"categories_nodes":[],"categories_segments":[],"categories_sizes":[],"default_left":[0,0,0,0,0,0,0,0,0],"id":15,"left_children":[1,3,5,-1,7,-1,-1,-1,-1],"loss_changes":[2.836258E1,7.4788575E0,1.1597101E1,0E0,7.654095E0,0E0,0E0,0E0,0E0],"parents":[2147483647,0,0,1,1,2,2,4,4],"right_children":[2,4,6,-1,8,-1,-1,-1,-1],"split_conditions":[1E0,1E0,1E0,-2.3565257E-2,1E0,5.033785E-2,-1.6613504E-2,4.041923E-2,-9.037534E-3],"split_indices":[1,0,5,0,44,0,0,0,0],"split_type":[0,0,0,0,0,0,0,0,0],"sum_hessian":[7.123127E1,5.0677498E1,2.0553774E1,3.0805527E1,1.987197E1,1.6493668E1,4.0601053E0,5.3796883E0,1.4492281E1],"tree_param":{"num_deleted":"0","num_feature":"61","num_nodes":"9","size_leaf_vector":"1"}},{"base_weights":[5.2931774E-2,3.250651E-1,-2.300341E-2,1.2381433E-2,3.4745827E-2,-5.423885E-3,5.5763565E-2],"categories":[],"categories_nodes":[],"categories_segments":[],"categories_sizes":[],"default_left":[0,0,0,0,0,0,0],"id":16,"left_children":[1,3,-1,5,-1,-1,-1],"loss_changes":[1.3997283E1,1.0735938E1,0E0,1.1316712E1,0E0,0E0,0E0],"parents":[2147483647,0,0,1,1,3,3],"right_children":[2,4,-1,6,-1,-1,-1],"split_conditions":[1E0,1E0,-2.300341E-2,2.6241121E0,3.4745827E-2,-5.423885E-3,5.5763565E-2],"split_indices":[5,1,0,55,0,0,0],"split_type":[0,0,0,0,0,0,0],"sum_hessian":[7.358134E1,5.295643E1,2.0624907E1,3.5786247E1,1.7170181E1,3.318794E1,2.59831E0],"tree_param":{"num_deleted":"0","num_feature":"61","num_nodes":"7","size_leaf_vector":"1"}},{"base_weights":[3.5040963E-2,-6.874204E-2,5.5763565E-2,2.1206783E-1,-2.0913748E-2,1.1922221E-2,-4.3392755E-2],"categories":[],"categories_nodes":[],"categories_segments":[],"categories_sizes":[],"default_left":[0,0,0,0,0,0,0],"id":17,"left_children":[1,3,-1,5,-1,-1,-1],"loss_changes":[1.24519E1,9.807835E0,0E0,7.6410027E0,0E0,0E0,0E0],"parents":[2147483647,0,0,1,1,3,3],"right_children":[2,4,-1,6,-1,-1,-1],"split_conditions":[1E0,1E0,5.5763565E-2,1.6170219E0,-2.0913748E-2,1.1922221E-2,-4.3392755E-2],"split_indices":[8,3,0,58,0,0,0],"split_type":[0,0,0,0,0,0,0],"sum_hessian":[7.14204E1,6.7392006E1,4.028392E0,4.36937E1,2.3698309E1,4.0351074E1,3.3426259E0],"tree_param":{"num_deleted":"0","num_feature":"61","num_nodes":"7","size_leaf_vector":"1"}},{"base_weights":[8.941144E-2,-1.7541E-1,6.219332E-1,-1.123488E-2,5.5763565E-2,3.7400868E-2,-1.1105687E-2],"categories":[],"categories_nodes":[],"categories_segments":[],"categories_sizes":[],"default_left":[0,0,0,0,0,0,0],"id":18,"left_children":[1,3,5,-1,-1,-1,-1],"loss_changes":[9.689946E0,1.1362457E1,9.070953E0,0E0,0E0,0E0,0E0],"parents":[2147483647,0,0,1,1,2,2],"right_children":[2,4,6,-1,-1,-1,-1],"split_conditions":[1E0,2.6241121E0,1E0,-1.123488E-2,5.5763565E-2,3.7400868E-2,-1.1105687E-2],"split_indices":[1,55,12,0,0,0,0],"split_type":[0,0,0,0,0,0,0],"sum_hessian":[6.846418E1,4.57759E1,2.268828E1,4.2544067E1,3.231834E0,1.5585211E1,7.10307E0],"tree_param":{"num_deleted":"0","num_feature":"61","num_nodes":"7","size_leaf_vector":"1"}},{"base_weights":[2.836381E-2,-1.294389E-1,5.1094554E-2,1.9441667E-1,-2.829619E-2,-7.502227E-3,2.9872065E-2],"categories":[],"categories_nodes":[],"categories_segments":[],"categories_sizes":[],"default_left":[0,0,0,0,0,0,0],"id":19,"left_children":[1,3,-1,5,-1,-1,-1],"loss_changes":[1.4534066E1,1.2688769E1,0E0,1.0333198E1,0E0,0E0,0E0],"parents":[2147483647,0,0,1,1,3,3],"right_children":[2,4,-1,6,-1,-1,-1],"split_conditions":[1.5517328E0,1E0,5.1094554E-2,1E0,-2.829619E-2,-7.502227E-3,2.9872065E-2],"split_indices":[55,5,0,1,0,0,0],"split_type":[0,0,0,0,0,0,0],"sum_hessian":[6.547025E1,5.8938942E1,6.531313E0,3.963438E1,1.9304562E1,2.4355602E1,1.5278778E1],"tree_param":{"num_deleted":"0","num_feature":"61","num_nodes":"7","size_leaf_vector":"1"}},{"base_weights":[-2.2119556E-2,3.7929562E-1,-3.0555204E-2,6.509947E-1,-1.6162407E-2,5.610907E-4,9.8151636E-1,1.2390292E0,-1.938472E-1,-1.9681139E-2,5.227278E-2,4.9032014E-2,-5.1855583E-2],"categories":[],"categories_nodes":[],"categories_segments":[],"categories_sizes":[],"default_left":[0,0,0,0,0,0,0,0,0,0,0,0,0],"id":20,"left_children":[1,3,-1,5,-1,-1,7,9,11,-1,-1,-1,-1],"loss_changes":[2.4056917E1,1.1007287E1,0E0,7.6920185E0,0E0,0E0,7.328184E0,8.009045E0,8.975985E0,0E0,0E0,0E0,0E0],"parents":[2147483647,0,0,1,1,3,3,6,6,7,7,8,8],"right_children":[2,4,-1,6,-1,-1,8,10,12,-1,-1,-1,-1],"split_conditions":[1E0,1E0,-3.0555204E-2,3.1195646E-2,-1.6162407E-2,5.610907E-4,1E0,-7.661239E-1,1E0,-1.9681139E-2,5.227278E-2,4.9032014E-2,-5.1855583E-2],"split_indices":[3,39,0,56,0,0,23,57,32,0,0,0,0],"split_type":[0,0,0,0,0,0,0,0,0,0,0,0,0],"sum_hessian":[7.171665E1,4.8430717E1,2.3285934E1,3.65243E1,1.1906418E1,1.2545126E1,2.3979176E1,1.9666143E1,4.3130317E0,2.1604865E0,1.7505657E1,1.9148177E0,2.398214E0],"tree_param":{"num_deleted":"0","num_feature":"61","num_nodes":"13","size_leaf_vector":"1"}},{"base_weights":[4.6063643E-2,-3.3478108E-1,7.3542494E-1,8.073961E-3,-2.3128094E-2,-2.4100006E-2,3.451592E-2],"categories":[],"categories_nodes":[],"categories_segments":[],"categories_sizes":[],"default_left":[0,0,0,0,0,0,0],"id":21,"left_children":[1,3,5,-1,-1,-1,-1],"loss_changes":[1.7197855E1,7.405814E0,7.642974E0,0E0,0E0,0E0,0E0],"parents":[2147483647,0,0,1,1,2,2],"right_children":[2,4,6,-1,-1,-1,-1],"split_conditions":[1E0,-4.8741925E-1,1E0,8.073961E-3,-2.3128094E-2,-2.4100006E-2,3.451592E-2],"split_indices":[1,58,35,0,0,0,0],"split_type":[0,0,0,0,0,0,0],"sum_hessian":[6.524841E1,4.2066536E1,2.3181875E1,1.5055706E1,2.701083E1,3.2193344E0,1.996254E1],"tree_param":{"num_deleted":"0","num_feature":"61","num_nodes":"7","size_leaf_vector":"1"}},{"base_weights":[-3.1309135E-2,3.5281095E-1,-7.487812E-1,5.368108E-3,4.563128E-2,-3.2790307E-2,4.709539E-2],"categories":[],"categories_nodes":[],"categories_segments":[],"categories_sizes":[],"default_left":[0,0,0,0,0,0,0],"id":22,"left_children":[1,3,5,-1,-1,-1,-1],"loss_changes":[1.954174E1,8.621033E0,8.75801E0,0E0,0E0,0E0,0E0],"parents":[2147483647,0,0,1,1,2,2],"right_children":[2,4,6,-1,-1,-1,-1],"split_conditions":[1E0,1.0089129E0,1.5517328E0,5.368108E-3,4.563128E-2,-3.2790307E-2,4.709539E-2],"split_indices":[3,54,55,0,0,0,0],"split_type":[0,0,0,0,0,0,0],"sum_hessian":[7.064781E1,4.605078E1,2.4597033E1,3.7882744E1,8.168037E0,2.2805437E1,1.7915955E0],"tree_param":{"num_deleted":"0","num_feature":"61","num_nodes":"7","size_leaf_vector":"1"}},{"base_weights":[-7.993112E-2,2.3372282E-1,-2.759429E-2,1.8774977E-2,-2.3696454E-2],"categories":[],"categories_nodes":[],"categories_segments":[],"categories_sizes":[],"default_left":[0,0,0,0,0],"id":23,"left_children":[1,3,-1,-1,-1],"loss_changes":[1.5572371E1,1.2949863E1,0E0,0E0,0E0],"parents":[2147483647,0,0,1,1],"right_children":[2,4,-1,-1,-1],"split_conditions":[1E0,1E0,-2.759429E-2,1.8774977E-2,-2.3696454E-2],"split_indices":[3,15,0,0,0],"split_type":[0,0,0,0,0],"sum_hessian":[7.149729E1,4.9250267E1,2.2247023E1,3.7206882E1,1.2043385E1],"tree_param":{"num_deleted":"0","num_feature":"61","num_nodes":"5","size_leaf_vector":"1"}},{"base_weights":[4.1735694E-2,9.693268E-3,-2.1950707E-2],"categories":[],"categories_nodes":[],"categories_segments":[],"categories_sizes":[],"default_left":[0,0,0],"id":24,"left_children":[1,-1,-1],"loss_changes":[1.0534866E1,0E0,0E0],"parents":[2147483647,0,0],"right_children":[2,-1,-1],"split_conditions":[1E0,9.693268E-3,-2.1950707E-2],"split_indices":[15,0,0],"split_type":[0,0,0],"sum_hessian":[6.9743034E1,5.172259E1,1.8020441E1],"tree_param":{"num_deleted":"0","num_feature":"61","num_nodes":"3","size_leaf_vector":"1"}},{"base_weights":[-4.685113E-2,2.6146424E-1,-2.430873E-2,-1.7047605E-1,2.6914459E-2,1.64025E-2,-2.4260715E-2],"categories":[],"categories_nodes":[],"categories_segments":[],"categories_sizes":[],"default_left":[0,0,0,0,0,0,0],"id":25,"left_children":[1,3,-1,5,-1,-1,-1],"loss_changes":[1.339089E1,9.81115E0,0E0,7.924437E0,0E0,0E0,0E0],"parents":[2147483647,0,0,1,1,3,3],"right_children":[2,4,-1,6,-1,-1,-1],"split_conditions":[1E0,7.669602E-2,-2.430873E-2,-6.375647E-1,2.6914459E-2,1.64025E-2,-2.4260715E-2],"split_indices":[3,54,0,55,0,0,0],"split_type":[0,0,0,0,0,0,0],"sum_hessian":[6.833627E1,4.600244E1,2.233383E1,2.4522615E1,2.1479824E1,1.0958682E1,1.3563934E1],"tree_param":{"num_deleted":"0","num_feature":"61","num_nodes":"7","size_leaf_vector":"1"}},{"base_weights":[2.1982864E-2,1.1919896E-2,-2.1385768E-2],"categories":[],"categories_nodes":[],"categories_segments":[],"categories_sizes":[],"default_left":[0,0,0],"id":26,"left_children":[1,-1,-1],"loss_changes":[1.3151773E1,0E0,0E0],"parents":[2147483647,0,0],"right_children":[2,-1,-1],"split_conditions":[1E0,1.1919896E-2,-2.1385768E-2],"split_indices":[3,0,0],"split_type":[0,0,0],"sum_hessian":[6.781393E1,4.5183582E1,2.2630344E1],"tree_param":{"num_deleted":"0","num_feature":"61","num_nodes":"3","size_leaf_vector":"1"}},{"base_weights":[-1.2115402E-1,8.340251E-2,-2.723311E-2,2.3205379E-2,-6.3831815E-3],"categories":[],"categories_nodes":[],"categories_segments":[],"categories_sizes":[],"default_left":[0,0,0,0,0],"id":27,"left_children":[1,3,-1,-1,-1],"loss_changes":[8.93395E0,7.6816196E0,0E0,0E0,0E0],"parents":[2147483647,0,0,1,1],"right_children":[2,4,-1,-1,-1],"split_conditions":[1E0,1E0,-2.723311E-2,2.3205379E-2,-6.3831815E-3],"split_indices":[5,44,0,0,0],"split_type":[0,0,0,0,0],"sum_hessian":[6.794961E1,5.158127E1,1.636834E1,1.62719E1,3.530937E1],"tree_param":{"num_deleted":"0","num_feature":"61","num_nodes":"5","size_leaf_vector":"1"}},{"base_weights":[-8.721538E-2,-6.640873E-3,5.0893154E-2],"categories":[],"categories_nodes":[],"categories_segments":[],"categories_sizes":[],"default_left":[0,0,0],"id":28,"left_children":[1,-1,-1],"loss_changes":[1.040619E1,0E0,0E0],"parents":[2147483647,0,0],"right_children":[2,-1,-1],"split_conditions":[1E0,-6.640873E-3,5.0893154E-2],"split_indices":[8,0,0],"split_type":[0,0,0],"sum_hessian":[6.951548E1,6.535936E1,4.1561236E0],"tree_param":{"num_deleted":"0","num_feature":"61","num_nodes":"3","size_leaf_vector":"1"}},{"base_weights":[1.2127802E-1,-3.7296735E-2,3.3572122E-2,-3.44403E-2,1.3407387E-1,-3.8380744E-3,8.65237E-1,5.5763565E-2,-2.4213337E-3],"categories":[],"categories_nodes":[],"categories_segments":[],"categories_sizes":[],"default_left":[0,0,0,0,0,0,0,0,0],"id":29,"left_children":[1,3,-1,-1,5,-1,7,-1,-1],"loss_changes":[9.012783E0,9.268141E0,0E0,0E0,8.713012E0,0E0,8.255802E0,0E0,0E0],"parents":[2147483647,0,0,1,1,4,4,6,6],"right_children":[2,4,-1,-1,6,-1,8,-1,-1],"split_conditions":[1E0,-7.707738E-1,3.3572122E-2,-3.44403E-2,1E0,-3.8380744E-3,3.8691025E-2,5.5763565E-2,-2.4213337E-3],"split_indices":[26,54,0,0,13,0,58,0,0],"split_type":[0,0,0,0,0,0,0,0,0],"sum_hessian":[6.9287544E1,5.8128963E1,1.1158579E1,8.9919195E0,4.9137043E1,3.7013763E1,1.21232815E1,6.7910476E0,5.3322334E0],"tree_param":{"num_deleted":"0","num_feature":"61","num_nodes":"9","size_leaf_vector":"1"}},{"base_weights":[-2.1017555E-2,-1.9568345E-1,4.3878622E-2,-2.4402106E-2,1.03320315E-1,-6.3035707E-3,1.0440935E0,5.5763565E-2,-2.5047498E-2],"categories":[],"categories_nodes":[],"categories_segments":[],"categories_sizes":[],"default_left":[0,0,0,0,0,0,0,0,0],"id":30,"left_children":[1,3,-1,-1,5,-1,7,-1,-1],"loss_changes":[1.4860496E1,8.713045E0,0E0,0E0,9.796843E0,0E0,7.93764E0,0E0,0E0],"parents":[2147483647,0,0,1,1,4,4,6,6],"right_children":[2,4,-1,-1,6,-1,8,-1,-1],"split_conditions":[1.5517328E0,-5.165329E-1,4.3878622E-2,-2.4402106E-2,1E0,-6.3035707E-3,1E0,5.5763565E-2,-2.5047498E-2],"split_indices":[55,54,0,0,13,0,3,0,0],"split_type":[0,0,0,0,0,0,0,0,0],"sum_hessian":[6.787197E1,5.9632847E1,8.239124E0,2.2630934E1,3.700191E1,2.8596361E1,8.405551E0,6.47426E0,1.9312907E0],"tree_param":{"num_deleted":"0","num_feature":"61","num_nodes":"9","size_leaf_vector":"1"}},{"base_weights":[-5.0036885E-2,1.6099563E-1,-2.3063429E-2,-7.7527866E-4,3.4347318E-2],"categories":[],"categories_nodes":[],"categories_segments":[],"categories_sizes":[],"default_left":[0,0,0,0,0],"id":31,"left_children":[1,3,-1,-1,-1],"loss_changes":[8.904419E0,7.6553097E0,0E0,0E0,0E0],"parents":[2147483647,0,0,1,1],"right_children":[2,4,-1,-1,-1],"split_conditions":[1E0,1E0,-2.3063429E-2,-7.7527866E-4,3.4347318E-2],"split_indices":[15,26,0,0,0],"split_type":[0,0,0,0,0],"sum_hessian":[7.063693E1,5.2208035E1,1.8428898E1,4.259366E1,9.614376E0],"tree_param":{"num_deleted":"0","num_feature":"61","num_nodes":"5","size_leaf_vector":"1"}},{"base_weights":[5.5160534E-2],"categories":[],"categories_nodes":[],"categories_segments":[],"categories_sizes":[],"default_left":[0],"id":32,"left_children":[-1],"loss_changes":[0E0],"parents":[2147483647],"right_children":[-1],"split_conditions":[1.9718308E-3],"split_indices":[0],"split_type":[0],"sum_hessian":[7.100108E1],"tree_param":{"num_deleted":"0","num_feature":"61","num_nodes":"1","size_leaf_vector":"1"}},{"base_weights":[-4.8140068E-2],"categories":[],"categories_nodes":[],"categories_segments":[],"categories_sizes":[],"default_left":[0],"id":33,"left_children":[-1],"loss_changes":[0E0],"parents":[2147483647],"right_children":[-1],"split_conditions":[-1.7208692E-3],"split_indices":[0],"split_type":[0],"sum_hessian":[6.4833435E1],"tree_param":{"num_deleted":"0","num_feature":"61","num_nodes":"1","size_leaf_vector":"1"}},{"base_weights":[-3.2267958E-2],"categories":[],"categories_nodes":[],"categories_segments":[],"categories_sizes":[],"default_left":[0],"id":34,"left_children":[-1],"loss_changes":[0E0],"parents":[2147483647],"right_children":[-1],"split_conditions":[-1.1534869E-3],"split_indices":[0],"split_type":[0],"sum_hessian":[6.8741264E1],"tree_param":{"num_deleted":"0","num_feature":"61","num_nodes":"1","size_leaf_vector":"1"}},{"base_weights":[-3.8069293E-3,2.5721598E-1,-2.2204246E-2,3.3584636E-2,-7.5254537E-4],"categories":[],"categories_nodes":[],"categories_segments":[],"categories_sizes":[],"default_left":[0,0,0,0,0],"id":35,"left_children":[1,3,-1,-1,-1],"loss_changes":[1.0350316E1,8.574562E0,0E0,0E0,0E0],"parents":[2147483647,0,0,1,1],"right_children":[2,4,-1,-1,-1],"split_conditions":[1E0,1E0,-2.2204246E-2,3.3584636E-2,-7.5254537E-4],"split_indices":[5,44,0,0,0],"split_type":[0,0,0,0,0],"sum_hessian":[6.3958244E1,4.4998253E1,1.8959993E1,1.2955503E1,3.2042747E1],"tree_param":{"num_deleted":"0","num_feature":"61","num_nodes":"5","size_leaf_vector":"1"}},{"base_weights":[-1.20848995E-2],"categories":[],"categories_nodes":[],"categories_segments":[],"categories_sizes":[],"default_left":[0],"id":36,"left_children":[-1],"loss_changes":[0E0],"parents":[2147483647],"right_children":[-1],"split_conditions":[-4.3200047E-4],"split_indices":[0],"split_type":[0],"sum_hessian":[6.69299E1],"tree_param":{"num_deleted":"0","num_feature":"61","num_nodes":"1","size_leaf_vector":"1"}},{"base_weights":[1.7576899E-1,4.544154E-1,-1.6461255E-2,-1.0555715E-2,8.726651E-1,5.5763565E-2,1.804645E-2],"categories":[],"categories_nodes":[],"categories_segments":[],"categories_sizes":[],"default_left":[0,0,0,0,0,0,0],"id":37,"left_children":[1,3,-1,-1,5,-1,-1],"loss_changes":[1.2673597E1,1.56085825E1,0E0,0E0,9.116964E0,0E0,0E0],"parents":[2147483647,0,0,1,1,4,4],"right_children":[2,4,-1,-1,6,-1,-1],"split_conditions":[1E0,3.1195646E-2,-1.6461255E-2,-1.0555715E-2,-6.831391E-1,5.5763565E-2,1.804645E-2],"split_indices":[3,56,0,0,55,0,0],"split_type":[0,0,0,0,0,0,0],"sum_hessian":[7.120051E1,4.9542244E1,2.1658262E1,1.7751787E1,3.1790455E1,9.916689E0,2.1873766E1],"tree_param":{"num_deleted":"0","num_feature":"61","num_nodes":"7","size_leaf_vector":"1"}},{"base_weights":[1.4597625E-1,-4.716216E-2,4.6554998E-2,7.333787E-2,-5.0864626E-2,-2.091535E-1,2.2792485E-2,2.8253654E-2,-4.644219E-1,-2.1353032E-2,5.373968E-2],"categories":[],"categories_nodes":[],"categories_segments":[],"categories_sizes":[],"default_left":[0,0,0,0,0,0,0,0,0,0,0],"id":38,"left_children":[1,3,-1,5,-1,7,-1,-1,9,-1,-1],"loss_changes":[1.5140693E1,9.661737E0,0E0,8.560279E0,0E0,9.179521E0,0E0,0E0,7.590102E0,0E0,0E0],"parents":[2147483647,0,0,1,1,3,3,5,5,8,8],"right_children":[2,4,-1,6,-1,8,-1,-1,10,-1,-1],"split_conditions":[1.1740177E0,1E0,4.6554998E-2,1E0,-5.0864626E-2,1E0,2.2792485E-2,2.8253654E-2,1E0,-2.1353032E-2,5.373968E-2],"split_indices":[55,18,0,1,0,41,0,0,8,0,0],"split_type":[0,0,0,0,0,0,0,0,0,0,0],"sum_hessian":[6.7596825E1,5.8019577E1,9.577245E0,5.345006E1,4.569515E0,3.566575E1,1.7784313E1,7.2022195E0,2.846353E1,2.6742367E1,1.7211633E0],"tree_param":{"num_deleted":"0","num_feature":"61","num_nodes":"11","size_leaf_vector":"1"}},{"base_weights":[-1.731714E-1,-2.8762737E-1,5.0532527E-2,-4.5103934E-1,2.701449E-2,-7.3747995E-4,-3.5178456E-2],"categories":[],"categories_nodes":[],"categories_segments":[],"categories_sizes":[],"default_left":[0,0,0,0,0,0,0],"id":39,"left_children":[1,3,-1,5,-1,-1,-1],"loss_changes":[1.1373609E1,9.973812E0,0E0,1.1567358E1,0E0,0E0,0E0],"parents":[2147483647,0,0,1,1,3,3],"right_children":[2,4,-1,6,-1,-1,-1],"split_conditions":[1E0,1.0255556E0,5.0532527E-2,-1.3667907E-1,2.701449E-2,-7.3747995E-4,-3.5178456E-2],"split_indices":[8,55,0,58,0,0,0],"split_type":[0,0,0,0,0,0,0],"sum_hessian":[6.2206886E1,5.8115204E1,4.091682E0,5.0306778E1,7.808427E0,2.7905012E1,2.2401766E1],"tree_param":{"num_deleted":"0","num_feature":"61","num_nodes":"7","size_leaf_vector":"1"}},{"base_weights":[-1.4191046E-1,-8.268363E-3,5.4575983E-2],"categories":[],"categories_nodes":[],"categories_segments":[],"categories_sizes":[],"default_left":[0,0,0],"id":40,"left_children":[1,-1,-1],"loss_changes":[1.0222249E1,0E0,0E0],"parents":[2147483647,0,0],"right_children":[2,-1,-1],"split_conditions":[1E0,-8.268363E-3,5.4575983E-2],"split_indices":[8,0,0],"split_type":[0,0,0],"sum_hessian":[6.8092804E1,6.4730385E1,3.3624203E0],"tree_param":{"num_deleted":"0","num_feature":"61","num_nodes":"3","size_leaf_vector":"1"}},{"base_weights":[1.3331458E-1],"categories":[],"categories_nodes":[],"categories_segments":[],"categories_sizes":[],"default_left":[0],"id":41,"left_children":[-1],"loss_changes":[0E0],"parents":[2147483647],"right_children":[-1],"split_conditions":[4.7656135E-3],"split_indices":[0],"split_type":[0],"sum_hessian":[6.5831924E1],"tree_param":{"num_deleted":"0","num_feature":"61","num_nodes":"1","size_leaf_vector":"1"}},{"base_weights":[4.2817686E-3,-4.5660865E-2,1.3136235E-1,5.5763565E-2,6.2147144E-2,-7.354975E-3,1.8687537E-2],"categories":[],"categories_nodes":[],"categories_segments":[],"categories_sizes":[],"default_left":[0,0,0,0,0,0,0],"id":42,"left_children":[1,-1,3,-1,5,-1,-1],"loss_changes":[1.1044167E1,0E0,8.283136E0,0E0,7.411643E0,0E0,0E0],"parents":[2147483647,0,0,2,2,4,4],"right_children":[2,-1,4,-1,6,-1,-1],"split_conditions":[-1.0250148E0,-4.5660865E-2,-8.8339025E-1,5.5763565E-2,8.989938E-2,-7.354975E-3,1.8687537E-2],"split_indices":[54,0,55,0,55,0,0],"split_type":[0,0,0,0,0,0,0],"sum_hessian":[6.753984E1,5.99273E0,6.154711E1,1.7447716E0,5.980234E1,3.7849957E1,2.1952383E1],"tree_param":{"num_deleted":"0","num_feature":"61","num_nodes":"7","size_leaf_vector":"1"}},{"base_weights":[7.310453E-2,-9.802656E-4,5.1433746E-2],"categories":[],"categories_nodes":[],"categories_segments":[],"categories_sizes":[],"default_left":[0,0,0],"id":43,"left_children":[1,-1,-1],"loss_changes":[8.879832E0,0E0,0E0],"parents":[2147483647,0,0],"right_children":[2,-1,-1],"split_conditions":[1E0,-9.802656E-4,5.1433746E-2],"split_indices":[8,0,0],"split_type":[0,0,0],"sum_hessian":[6.444524E1,6.013499E1,4.310247E0],"tree_param":{"num_deleted":"0","num_feature":"61","num_nodes":"3","size_leaf_vector":"1"}},{"base_weights":[6.794085E-2,-1.921194E-1,7.399088E-1,-1.9278308E-2,4.0470514E-1,5.5763565E-2,4.515067E-3,-4.1367248E-2,2.441197E-2],"categories":[],"categories_nodes":[],"categories_segments":[],"categories_sizes":[],"default_left":[0,0,0,0,0,0,0,0,0],"id":44,"left_children":[1,3,5,-1,7,-1,-1,-1,-1],"loss_changes":[1.1933943E1,1.0231945E1,1.0551024E1,0E0,7.9980097E0,0E0,0E0,0E0,0E0],"parents":[2147483647,0,0,1,1,2,2,4,4],"right_children":[2,4,6,-1,8,-1,-1,-1,-1],"split_conditions":[2.352541E-1,1E0,-3.997342E-1,-1.9278308E-2,1E0,5.5763565E-2,4.515067E-3,-4.1367248E-2,2.441197E-2],"split_indices":[55,1,58,0,35,0,0,0,0],"split_type":[0,0,0,0,0,0,0,0,0],"sum_hessian":[6.8038795E1,4.9113438E1,1.8925362E1,3.106096E1,1.8052477E1,7.5367613E0,1.1388599E1,2.6703646E0,1.53821125E1],"tree_param":{"num_deleted":"0","num_feature":"61","num_nodes":"9","size_leaf_vector":"1"}},{"base_weights":[-5.8042114E-3,-9.727336E-3,1.7633455E-2],"categories":[],"categories_nodes":[],"categories_segments":[],"categories_sizes":[],"default_left":[0,0,0],"id":45,"left_children":[1,-1,-1],"loss_changes":[9.052135E0,0E0,0E0],"parents":[2147483647,0,0],"right_children":[2,-1,-1],"split_conditions":[1E0,-9.727336E-3,1.7633455E-2],"split_indices":[1,0,0],"split_type":[0,0,0],"sum_hessian":[6.7838875E1,4.427424E1,2.3564634E1],"tree_param":{"num_deleted":"0","num_feature":"61","num_nodes":"3","size_leaf_vector":"1"}},{"base_weights":[-5.280408E-2,8.764544E-3,-1.6510088E-2],"categories":[],"categories_nodes":[],"categories_segments":[],"categories_sizes":[],"default_left":[0,0,0],"id":46,"left_children":[1,-1,-1],"loss_changes":[8.350598E0,0E0,0E0],"parents":[2147483647,0,0],"right_children":[2,-1,-1],"split_conditions":[-4.899402E-2,8.764544E-3,-1.6510088E-2],"split_indices":[58,0,0],"split_type":[0,0,0],"sum_hessian":[6.824361E1,3.950622E1,2.8737381E1],"tree_param":{"num_deleted":"0","num_feature":"61","num_nodes":"3","size_leaf_vector":"1"}},{"base_weights":[1.14840865E-1],"categories":[],"categories_nodes":[],"categories_segments":[],"categories_sizes":[],"default_left":[0],"id":47,"left_children":[-1],"loss_changes":[0E0],"parents":[2147483647],"right_children":[-1],"split_conditions":[4.1052313E-3],"split_indices":[0],"split_type":[0],"sum_hessian":[6.990022E1],"tree_param":{"num_deleted":"0","num_feature":"61","num_nodes":"1","size_leaf_vector":"1"}},{"base_weights":[-5.0887987E-2,-1.2669425E-1,5.5763565E-2,2.769353E-3,-2.6722418E-2],"categories":[],"categories_nodes":[],"categories_segments":[],"categories_sizes":[],"default_left":[0,0,0,0,0],"id":48,"left_children":[1,3,-1,-1,-1],"loss_changes":[1.055511E1,8.6959915E0,0E0,0E0,0E0],"parents":[2147483647,0,0,1,1],"right_children":[2,4,-1,-1,-1],"split_conditions":[1E0,1E0,5.5763565E-2,2.769353E-3,-2.6722418E-2],"split_indices":[11,5,0,0,0],"split_type":[0,0,0,0,0],"sum_hessian":[7.080649E1,6.838738E1,2.4191082E0,5.1539803E1,1.6847578E1],"tree_param":{"num_deleted":"0","num_feature":"61","num_nodes":"5","size_leaf_vector":"1"}},{"base_weights":[1.2405383E-2],"categories":[],"categories_nodes":[],"categories_segments":[],"categories_sizes":[],"default_left":[0],"id":49,"left_children":[-1],"loss_changes":[0E0],"parents":[2147483647],"right_children":[-1],"split_conditions":[4.4345684E-4],"split_indices":[0],"split_type":[0],"sum_hessian":[6.670256E1],"tree_param":{"num_deleted":"0","num_feature":"61","num_nodes":"1","size_leaf_vector":"1"}},{"base_weights":[4.390631E-2],"categories":[],"categories_nodes":[],"categories_segments":[],"categories_sizes":[],"default_left":[0],"id":50,"left_children":[-1],"loss_changes":[0E0],"parents":[2147483647],"right_children":[-1],"split_conditions":[1.5695245E-3],"split_indices":[0],"split_type":[0],"sum_hessian":[6.534135E1],"tree_param":{"num_deleted":"0","num_feature":"61","num_nodes":"1","size_leaf_vector":"1"}},{"base_weights":[8.008429E-3],"categories":[],"categories_nodes":[],"categories_segments":[],"categories_sizes":[],"default_left":[0],"id":51,"left_children":[-1],"loss_changes":[0E0],"parents":[2147483647],"right_children":[-1],"split_conditions":[2.8627834E-4],"split_indices":[0],"split_type":[0],"sum_hessian":[6.970716E1],"tree_param":{"num_deleted":"0","num_feature":"61","num_nodes":"1","size_leaf_vector":"1"}},{"base_weights":[-2.1662155E-2,-4.5293886E-3,3.9262354E-2],"categories":[],"categories_nodes":[],"categories_segments":[],"categories_sizes":[],"default_left":[0,0,0],"id":52,"left_children":[1,-1,-1],"loss_changes":[8.0662565E0,0E0,0E0],"parents":[2147483647,0,0],"right_children":[2,-1,-1],"split_conditions":[1E0,-4.5293886E-3,3.9262354E-2],"split_indices":[8,0,0],"split_type":[0,0,0],"sum_hessian":[6.826765E1,6.2513615E1,5.7540307E0],"tree_param":{"num_deleted":"0","num_feature":"61","num_nodes":"3","size_leaf_vector":"1"}},{"base_weights":[4.7696296E-2,9.865073E-3,-2.2771137E-2],"categories":[],"categories_nodes":[],"categories_segments":[],"categories_sizes":[],"default_left":[0,0,0],"id":53,"left_children":[1,-1,-1],"loss_changes":[1.07190075E1,0E0,0E0],"parents":[2147483647,0,0],"right_children":[2,-1,-1],"split_conditions":[1E0,9.865073E-3,-2.2771137E-2],"split_indices":[5,0,0],"split_type":[0,0,0],"sum_hessian":[6.830203E1,5.128113E1,1.70209E1],"tree_param":{"num_deleted":"0","num_feature":"61","num_nodes":"3","size_leaf_vector":"1"}},{"base_weights":[3.4175497E-2,9.984163E-3,-1.7581556E-2],"categories":[],"categories_nodes":[],"categories_segments":[],"categories_sizes":[],"default_left":[0,0,0],"id":54,"left_children":[1,-1,-1],"loss_changes":[8.126811E0,0E0,0E0],"parents":[2147483647,0,0],"right_children":[2,-1,-1],"split_conditions":[1E0,9.984163E-3,-1.7581556E-2],"split_indices":[3,0,0],"split_type":[0,0,0],"sum_hessian":[6.2755444E1,4.284884E1,1.9906603E1],"tree_param":{"num_deleted":"0","num_feature":"61","num_nodes":"3","size_leaf_vector":"1"}},{"base_weights":[-1.3020205E-1,-1.2432714E-2,1.4502973E-2],"categories":[],"categories_nodes":[],"categories_segments":[],"categories_sizes":[],"default_left":[0,0,0],"id":55,"left_children":[1,-1,-1],"loss_changes":[7.9035964E0,0E0,0E0],"parents":[2147483647,0,0],"right_children":[2,-1,-1],"split_conditions":[2.352541E-1,-1.2432714E-2,1.4502973E-2],"split_indices":[55,0,0],"split_type":[0,0,0],"sum_hessian":[6.74849E1,4.80304E1,1.9454502E1],"tree_param":{"num_deleted":"0","num_feature":"61","num_nodes":"3","size_leaf_vector":"1"}},{"base_weights":[2.8695317E-2],"categories":[],"categories_nodes":[],"categories_segments":[],"categories_sizes":[],"default_left":[0],"id":56,"left_children":[-1],"loss_changes":[0E0],"parents":[2147483647],"right_children":[-1],"split_conditions":[1.0257752E-3],"split_indices":[0],"split_type":[0],"sum_hessian":[6.854329E1],"tree_param":{"num_deleted":"0","num_feature":"61","num_nodes":"1","size_leaf_vector":"1"}},{"base_weights":[2.1840865E-3,2.3749724E-1,-5.2831316E-1,-7.0725E-3,2.513659E-2,-3.2323312E-2,1.7838316E-2],"categories":[],"categories_nodes":[],"categories_segments":[],"categories_sizes":[],"default_left":[0,0,0,0,0,0,0],"id":57,"left_children":[1,3,5,-1,-1,-1,-1],"loss_changes":[8.087622E0,9.117029E0,7.7435026E0,0E0,0E0,0E0,0E0],"parents":[2147483647,0,0,1,1,2,2],"right_children":[2,4,6,-1,-1,-1,-1],"split_conditions":[2.1406113E-1,9.2249984E-1,9.623729E-1,-7.0725E-3,2.513659E-2,-3.2323312E-2,1.7838316E-2],"split_indices":[58,56,55,0,0,0,0],"split_type":[0,0,0,0,0,0,0],"sum_hessian":[6.45206E1,4.4744568E1,1.977603E1,2.315845E1,2.1586119E1,1.4490691E1,5.285339E0],"tree_param":{"num_deleted":"0","num_feature":"61","num_nodes":"7","size_leaf_vector":"1"}},{"base_weights":[3.1261563E-2,7.3530963E-3,-2.150626E-2],"categories":[],"categories_nodes":[],"categories_segments":[],"categories_sizes":[],"default_left":[0,0,0],"id":58,"left_children":[1,-1,-1],"loss_changes":[7.350003E0,0E0,0E0],"parents":[2147483647,0,0],"right_children":[2,-1,-1],"split_conditions":[6.524864E-1,7.3530963E-3,-2.150626E-2],"split_indices":[58,0,0],"split_type":[0,0,0],"sum_hessian":[6.629517E1,5.203781E1,1.4257363E1],"tree_param":{"num_deleted":"0","num_feature":"61","num_nodes":"3","size_leaf_vector":"1"}},{"base_weights":[-1.6407E-2],"categories":[],"categories_nodes":[],"categories_segments":[],"categories_sizes":[],"default_left":[0],"id":59,"left_children":[-1],"loss_changes":[0E0],"parents":[2147483647],"right_children":[-1],"split_conditions":[-5.865031E-4],"split_indices":[0],"split_type":[0],"sum_hessian":[6.832171E1],"tree_param":{"num_deleted":"0","num_feature":"61","num_nodes":"1","size_leaf_vector":"1"}},{"base_weights":[1.6674127E-2,6.847236E-1,-1.4309521E-1,-4.8876062E-2,3.5022486E-2,4.057569E-3,-2.6304154E-2],"categories":[],"categories_nodes":[],"categories_segments":[],"categories_sizes":[],"default_left":[0,0,0,0,0,0,0],"id":60,"left_children":[1,3,5,-1,-1,-1,-1],"loss_changes":[7.4357686E0,8.3036585E0,8.561178E0,0E0,0E0,0E0,0E0],"parents":[2147483647,0,0,1,1,2,2],"right_children":[2,4,6,-1,-1,-1,-1],"split_conditions":[1E0,-7.661239E-1,1E0,-4.8876062E-2,3.5022486E-2,4.057569E-3,-2.6304154E-2],"split_indices":[41,57,3,0,0,0,0],"split_type":[0,0,0,0,0,0,0],"sum_hessian":[6.938337E1,1.3317753E1,5.6065613E1,1.617853E0,1.16999E1,3.9192127E1,1.6873487E1],"tree_param":{"num_deleted":"0","num_feature":"61","num_nodes":"7","size_leaf_vector":"1"}},{"base_weights":[3.1072082E-2,3.3617708E-1,-1.2352832E-2,-2.84279E-2,1.9304095E-2],"categories":[],"categories_nodes":[],"categories_segments":[],"categories_sizes":[],"default_left":[0,0,0,0,0],"id":61,"left_children":[1,3,-1,-1,-1],"loss_changes":[8.068042E0,8.9977455E0,0E0,0E0,0E0],"parents":[2147483647,0,0,1,1],"right_children":[2,4,-1,-1,-1],"split_conditions":[-1.3667907E-1,-7.661239E-1,-1.2352832E-2,-2.84279E-2,1.9304095E-2],"split_indices":[58,57,0,0,0],"split_type":[0,0,0,0,0],"sum_hessian":[6.993906E1,3.8649475E1,3.1289577E1,5.844934E0,3.2804543E1],"tree_param":{"num_deleted":"0","num_feature":"61","num_nodes":"5","size_leaf_vector":"1"}},{"base_weights":[2.1212524E-2],"categories":[],"categories_nodes":[],"categories_segments":[],"categories_sizes":[],"default_left":[0],"id":62,"left_children":[-1],"loss_changes":[0E0],"parents":[2147483647],"right_children":[-1],"split_conditions":[7.5828686E-4],"split_indices":[0],"split_type":[0],"sum_hessian":[6.740482E1],"tree_param":{"num_deleted":"0","num_feature":"61","num_nodes":"1","size_leaf_vector":"1"}},{"base_weights":[7.26013E-2,1.1628144E-2,-2.020249E-2],"categories":[],"categories_nodes":[],"categories_segments":[],"categories_sizes":[],"default_left":[0,0,0],"id":63,"left_children":[1,-1,-1],"loss_changes":[1.0184972E1,0E0,0E0],"parents":[2147483647,0,0],"right_children":[2,-1,-1],"split_conditions":[3.894312E-1,1.1628144E-2,-2.020249E-2],"split_indices":[58,0,0],"split_type":[0,0,0],"sum_hessian":[6.292103E1,4.5110527E1,1.7810501E1],"tree_param":{"num_deleted":"0","num_feature":"61","num_nodes":"3","size_leaf_vector":"1"}},{"base_weights":[9.161233E-2,-2.434909E-1,1.6154759E-2,-1.5776346E-2,4.316293E-2],"categories":[],"categories_nodes":[],"categories_segments":[],"categories_sizes":[],"default_left":[0,0,0,0,0],"id":64,"left_children":[1,3,-1,-1,-1],"loss_changes":[7.6094875E0,9.443556E0,0E0,0E0,0E0],"parents":[2147483647,0,0,1,1],"right_children":[2,4,-1,-1,-1],"split_conditions":[9.2249984E-1,1E0,1.6154759E-2,-1.5776346E-2,4.316293E-2],"split_indices":[56,9,0,0,0],"split_type":[0,0,0,0,0],"sum_hessian":[6.2763683E1,3.2535675E1,3.022801E1,2.8706953E1,3.8287215E0],"tree_param":{"num_deleted":"0","num_feature":"61","num_nodes":"5","size_leaf_vector":"1"}},{"base_weights":[7.1858396E-3,1.0848123E-2,-1.5198819E-2],"categories":[],"categories_nodes":[],"categories_segments":[],"categories_sizes":[],"default_left":[0,0,0],"id":65,"left_children":[1,-1,-1],"loss_changes":[8.471063E0,0E0,0E0],"parents":[2147483647,0,0],"right_children":[2,-1,-1],"split_conditions":[-4.899402E-2,1.0848123E-2,-1.5198819E-2],"split_indices":[58,0,0],"split_type":[0,0,0],"sum_hessian":[6.5859634E1,3.9104515E1,2.6755121E1],"tree_param":{"num_deleted":"0","num_feature":"61","num_nodes":"3","size_leaf_vector":"1"}},{"base_weights":[-4.2119022E-2],"categories":[],"categories_nodes":[],"categories_segments":[],"categories_sizes":[],"default_left":[0],"id":66,"left_children":[-1],"loss_changes":[0E0],"parents":[2147483647],"right_children":[-1],"split_conditions":[-1.5056342E-3],"split_indices":[0],"split_type":[0],"sum_hessian":[6.41526E1],"tree_param":{"num_deleted":"0","num_feature":"61","num_nodes":"1","size_leaf_vector":"1"}},{"base_weights":[-1.8865423E-3,-3.3356547E-3,5.0226636E-2],"categories":[],"categories_nodes":[],"categories_segments":[],"categories_sizes":[],"default_left":[0,0,0],"id":67,"left_children":[1,-1,-1],"loss_changes":[7.929918E0,0E0,0E0],"parents":[2147483647,0,0],"right_children":[2,-1,-1],"split_conditions":[2.6241121E0,-3.3356547E-3,5.0226636E-2],"split_indices":[55,0,0],"split_type":[0,0,0],"sum_hessian":[6.137186E1,5.773442E1,3.637438E0],"tree_param":{"num_deleted":"0","num_feature":"61","num_nodes":"3","size_leaf_vector":"1"}},{"base_weights":[3.2584887E-2,1.0231435E-2,-2.042803E-2],"categories":[],"categories_nodes":[],"categories_segments":[],"categories_sizes":[],"default_left":[0,0,0],"id":68,"left_children":[1,-1,-1],"loss_changes":[1.021031E1,0E0,0E0],"parents":[2147483647,0,0],"right_children":[2,-1,-1],"split_conditions":[1E0,1.0231435E-2,-2.042803E-2],"split_indices":[3,0,0],"split_type":[0,0,0],"sum_hessian":[6.6372856E1,4.6792694E1,1.9580162E1],"tree_param":{"num_deleted":"0","num_feature":"61","num_nodes":"3","size_leaf_vector":"1"}},{"base_weights":[-8.97856E-2],"categories":[],"categories_nodes":[],"categories_segments":[],"categories_sizes":[],"default_left":[0],"id":69,"left_children":[-1],"loss_changes":[0E0],"parents":[2147483647],"right_children":[-1],"split_conditions":[-3.2095774E-3],"split_indices":[0],"split_type":[0],"sum_hessian":[6.744802E1],"tree_param":{"num_deleted":"0","num_feature":"61","num_nodes":"1","size_leaf_vector":"1"}},{"base_weights":[-1.0890284E-1],"categories":[],"categories_nodes":[],"categories_segments":[],"categories_sizes":[],"default_left":[0],"id":70,"left_children":[-1],"loss_changes":[0E0],"parents":[2147483647],"right_children":[-1],"split_conditions":[-3.892964E-3],"split_indices":[0],"split_type":[0],"sum_hessian":[6.1205994E1],"tree_param":{"num_deleted":"0","num_feature":"61","num_nodes":"1","size_leaf_vector":"1"}},{"base_weights":[-1.1280011E-2],"categories":[],"categories_nodes":[],"categories_segments":[],"categories_sizes":[],"default_left":[0],"id":71,"left_children":[-1],"loss_changes":[0E0],"parents":[2147483647],"right_children":[-1],"split_conditions":[-4.0322804E-4],"split_indices":[0],"split_type":[0],"sum_hessian":[6.510723E1],"tree_param":{"num_deleted":"0","num_feature":"61","num_nodes":"1","size_leaf_vector":"1"}},{"base_weights":[9.299387E-2,-3.6119495E-3,6.4609826E-1,-5.066959E-3,4.176758E-2],"categories":[],"categories_nodes":[],"categories_segments":[],"categories_sizes":[],"default_left":[0,0,0,0,0],"id":72,"left_children":[1,-1,3,-1,-1],"loss_changes":[7.3802147E0,0E0,7.3706694E0,0E0,0E0],"parents":[2147483647,0,0,2,2],"right_children":[2,-1,4,-1,-1],"split_conditions":[4.1568398E-1,-3.6119495E-3,1E0,-5.066959E-3,4.176758E-2],"split_indices":[54,0,21,0,0],"split_type":[0,0,0,0,0],"sum_hessian":[6.8529E1,5.080114E1,1.772786E1,7.1005464E0,1.0627314E1],"tree_param":{"num_deleted":"0","num_feature":"61","num_nodes":"5","size_leaf_vector":"1"}},{"base_weights":[-3.9368857E-2],"categories":[],"categories_nodes":[],"categories_segments":[],"categories_sizes":[],"default_left":[0],"id":73,"left_children":[-1],"loss_changes":[0E0],"parents":[2147483647],"right_children":[-1],"split_conditions":[-1.4073236E-3],"split_indices":[0],"split_type":[0],"sum_hessian":[6.747405E1],"tree_param":{"num_deleted":"0","num_feature":"61","num_nodes":"1","size_leaf_vector":"1"}},{"base_weights":[2.0857991E-1,1.0374638E-2,9.8268586E-1,-3.0944631E-3,5.5763565E-2,4.907046E-2,-2.229585E-2],"categories":[],"categories_nodes":[],"categories_segments":[],"categories_sizes":[],"default_left":[0,0,0,0,0,0,0],"id":74,"left_children":[1,3,5,-1,-1,-1,-1],"loss_changes":[9.738511E0,9.926421E0,8.214034E0,0E0,0E0,0E0,0E0],"parents":[2147483647,0,0,1,1,2,2],"right_children":[2,4,6,-1,-1,-1,-1],"split_conditions":[1.0089129E0,1E0,2.4405987E0,-3.0944631E-3,5.5763565E-2,4.907046E-2,-2.229585E-2],"split_indices":[54,11,60,0,0,0,0],"split_type":[0,0,0,0,0,0,0],"sum_hessian":[6.334915E1,5.053526E1,1.2813893E1,4.8509613E1,2.0256436E0,1.0325931E1,2.4879627E0],"tree_param":{"num_deleted":"0","num_feature":"61","num_nodes":"7","size_leaf_vector":"1"}},{"base_weights":[-8.122586E-2],"categories":[],"categories_nodes":[],"categories_segments":[],"categories_sizes":[],"default_left":[0],"id":75,"left_children":[-1],"loss_changes":[0E0],"parents":[2147483647],"right_children":[-1],"split_conditions":[-2.9035911E-3],"split_indices":[0],"split_type":[0],"sum_hessian":[6.3172253E1],"tree_param":{"num_deleted":"0","num_feature":"61","num_nodes":"1","size_leaf_vector":"1"}},{"base_weights":[6.470789E-2],"categories":[],"categories_nodes":[],"categories_segments":[],"categories_sizes":[],"default_left":[0],"id":76,"left_children":[-1],"loss_changes":[0E0],"parents":[2147483647],"right_children":[-1],"split_conditions":[2.3131212E-3],"split_indices":[0],"split_type":[0],"sum_hessian":[6.554448E1],"tree_param":{"num_deleted":"0","num_feature":"61","num_nodes":"1","size_leaf_vector":"1"}},{"base_weights":[-1.4478399E-2],"categories":[],"categories_nodes":[],"categories_segments":[],"categories_sizes":[],"default_left":[0],"id":77,"left_children":[-1],"loss_changes":[0E0],"parents":[2147483647],"right_children":[-1],"split_conditions":[-5.175612E-4],"split_indices":[0],"split_type":[0],"sum_hessian":[6.5796684E1],"tree_param":{"num_deleted":"0","num_feature":"61","num_nodes":"1","size_leaf_vector":"1"}},{"base_weights":[-7.923725E-2,-9.815653E-3,8.796049E-1,4.689596E-2,-2.6718993E-2],"categories":[],"categories_nodes":[],"categories_segments":[],"categories_sizes":[],"default_left":[0,0,0,0,0],"id":78,"left_children":[1,-1,3,-1,-1],"loss_changes":[1.2290686E1,0E0,7.934289E0,0E0,0E0],"parents":[2147483647,0,0,2,2],"right_children":[2,-1,4,-1,-1],"split_conditions":[1E0,-9.815653E-3,1E0,4.689596E-2,-2.6718993E-2],"split_indices":[38,0,3,0,0],"split_type":[0,0,0,0,0],"sum_hessian":[6.5320465E1,5.43385E1,1.0981966E1,8.696406E0,2.2855597E0],"tree_param":{"num_deleted":"0","num_feature":"61","num_nodes":"5","size_leaf_vector":"1"}},{"base_weights":[-4.4932142E-2],"categories":[],"categories_nodes":[],"categories_segments":[],"categories_sizes":[],"default_left":[0],"id":79,"left_children":[-1],"loss_changes":[0E0],"parents":[2147483647],"right_children":[-1],"split_conditions":[-1.6061951E-3],"split_indices":[0],"split_type":[0],"sum_hessian":[6.3027943E1],"tree_param":{"num_deleted":"0","num_feature":"61","num_nodes":"1","size_leaf_vector":"1"}},{"base_weights":[1.1842446E-1],"categories":[],"categories_nodes":[],"categories_segments":[],"categories_sizes":[],"default_left":[0],"id":80,"left_children":[-1],"loss_changes":[0E0],"parents":[2147483647],"right_children":[-1],"split_conditions":[4.2333347E-3],"split_indices":[0],"split_type":[0],"sum_hessian":[6.7818016E1],"tree_param":{"num_deleted":"0","num_feature":"61","num_nodes":"1","size_leaf_vector":"1"}},{"base_weights":[-1.06245756E-1],"categories":[],"categories_nodes":[],"categories_segments":[],"categories_sizes":[],"default_left":[0],"id":81,"left_children":[-1],"loss_changes":[0E0],"parents":[2147483647],"right_children":[-1],"split_conditions":[-3.7979807E-3],"split_indices":[0],"split_type":[0],"sum_hessian":[6.397857E1],"tree_param":{"num_deleted":"0","num_feature":"61","num_nodes":"1","size_leaf_vector":"1"}},{"base_weights":[-4.716189E-2,-5.2906717E-3,4.232775E-2],"categories":[],"categories_nodes":[],"categories_segments":[],"categories_sizes":[],"default_left":[0,0,0],"id":82,"left_children":[1,-1,-1],"loss_changes":[7.66992E0,0E0,0E0],"parents":[2147483647,0,0],"right_children":[2,-1,-1],"split_conditions":[1E0,-5.2906717E-3,4.232775E-2],"split_indices":[4,0,0],"split_type":[0,0,0],"sum_hessian":[6.1452194E1,5.6900055E1,4.5521417E0],"tree_param":{"num_deleted":"0","num_feature":"61","num_nodes":"3","size_leaf_vector":"1"}},{"base_weights":[2.1127025E-2],"categories":[],"categories_nodes":[],"categories_segments":[],"categories_sizes":[],"default_left":[0],"id":83,"left_children":[-1],"loss_changes":[0E0],"parents":[2147483647],"right_children":[-1],"split_conditions":[7.552305E-4],"split_indices":[0],"split_type":[0],"sum_hessian":[6.716365E1],"tree_param":{"num_deleted":"0","num_feature":"61","num_nodes":"1","size_leaf_vector":"1"}},{"base_weights":[-5.8912627E-2],"categories":[],"categories_nodes":[],"categories_segments":[],"categories_sizes":[],"default_left":[0],"id":84,"left_children":[-1],"loss_changes":[0E0],"parents":[2147483647],"right_children":[-1],"split_conditions":[-2.1059574E-3],"split_indices":[0],"split_type":[0],"sum_hessian":[6.1916637E1],"tree_param":{"num_deleted":"0","num_feature":"61","num_nodes":"1","size_leaf_vector":"1"}},{"base_weights":[1.8199053E-2,-6.682146E-3,2.8365701E-2],"categories":[],"categories_nodes":[],"categories_segments":[],"categories_sizes":[],"default_left":[0,0,0],"id":85,"left_children":[1,-1,-1],"loss_changes":[1.0468474E1,0E0,0E0],"parents":[2147483647,0,0],"right_children":[2,-1,-1],"split_conditions":[1.0089129E0,-6.682146E-3,2.8365701E-2],"split_indices":[54,0,0],"split_type":[0,0,0],"sum_hessian":[6.555033E1,5.190554E1,1.3644789E1],"tree_param":{"num_deleted":"0","num_feature":"61","num_nodes":"3","size_leaf_vector":"1"}},{"base_weights":[-5.4164592E-2],"categories":[],"categories_nodes":[],"categories_segments":[],"categories_sizes":[],"default_left":[0],"id":86,"left_children":[-1],"loss_changes":[0E0],"parents":[2147483647],"right_children":[-1],"split_conditions":[-1.9362287E-3],"split_indices":[0],"split_type":[0],"sum_hessian":[6.2182816E1],"tree_param":{"num_deleted":"0","num_feature":"61","num_nodes":"1","size_leaf_vector":"1"}},{"base_weights":[-1.8388376E-2,2.584987E-2,-6.070348E-3],"categories":[],"categories_nodes":[],"categories_segments":[],"categories_sizes":[],"default_left":[0,0,0],"id":87,"left_children":[1,-1,-1],"loss_changes":[7.5702953E0,0E0,0E0],"parents":[2147483647,0,0],"right_children":[2,-1,-1],"split_conditions":[-8.3815944E-1,2.584987E-2,-6.070348E-3],"split_indices":[58,0,0],"split_type":[0,0,0],"sum_hessian":[6.714098E1,1.1305756E1,5.5835228E1],"tree_param":{"num_deleted":"0","num_feature":"61","num_nodes":"3","size_leaf_vector":"1"}},{"base_weights":[-4.100788E-2,6.293255E-3,-2.1241717E-2],"categories":[],"categories_nodes":[],"categories_segments":[],"categories_sizes":[],"default_left":[0,0,0],"id":88,"left_children":[1,-1,-1],"loss_changes":[7.8053527E0,0E0,0E0],"parents":[2147483647,0,0],"right_children":[2,-1,-1],"split_conditions":[1E0,6.293255E-3,-2.1241717E-2],"split_indices":[5,0,0],"split_type":[0,0,0],"sum_hessian":[6.4736305E1,4.6549683E1,1.8186625E1],"tree_param":{"num_deleted":"0","num_feature":"61","num_nodes":"3","size_leaf_vector":"1"}},{"base_weights":[-1.0443759E-1],"categories":[],"categories_nodes":[],"categories_segments":[],"categories_sizes":[],"default_left":[0],"id":89,"left_children":[-1],"loss_changes":[0E0],"parents":[2147483647],"right_children":[-1],"split_conditions":[-3.7333441E-3],"split_indices":[0],"split_type":[0],"sum_hessian":[6.3812653E1],"tree_param":{"num_deleted":"0","num_feature":"61","num_nodes":"1","size_leaf_vector":"1"}},{"base_weights":[8.074091E-2,2.9891118E-2,-3.080625E-3],"categories":[],"categories_nodes":[],"categories_segments":[],"categories_sizes":[],"default_left":[0,0,0],"id":90,"left_children":[1,-1,-1],"loss_changes":[8.08937E0,0E0,0E0],"parents":[2147483647,0,0],"right_children":[2,-1,-1],"split_conditions":[1E0,2.9891118E-2,-3.080625E-3],"split_indices":[41,0,0],"split_type":[0,0,0],"sum_hessian":[6.391278E1,1.148167E1,5.243111E1],"tree_param":{"num_deleted":"0","num_feature":"61","num_nodes":"3","size_leaf_vector":"1"}},{"base_weights":[-5.38126E-3],"categories":[],"categories_nodes":[],"categories_segments":[],"categories_sizes":[],"default_left":[0],"id":91,"left_children":[-1],"loss_changes":[0E0],"parents":[2147483647],"right_children":[-1],"split_conditions":[-1.923646E-4],"split_indices":[0],"split_type":[0],"sum_hessian":[6.3992374E1],"tree_param":{"num_deleted":"0","num_feature":"61","num_nodes":"1","size_leaf_vector":"1"}},{"base_weights":[-9.8371334E-2],"categories":[],"categories_nodes":[],"categories_segments":[],"categories_sizes":[],"default_left":[0],"id":92,"left_children":[-1],"loss_changes":[0E0],"parents":[2147483647],"right_children":[-1],"split_conditions":[-3.516493E-3],"split_indices":[0],"split_type":[0],"sum_hessian":[6.3527218E1],"tree_param":{"num_deleted":"0","num_feature":"61","num_nodes":"1","size_leaf_vector":"1"}},{"base_weights":[-6.198745E-2],"categories":[],"categories_nodes":[],"categories_segments":[],"categories_sizes":[],"default_left":[0],"id":93,"left_children":[-1],"loss_changes":[0E0],"parents":[2147483647],"right_children":[-1],"split_conditions":[-2.2158735E-3],"split_indices":[0],"split_type":[0],"sum_hessian":[6.6880936E1],"tree_param":{"num_deleted":"0","num_feature":"61","num_nodes":"1","size_leaf_vector":"1"}},{"base_weights":[1.688793E-1],"categories":[],"categories_nodes":[],"categories_segments":[],"categories_sizes":[],"default_left":[0],"id":94,"left_children":[-1],"loss_changes":[0E0],"parents":[2147483647],"right_children":[-1],"split_conditions":[6.0369503E-3],"split_indices":[0],"split_type":[0],"sum_hessian":[6.666535E1],"tree_param":{"num_deleted":"0","num_feature":"61","num_nodes":"1","size_leaf_vector":"1"}},{"base_weights":[8.494655E-2],"categories":[],"categories_nodes":[],"categories_segments":[],"categories_sizes":[],"default_left":[0],"id":95,"left_children":[-1],"loss_changes":[0E0],"parents":[2147483647],"right_children":[-1],"split_conditions":[3.0365954E-3],"split_indices":[0],"split_type":[0],"sum_hessian":[6.4797356E1],"tree_param":{"num_deleted":"0","num_feature":"61","num_nodes":"1","size_leaf_vector":"1"}},{"base_weights":[-7.153377E-2,-1.0407688E-2,2.2453329E-2],"categories":[],"categories_nodes":[],"categories_segments":[],"categories_sizes":[],"default_left":[0,0,0],"id":96,"left_children":[1,-1,-1],"loss_changes":[9.574305E0,0E0,0E0],"parents":[2147483647,0,0],"right_children":[2,-1,-1],"split_conditions":[1E0,-1.0407688E-2,2.2453329E-2],"split_indices":[13,0,0],"split_type":[0,0,0],"sum_hessian":[6.2024887E1,4.7263332E1,1.4761556E1],"tree_param":{"num_deleted":"0","num_feature":"61","num_nodes":"3","size_leaf_vector":"1"}},{"base_weights":[-1.7217559E-1,1.242129E-2,-1.8226814E-2],"categories":[],"categories_nodes":[],"categories_segments":[],"categories_sizes":[],"default_left":[0,0,0],"id":97,"left_children":[1,-1,-1],"loss_changes":[1.0284303E1,0E0,0E0],"parents":[2147483647,0,0],"right_children":[2,-1,-1],"split_conditions":[-4.8741925E-1,1.242129E-2,-1.8226814E-2],"split_indices":[58,0,0],"split_type":[0,0,0],"sum_hessian":[5.833896E1,2.2974855E1,3.53641E1],"tree_param":{"num_deleted":"0","num_feature":"61","num_nodes":"3","size_leaf_vector":"1"}},{"base_weights":[-3.664744E-2,-1.434551E-2,1.2606629E-2],"categories":[],"categories_nodes":[],"categories_segments":[],"categories_sizes":[],"default_left":[0,0,0],"id":98,"left_children":[1,-1,-1],"loss_changes":[8.348106E0,0E0,0E0],"parents":[2147483647,0,0],"right_children":[2,-1,-1],"split_conditions":[9.2249984E-1,-1.434551E-2,1.2606629E-2],"split_indices":[56,0,0],"split_type":[0,0,0],"sum_hessian":[5.8536854E1,3.0226852E1,2.8310001E1],"tree_param":{"num_deleted":"0","num_feature":"61","num_nodes":"3","size_leaf_vector":"1"}},{"base_weights":[-2.0086633E-2],"categories":[],"categories_nodes":[],"categories_segments":[],"categories_sizes":[],"default_left":[0],"id":99,"left_children":[-1],"loss_changes":[0E0],"parents":[2147483647],"right_children":[-1],"split_conditions":[-7.1803946E-4],"split_indices":[0],"split_type":[0],"sum_hessian":[6.85721E1],"tree_param":{"num_deleted":"0","num_feature":"61","num_nodes":"1","size_leaf_vector":"1"}},{"base_weights":[8.3748035E-2,-8.847241E-3,1.6509766E-2],"categories":[],"categories_nodes":[],"categories_segments":[],"categories_sizes":[],"default_left":[0,0,0],"id":100,"left_children":[1,-1,-1],"loss_changes":[8.530055E0,0E0,0E0],"parents":[2147483647,0,0],"right_children":[2,-1,-1],"split_conditions":[9.2249984E-1,-8.847241E-3,1.6509766E-2],"split_indices":[56,0,0],"split_type":[0,0,0],"sum_hessian":[6.784747E1,3.6183205E1,3.166427E1],"tree_param":{"num_deleted":"0","num_feature":"61","num_nodes":"3","size_leaf_vector":"1"}},{"base_weights":[-2.9944222E-2],"categories":[],"categories_nodes":[],"categories_segments":[],"categories_sizes":[],"default_left":[0],"id":101,"left_children":[-1],"loss_changes":[0E0],"parents":[2147483647],"right_children":[-1],"split_conditions":[-1.07042E-3],"split_indices":[0],"split_type":[0],"sum_hessian":[6.166832E1],"tree_param":{"num_deleted":"0","num_feature":"61","num_nodes":"1","size_leaf_vector":"1"}},{"base_weights":[1.3757902E-1],"categories":[],"categories_nodes":[],"categories_segments":[],"categories_sizes":[],"default_left":[0],"id":102,"left_children":[-1],"loss_changes":[0E0],"parents":[2147483647],"right_children":[-1],"split_conditions":[4.918055E-3],"split_indices":[0],"split_type":[0],"sum_hessian":[6.268881E1],"tree_param":{"num_deleted":"0","num_feature":"61","num_nodes":"1","size_leaf_vector":"1"}},{"base_weights":[3.2624668E-3],"categories":[],"categories_nodes":[],"categories_segments":[],"categories_sizes":[],"default_left":[0],"id":103,"left_children":[-1],"loss_changes":[0E0],"parents":[2147483647],"right_children":[-1],"split_conditions":[1.1662382E-4],"split_indices":[0],"split_type":[0],"sum_hessian":[6.505286E1],"tree_param":{"num_deleted":"0","num_feature":"61","num_nodes":"1","size_leaf_vector":"1"}},{"base_weights":[4.2779054E-2],"categories":[],"categories_nodes":[],"categories_segments":[],"categories_sizes":[],"default_left":[0],"id":104,"left_children":[-1],"loss_changes":[0E0],"parents":[2147483647],"right_children":[-1],"split_conditions":[1.5292284E-3],"split_indices":[0],"split_type":[0],"sum_hessian":[6.5275856E1],"tree_param":{"num_deleted":"0","num_feature":"61","num_nodes":"1","size_leaf_vector":"1"}},{"base_weights":[7.598531E-2],"categories":[],"categories_nodes":[],"categories_segments":[],"categories_sizes":[],"default_left":[0],"id":105,"left_children":[-1],"loss_changes":[0E0],"parents":[2147483647],"right_children":[-1],"split_conditions":[2.7162568E-3],"split_indices":[0],"split_type":[0],"sum_hessian":[6.578036E1],"tree_param":{"num_deleted":"0","num_feature":"61","num_nodes":"1","size_leaf_vector":"1"}},{"base_weights":[1.922896E-2,-1.09219246E-1,3.9971996E-2,1.8884719E-4,-4.99152E-2],"categories":[],"categories_nodes":[],"categories_segments":[],"categories_sizes":[],"default_left":[0,0,0,0,0],"id":106,"left_children":[1,3,-1,-1,-1],"loss_changes":[8.733743E0,8.169255E0,0E0,0E0,0E0],"parents":[2147483647,0,0,1,1],"right_children":[2,4,-1,-1,-1],"split_conditions":[1.631488E0,1E0,3.9971996E-2,1.8884719E-4,-4.99152E-2],"split_indices":[55,18,0,0,0],"split_type":[0,0,0,0,0],"sum_hessian":[6.1584568E1,5.5234753E1,6.3498154E0,5.0830795E1,4.40396E0],"tree_param":{"num_deleted":"0","num_feature":"61","num_nodes":"5","size_leaf_vector":"1"}},{"base_weights":[-6.779431E-2],"categories":[],"categories_nodes":[],"categories_segments":[],"categories_sizes":[],"default_left":[0],"id":107,"left_children":[-1],"loss_changes":[0E0],"parents":[2147483647],"right_children":[-1],"split_conditions":[-2.423452E-3],"split_indices":[0],"split_type":[0],"sum_hessian":[6.591245E1],"tree_param":{"num_deleted":"0","num_feature":"61","num_nodes":"1","size_leaf_vector":"1"}},{"base_weights":[8.993789E-2],"categories":[],"categories_nodes":[],"categories_segments":[],"categories_sizes":[],"default_left":[0],"id":108,"left_children":[-1],"loss_changes":[0E0],"parents":[2147483647],"right_children":[-1],"split_conditions":[3.2150212E-3],"split_indices":[0],"split_type":[0],"sum_hessian":[6.625417E1],"tree_param":{"num_deleted":"0","num_feature":"61","num_nodes":"1","size_leaf_vector":"1"}},{"base_weights":[-1.0303061E-1],"categories":[],"categories_nodes":[],"categories_segments":[],"categories_sizes":[],"default_left":[0],"id":109,"left_children":[-1],"loss_changes":[0E0],"parents":[2147483647],"right_children":[-1],"split_conditions":[-3.6830485E-3],"split_indices":[0],"split_type":[0],"sum_hessian":[6.3610176E1],"tree_param":{"num_deleted":"0","num_feature":"61","num_nodes":"1","size_leaf_vector":"1"}},{"base_weights":[4.5375347E-2],"categories":[],"categories_nodes":[],"categories_segments":[],"categories_sizes":[],"default_left":[0],"id":110,"left_children":[-1],"loss_changes":[0E0],"parents":[2147483647],"right_children":[-1],"split_conditions":[1.6220384E-3],"split_indices":[0],"split_type":[0],"sum_hessian":[6.628152E1],"tree_param":{"num_deleted":"0","num_feature":"61","num_nodes":"1","size_leaf_vector":"1"}},{"base_weights":[-2.0364413E-2,5.770736E-3,-2.5514638E-2],"categories":[],"categories_nodes":[],"categories_segments":[],"categories_sizes":[],"default_left":[0,0,0],"id":111,"left_children":[1,-1,-1],"loss_changes":[8.062371E0,0E0,0E0],"parents":[2147483647,0,0],"right_children":[2,-1,-1],"split_conditions":[1E0,5.770736E-3,-2.5514638E-2],"split_indices":[27,0,0],"split_type":[0,0,0],"sum_hessian":[6.368214E1,5.0524128E1,1.3158011E1],"tree_param":{"num_deleted":"0","num_feature":"61","num_nodes":"3","size_leaf_vector":"1"}},{"base_weights":[1.5837502E-1],"categories":[],"categories_nodes":[],"categories_segments":[],"categories_sizes":[],"default_left":[0],"id":112,"left_children":[-1],"loss_changes":[0E0],"parents":[2147483647],"right_children":[-1],"split_conditions":[5.6614527E-3],"split_indices":[0],"split_type":[0],"sum_hessian":[6.691239E1],"tree_param":{"num_deleted":"0","num_feature":"61","num_nodes":"1","size_leaf_vector":"1"}},{"base_weights":[9.298609E-3],"categories":[],"categories_nodes":[],"categories_segments":[],"categories_sizes":[],"default_left":[0],"id":113,"left_children":[-1],"loss_changes":[0E0],"parents":[2147483647],"right_children":[-1],"split_conditions":[3.3239857E-4],"split_indices":[0],"split_type":[0],"sum_hessian":[6.3617153E1],"tree_param":{"num_deleted":"0","num_feature":"61","num_nodes":"1","size_leaf_vector":"1"}},{"base_weights":[1.7474147E-2,2.1384527E-1,-2.220165E-2,3.5869457E-2,-5.9834427E-5],"categories":[],"categories_nodes":[],"categories_segments":[],"categories_sizes":[],"default_left":[0,0,0,0,0],"id":114,"left_children":[1,3,-1,-1,-1],"loss_changes":[7.4938335E0,7.7806215E0,0E0,0E0,0E0],"parents":[2147483647,0,0,1,1],"right_children":[2,4,-1,-1,-1],"split_conditions":[1E0,-6.831391E-1,-2.220165E-2,3.5869457E-2,-5.9834427E-5],"split_indices":[39,55,0,0,0],"split_type":[0,0,0,0,0],"sum_hessian":[5.9489803E1,4.556229E1,1.3927512E1,9.677912E0,3.588438E1],"tree_param":{"num_deleted":"0","num_feature":"61","num_nodes":"5","size_leaf_vector":"1"}},{"base_weights":[6.635106E-2],"categories":[],"categories_nodes":[],"categories_segments":[],"categories_sizes":[],"default_left":[0],"id":115,"left_children":[-1],"loss_changes":[0E0],"parents":[2147483647],"right_children":[-1],"split_conditions":[2.37186E-3],"split_indices":[0],"split_type":[0],"sum_hessian":[6.521909E1],"tree_param":{"num_deleted":"0","num_feature":"61","num_nodes":"1","size_leaf_vector":"1"}},{"base_weights":[1.0150574E-3],"categories":[],"categories_nodes":[],"categories_segments":[],"categories_sizes":[],"default_left":[0],"id":116,"left_children":[-1],"loss_changes":[0E0],"parents":[2147483647],"right_children":[-1],"split_conditions":[3.628539E-5],"split_indices":[0],"split_type":[0],"sum_hessian":[6.4773964E1],"tree_param":{"num_deleted":"0","num_feature":"61","num_nodes":"1","size_leaf_vector":"1"}},{"base_weights":[-1.12764284E-1],"categories":[],"categories_nodes":[],"categories_segments":[],"categories_sizes":[],"default_left":[0],"id":117,"left_children":[-1],"loss_changes":[0E0],"parents":[2147483647],"right_children":[-1],"split_conditions":[-4.0309993E-3],"split_indices":[0],"split_type":[0],"sum_hessian":[6.3612705E1],"tree_param":{"num_deleted":"0","num_feature":"61","num_nodes":"1","size_leaf_vector":"1"}},{"base_weights":[-4.6243794E-2,-8.861677E-3,1.9288141E-2],"categories":[],"categories_nodes":[],"categories_segments":[],"categories_sizes":[],"default_left":[0,0,0],"id":118,"left_children":[1,-1,-1],"loss_changes":[7.5937896E0,0E0,0E0],"parents":[2147483647,0,0],"right_children":[2,-1,-1],"split_conditions":[1E0,-8.861677E-3,1.9288141E-2],"split_indices":[13,0,0],"split_type":[0,0,0],"sum_hessian":[6.3999146E1,4.766521E1,1.6333933E1],"tree_param":{"num_deleted":"0","num_feature":"61","num_nodes":"3","size_leaf_vector":"1"}},{"base_weights":[-2.0439193E-2],"categories":[],"categories_nodes":[],"categories_segments":[],"categories_sizes":[],"default_left":[0],"id":119,"left_children":[-1],"loss_changes":[0E0],"parents":[2147483647],"right_children":[-1],"split_conditions":[-7.3064247E-4],"split_indices":[0],"split_type":[0],"sum_hessian":[6.2624752E1],"tree_param":{"num_deleted":"0","num_feature":"61","num_nodes":"1","size_leaf_vector":"1"}},{"base_weights":[1.2046902E-1],"categories":[],"categories_nodes":[],"categories_segments":[],"categories_sizes":[],"default_left":[0],"id":120,"left_children":[-1],"loss_changes":[0E0],"parents":[2147483647],"right_children":[-1],"split_conditions":[4.3064216E-3],"split_indices":[0],"split_type":[0],"sum_hessian":[6.202016E1],"tree_param":{"num_deleted":"0","num_feature":"61","num_nodes":"1","size_leaf_vector":"1"}},{"base_weights":[-1.0397495E-1],"categories":[],"categories_nodes":[],"categories_segments":[],"categories_sizes":[],"default_left":[0],"id":121,"left_children":[-1],"loss_changes":[0E0],"parents":[2147483647],"right_children":[-1],"split_conditions":[-3.7168062E-3],"split_indices":[0],"split_type":[0],"sum_hessian":[6.783093E1],"tree_param":{"num_deleted":"0","num_feature":"61","num_nodes":"1","size_leaf_vector":"1"}},{"base_weights":[1.5810147E-2,-1.5527331E-2,1.04205E-2],"categories":[],"categories_nodes":[],"categories_segments":[],"categories_sizes":[],"default_left":[0,0,0],"id":122,"left_children":[1,-1,-1],"loss_changes":[8.064892E0,0E0,0E0],"parents":[2147483647,0,0],"right_children":[2,-1,-1],"split_conditions":[3.1195646E-2,-1.5527331E-2,1.04205E-2],"split_indices":[56,0,0],"split_type":[0,0,0],"sum_hessian":[6.471121E1,2.4548319E1,4.0162895E1],"tree_param":{"num_deleted":"0","num_feature":"61","num_nodes":"3","size_leaf_vector":"1"}},{"base_weights":[7.686375E-2],"categories":[],"categories_nodes":[],"categories_segments":[],"categories_sizes":[],"default_left":[0],"id":123,"left_children":[-1],"loss_changes":[0E0],"parents":[2147483647],"right_children":[-1],"split_conditions":[2.7476584E-3],"split_indices":[0],"split_type":[0],"sum_hessian":[6.4815956E1],"tree_param":{"num_deleted":"0","num_feature":"61","num_nodes":"1","size_leaf_vector":"1"}},{"base_weights":[7.1264625E-2,1.6555773E-2,-9.420248E-3],"categories":[],"categories_nodes":[],"categories_segments":[],"categories_sizes":[],"default_left":[0,0,0],"id":124,"left_children":[1,-1,-1],"loss_changes":[8.690233E0,0E0,0E0],"parents":[2147483647,0,0],"right_children":[2,-1,-1],"split_conditions":[-3.997342E-1,1.6555773E-2,-9.420248E-3],"split_indices":[58,0,0],"split_type":[0,0,0],"sum_hessian":[6.5977394E1,3.0379578E1,3.5597816E1],"tree_param":{"num_deleted":"0","num_feature":"61","num_nodes":"3","size_leaf_vector":"1"}},{"base_weights":[-2.648089E-2],"categories":[],"categories_nodes":[],"categories_segments":[],"categories_sizes":[],"default_left":[0],"id":125,"left_children":[-1],"loss_changes":[0E0],"parents":[2147483647],"right_children":[-1],"split_conditions":[-9.466158E-4],"split_indices":[0],"split_type":[0],"sum_hessian":[6.25218E1],"tree_param":{"num_deleted":"0","num_feature":"61","num_nodes":"1","size_leaf_vector":"1"}},{"base_weights":[6.227152E-2,7.969375E-3,-2.3902588E-2],"categories":[],"categories_nodes":[],"categories_segments":[],"categories_sizes":[],"default_left":[0,0,0],"id":126,"left_children":[1,-1,-1],"loss_changes":[7.7193317E0,0E0,0E0],"parents":[2147483647,0,0],"right_children":[2,-1,-1],"split_conditions":[1E0,7.969375E-3,-2.3902588E-2],"split_indices":[23,0,0],"split_type":[0,0,0],"sum_hessian":[6.543273E1,5.371321E1,1.171952E1],"tree_param":{"num_deleted":"0","num_feature":"61","num_nodes":"3","size_leaf_vector":"1"}},{"base_weights":[-3.0547624E-2,5.9270505E-3,-2.6983758E-2],"categories":[],"categories_nodes":[],"categories_segments":[],"categories_sizes":[],"default_left":[0,0,0],"id":127,"left_children":[1,-1,-1],"loss_changes":[8.995273E0,0E0,0E0],"parents":[2147483647,0,0],"right_children":[2,-1,-1],"split_conditions":[1E0,5.9270505E-3,-2.6983758E-2],"split_indices":[5,0,0],"split_type":[0,0,0],"sum_hessian":[6.2980274E1,4.9618443E1,1.3361832E1],"tree_param":{"num_deleted":"0","num_feature":"61","num_nodes":"3","size_leaf_vector":"1"}},{"base_weights":[3.6599617E-2,-1.04732595E-1,8.8831943E-1,-1.3032747E-2,1.642058E-2,5.5763565E-2,-1.0467427E-2],"categories":[],"categories_nodes":[],"categories_segments":[],"categories_sizes":[],"default_left":[0,0,0,0,0,0,0],"id":128,"left_children":[1,3,5,-1,-1,-1,-1],"loss_changes":[7.6238585E0,7.9822073E0,8.609356E0,0E0,0E0,0E0,0E0],"parents":[2147483647,0,0,1,1,2,2],"right_children":[2,4,6,-1,-1,-1,-1],"split_conditions":[1E0,1.91406E-1,1E0,-1.3032747E-2,1.642058E-2,5.5763565E-2,-1.0467427E-2],"split_indices":[40,55,0,0,0,0,0],"split_type":[0,0,0,0,0,0,0],"sum_hessian":[6.3062912E1,5.4175728E1,8.887181E0,3.712231E1,1.7053417E1,5.2343497E0,3.6528316E0],"tree_param":{"num_deleted":"0","num_feature":"61","num_nodes":"7","size_leaf_vector":"1"}},{"base_weights":[-6.664991E-2,1.4369647E-1,-2.2338416E-2,1.0763722E-2,-3.4491293E-2],"categories":[],"categories_nodes":[],"categories_segments":[],"categories_sizes":[],"default_left":[0,0,0,0,0],"id":129,"left_children":[1,3,-1,-1,-1],"loss_changes":[7.6876388E0,8.336295E0,0E0,0E0,0E0],"parents":[2147483647,0,0,1,1],"right_children":[2,4,-1,-1,-1],"split_conditions":[1E0,1E0,-2.2338416E-2,1.0763722E-2,-3.4491293E-2],"split_indices":[15,18,0,0,0],"split_type":[0,0,0,0,0],"sum_hessian":[6.5214096E1,4.74282E1,1.7785896E1,4.1609844E1,5.818357E0],"tree_param":{"num_deleted":"0","num_feature":"61","num_nodes":"5","size_leaf_vector":"1"}},{"base_weights":[-5.18714E-2,-1.0915116E-2,1.5006588E-2],"categories":[],"categories_nodes":[],"categories_segments":[],"categories_sizes":[],"default_left":[0,0,0],"id":130,"left_children":[1,-1,-1],"loss_changes":[7.5160837E0,0E0,0E0],"parents":[2147483647,0,0],"right_children":[2,-1,-1],"split_conditions":[1E0,-1.0915116E-2,1.5006588E-2],"split_indices":[29,0,0],"split_type":[0,0,0],"sum_hessian":[6.2591316E1,4.0743855E1,2.184746E1],"tree_param":{"num_deleted":"0","num_feature":"61","num_nodes":"3","size_leaf_vector":"1"}},{"base_weights":[-1.720689E-1,2.6187906E-3,-2.6993528E-2],"categories":[],"categories_nodes":[],"categories_segments":[],"categories_sizes":[],"default_left":[0,0,0],"id":131,"left_children":[1,-1,-1],"loss_changes":[9.262225E0,0E0,0E0],"parents":[2147483647,0,0],"right_children":[2,-1,-1],"split_conditions":[1E0,2.6187906E-3,-2.6993528E-2],"split_indices":[3,0,0],"split_type":[0,0,0],"sum_hessian":[6.455002E1,4.5504387E1,1.9045635E1],"tree_param":{"num_deleted":"0","num_feature":"61","num_nodes":"3","size_leaf_vector":"1"}},{"base_weights":[1.3235857E-1],"categories":[],"categories_nodes":[],"categories_segments":[],"categories_sizes":[],"default_left":[0],"id":132,"left_children":[-1],"loss_changes":[0E0],"parents":[2147483647],"right_children":[-1],"split_conditions":[4.7314386E-3],"split_indices":[0],"split_type":[0],"sum_hessian":[6.450595E1],"tree_param":{"num_deleted":"0","num_feature":"61","num_nodes":"1","size_leaf_vector":"1"}},{"base_weights":[1.5402082E-1],"categories":[],"categories_nodes":[],"categories_segments":[],"categories_sizes":[],"default_left":[0],"id":133,"left_children":[-1],"loss_changes":[0E0],"parents":[2147483647],"right_children":[-1],"split_conditions":[5.505802E-3],"split_indices":[0],"split_type":[0],"sum_hessian":[5.9245792E1],"tree_param":{"num_deleted":"0","num_feature":"61","num_nodes":"1","size_leaf_vector":"1"}},{"base_weights":[6.4690486E-2],"categories":[],"categories_nodes":[],"categories_segments":[],"categories_sizes":[],"default_left":[0],"id":134,"left_children":[-1],"loss_changes":[0E0],"parents":[2147483647],"right_children":[-1],"split_conditions":[2.312499E-3],"split_indices":[0],"split_type":[0],"sum_hessian":[6.2100304E1],"tree_param":{"num_deleted":"0","num_feature":"61","num_nodes":"1","size_leaf_vector":"1"}},{"base_weights":[-8.0157265E-2],"categories":[],"categories_nodes":[],"categories_segments":[],"categories_sizes":[],"default_left":[0],"id":135,"left_children":[-1],"loss_changes":[0E0],"parents":[2147483647],"right_children":[-1],"split_conditions":[-2.865392E-3],"split_indices":[0],"split_type":[0],"sum_hessian":[6.653327E1],"tree_param":{"num_deleted":"0","num_feature":"61","num_nodes":"1","size_leaf_vector":"1"}},{"base_weights":[-4.0031713E-2],"categories":[],"categories_nodes":[],"categories_segments":[],"categories_sizes":[],"default_left":[0],"id":136,"left_children":[-1],"loss_changes":[0E0],"parents":[2147483647],"right_children":[-1],"split_conditions":[-1.4310188E-3],"split_indices":[0],"split_type":[0],"sum_hessian":[6.6649994E1],"tree_param":{"num_deleted":"0","num_feature":"61","num_nodes":"1","size_leaf_vector":"1"}},{"base_weights":[-4.0034838E-2],"categories":[],"categories_nodes":[],"categories_segments":[],"categories_sizes":[],"default_left":[0],"id":137,"left_children":[-1],"loss_changes":[0E0],"parents":[2147483647],"right_children":[-1],"split_conditions":[-1.4311306E-3],"split_indices":[0],"split_type":[0],"sum_hessian":[6.8857544E1],"tree_param":{"num_deleted":"0","num_feature":"61","num_nodes":"1","size_leaf_vector":"1"}},{"base_weights":[-2.656012E-2],"categories":[],"categories_nodes":[],"categories_segments":[],"categories_sizes":[],"default_left":[0],"id":138,"left_children":[-1],"loss_changes":[0E0],"parents":[2147483647],"right_children":[-1],"split_conditions":[-9.4944803E-4],"split_indices":[0],"split_type":[0],"sum_hessian":[6.695478E1],"tree_param":{"num_deleted":"0","num_feature":"61","num_nodes":"1","size_leaf_vector":"1"}},{"base_weights":[3.4636118E-2],"categories":[],"categories_nodes":[],"categories_segments":[],"categories_sizes":[],"default_left":[0],"id":139,"left_children":[-1],"loss_changes":[0E0],"parents":[2147483647],"right_children":[-1],"split_conditions":[1.2381418E-3],"split_indices":[0],"split_type":[0],"sum_hessian":[6.3126846E1],"tree_param":{"num_deleted":"0","num_feature":"61","num_nodes":"1","size_leaf_vector":"1"}},{"base_weights":[-1.3609521E-1],"categories":[],"categories_nodes":[],"categories_segments":[],"categories_sizes":[],"default_left":[0],"id":140,"left_children":[-1],"loss_changes":[0E0],"parents":[2147483647],"right_children":[-1],"split_conditions":[-4.865013E-3],"split_indices":[0],"split_type":[0],"sum_hessian":[5.715101E1],"tree_param":{"num_deleted":"0","num_feature":"61","num_nodes":"1","size_leaf_vector":"1"}},{"base_weights":[1.5855362E-1],"categories":[],"categories_nodes":[],"categories_segments":[],"categories_sizes":[],"default_left":[0],"id":141,"left_children":[-1],"loss_changes":[0E0],"parents":[2147483647],"right_children":[-1],"split_conditions":[5.6678364E-3],"split_indices":[0],"split_type":[0],"sum_hessian":[6.4944725E1],"tree_param":{"num_deleted":"0","num_feature":"61","num_nodes":"1","size_leaf_vector":"1"}},{"base_weights":[-2.3317011E-2,-5.553034E-3,3.091373E-2],"categories":[],"categories_nodes":[],"categories_segments":[],"categories_sizes":[],"default_left":[0,0,0],"id":142,"left_children":[1,-1,-1],"loss_changes":[8.130676E0,0E0,0E0],"parents":[2147483647,0,0],"right_children":[2,-1,-1],"split_conditions":[1.4906217E0,-5.553034E-3,3.091373E-2],"split_indices":[55,0,0],"split_type":[0,0,0],"sum_hessian":[6.905687E1,6.0208572E1,8.848297E0],"tree_param":{"num_deleted":"0","num_feature":"61","num_nodes":"3","size_leaf_vector":"1"}},{"base_weights":[-5.4366525E-2],"categories":[],"categories_nodes":[],"categories_segments":[],"categories_sizes":[],"default_left":[0],"id":143,"left_children":[-1],"loss_changes":[0E0],"parents":[2147483647],"right_children":[-1],"split_conditions":[-1.9434472E-3],"split_indices":[0],"split_type":[0],"sum_hessian":[6.2784782E1],"tree_param":{"num_deleted":"0","num_feature":"61","num_nodes":"1","size_leaf_vector":"1"}},{"base_weights":[-1.1576282E-1],"categories":[],"categories_nodes":[],"categories_segments":[],"categories_sizes":[],"default_left":[0],"id":144,"left_children":[-1],"loss_changes":[0E0],"parents":[2147483647],"right_children":[-1],"split_conditions":[-4.1381884E-3],"split_indices":[0],"split_type":[0],"sum_hessian":[6.006523E1],"tree_param":{"num_deleted":"0","num_feature":"61","num_nodes":"1","size_leaf_vector":"1"}},{"base_weights":[-9.707434E-2],"categories":[],"categories_nodes":[],"categories_segments":[],"categories_sizes":[],"default_left":[0],"id":145,"left_children":[-1],"loss_changes":[0E0],"parents":[2147483647],"right_children":[-1],"split_conditions":[-3.4701289E-3],"split_indices":[0],"split_type":[0],"sum_hessian":[6.535881E1],"tree_param":{"num_deleted":"0","num_feature":"61","num_nodes":"1","size_leaf_vector":"1"}},{"base_weights":[5.2109156E-2],"categories":[],"categories_nodes":[],"categories_segments":[],"categories_sizes":[],"default_left":[0],"id":146,"left_children":[-1],"loss_changes":[0E0],"parents":[2147483647],"right_children":[-1],"split_conditions":[1.8627527E-3],"split_indices":[0],"split_type":[0],"sum_hessian":[6.195505E1],"tree_param":{"num_deleted":"0","num_feature":"61","num_nodes":"1","size_leaf_vector":"1"}},{"base_weights":[-5.641243E-3,-2.5959328E-1,2.1981616E-2,-1.8509807E-2,1.6249465E-2],"categories":[],"categories_nodes":[],"categories_segments":[],"categories_sizes":[],"default_left":[0,0,0,0,0],"id":147,"left_children":[1,3,-1,-1,-1],"loss_changes":[9.57447E0,7.9792366E0,0E0,0E0,0E0],"parents":[2147483647,0,0,1,1],"right_children":[2,4,-1,-1,-1],"split_conditions":[1.91406E-1,1E0,2.1981616E-2,-1.8509807E-2,1.6249465E-2],"split_indices":[55,13,0,0,0],"split_type":[0,0,0,0,0],"sum_hessian":[6.048955E1,4.2976486E1,1.7513065E1,3.159133E1,1.1385155E1],"tree_param":{"num_deleted":"0","num_feature":"61","num_nodes":"5","size_leaf_vector":"1"}},{"base_weights":[-1.852485E-2],"categories":[],"categories_nodes":[],"categories_segments":[],"categories_sizes":[],"default_left":[0],"id":148,"left_children":[-1],"loss_changes":[0E0],"parents":[2147483647],"right_children":[-1],"split_conditions":[-6.622102E-4],"split_indices":[0],"split_type":[0],"sum_hessian":[6.745121E1],"tree_param":{"num_deleted":"0","num_feature":"61","num_nodes":"1","size_leaf_vector":"1"}},{"base_weights":[-6.296223E-2],"categories":[],"categories_nodes":[],"categories_segments":[],"categories_sizes":[],"default_left":[0],"id":149,"left_children":[-1],"loss_changes":[0E0],"parents":[2147483647],"right_children":[-1],"split_conditions":[-2.250719E-3],"split_indices":[0],"split_type":[0],"sum_hessian":[6.506585E1],"tree_param":{"num_deleted":"0","num_feature":"61","num_nodes":"1","size_leaf_vector":"1"}},{"base_weights":[4.625129E-3],"categories":[],"categories_nodes":[],"categories_segments":[],"categories_sizes":[],"default_left":[0],"id":150,"left_children":[-1],"loss_changes":[0E0],"parents":[2147483647],"right_children":[-1],"split_conditions":[1.6533509E-4],"split_indices":[0],"split_type":[0],"sum_hessian":[6.173739E1],"tree_param":{"num_deleted":"0","num_feature":"61","num_nodes":"1","size_leaf_vector":"1"}},{"base_weights":[-1.838687E-2],"categories":[],"categories_nodes":[],"categories_segments":[],"categories_sizes":[],"default_left":[0],"id":151,"left_children":[-1],"loss_changes":[0E0],"parents":[2147483647],"right_children":[-1],"split_conditions":[-6.572778E-4],"split_indices":[0],"split_type":[0],"sum_hessian":[6.433798E1],"tree_param":{"num_deleted":"0","num_feature":"61","num_nodes":"1","size_leaf_vector":"1"}},{"base_weights":[-1.6408548E-1,-3.5281327E-2,-8.0951635E-4],"categories":[],"categories_nodes":[],"categories_segments":[],"categories_sizes":[],"default_left":[0,0,0],"id":152,"left_children":[1,-1,-1],"loss_changes":[7.784773E0,0E0,0E0],"parents":[2147483647,0,0],"right_children":[2,-1,-1],"split_conditions":[-7.707738E-1,-3.5281327E-2,-8.0951635E-4],"split_indices":[54,0,0],"split_type":[0,0,0],"sum_hessian":[6.67737E1,9.685611E0,5.7088085E1],"tree_param":{"num_deleted":"0","num_feature":"61","num_nodes":"3","size_leaf_vector":"1"}},{"base_weights":[1.5756322E-1],"categories":[],"categories_nodes":[],"categories_segments":[],"categories_sizes":[],"default_left":[0],"id":153,"left_children":[-1],"loss_changes":[0E0],"parents":[2147483647],"right_children":[-1],"split_conditions":[5.632433E-3],"split_indices":[0],"split_type":[0],"sum_hessian":[6.1433712E1],"tree_param":{"num_deleted":"0","num_feature":"61","num_nodes":"1","size_leaf_vector":"1"}},{"base_weights":[2.0604879E-2,-2.3846095E-3,5.5763565E-2],"categories":[],"categories_nodes":[],"categories_segments":[],"categories_sizes":[],"default_left":[0,0,0],"id":154,"left_children":[1,-1,-1],"loss_changes":[9.188815E0,0E0,0E0],"parents":[2147483647,0,0],"right_children":[2,-1,-1],"split_conditions":[1E0,-2.3846095E-3,5.5763565E-2],"split_indices":[11,0,0],"split_type":[0,0,0],"sum_hessian":[6.530965E1,6.20514E1,3.2582455E0],"tree_param":{"num_deleted":"0","num_feature":"61","num_nodes":"3","size_leaf_vector":"1"}},{"base_weights":[2.1657102E-2,-2.2627956E-3,5.5763565E-2],"categories":[],"categories_nodes":[],